-0.997681
-0.528855
0.296304
-0.851253
-0.459517
-0.279946
-0.489425
0.97058
-0.362163
0.868465
-0.64275
0.71514
-0.930296
-0.982849
0.253517
-0.0282296
-0.454024
0.604358
-0.817072
-0.103977
0.280313
0.946532
0.321757
0.581225
0.12656
-0.919248
0.76281
-0.863277
-0.406415
0.970153
-0.850703
-0.963988
-0.948729
0.134495
0.0319529
0.296243
0.441145
-0.229896
-0.239723
-0.947081
0.802548
-0.580162
0.722736
0.091724
0.928461
0.256396
-0.254684
0.898941
-0.537389
0.0416699
-0.534464
0.794789
-0.250347
-0.175785
0.488315
-0.28895
-0.24761
-0.561965
-0.857577
0.175838
0.34966
-0.137116
0.643779
-0.932819
0.321318
-0.487015
0.48533
0.700281
-0.658169
0.51205
-0.139617
-0.193485
-0.714076
0.0194567
-0.0687106
-0.026927
-0.832369
0.670907
0.762273
0.0989207
0.0176703
-0.807611
-0.278603
0.434614
-0.985412
-0.744499
-0.828852
0.766228
-0.815485
-0.369182
0.253273
0.305765
-0.0221869
-0.293558
0.585925
-0.147862
-0.961913
-0.568773
0.68273
-0.216895
0.475082
-0.253151
0.907346
0.442671
-0.0466628
0.570299
-0.22483
0.484603
-0.0892056
0.390057
-0.584335
-0.263743
-0.782315
0.537544
-0.992862
0.144276
0.589976
0.197558
-0.0029414
-0.6357
0.0695162
-0.781614
-0.0814459
0.558254
-0.117797
0.786696
0.619177
0.961397
0.988793
-0.973407
-0.287994
0.779896
0.636821
-0.411564
-0.940683
0.985372
-0.766791
0.287538
-0.891941
-0.435734
-0.156281
-0.144168
0.880455
0.788101
0.63115
-0.129414
0.442847
-0.93516
-0.447725
-0.0795515
-0.344035
-0.0644246
-0.382733
-0.927793
0.0229194
-0.222205
0.0309763
-0.298441
-0.550707
0.778191
-0.476791
0.748772
0.72454
0.737724
-0.815729
0.463302
-0.461592
0.270913
-0.883419
-0.301004
0.846248
0.962706
0.215308
-0.177526
-0.607166
-0.956114
-0.610096
0.297342
-0.789605
0.149937
-0.459578
0.00668359
-0.0993988
-0.277261
0.599414
-0.623585
0.514695
0.620899
0.953246
-0.638234
0.844172
0.49852
-0.445601
0.359844
0.933287
0.516526
0.0384839
-0.890194
0.627552
-0.0516678
-0.843745
0.64507
-0.0310373
0.242714
0.83636
-0.642933
0.252602
-0.894223
0.187475
0.236427
0.554491
0.165624
0.75634
0.351421
-0.454329
0.780877
-0.649464
-0.372478
-0.596179
-0.44322
-0.258583
0.990539
-0.365764
0.130589
-0.44261
0.934568
-0.385662
0.788751
-0.317911
0.579577
-0.326945
0.47911
0.468123
0.278542
-0.482284
0.779962
0.0804163
-0.161107
-0.178686
0.388287
-0.719779
-0.581347
-0.217872
-0.309488
-0.0359813
-0.838008
0.468856
-0.022309
-0.232337
0.634754
0.763237
0.867367
0.050325
0.123386
-0.287332
0.495224
-0.43028
0.860225
0.105991
0.0391552
-0.839473
0.236122
-0.916257
-0.862972
-0.269631
-0.93524
0.596545
-0.237709
0.883541
0.959899
-0.476608
-0.881588
0.487106
0.887631
0.263039
-0.884213
0.490219
0.958617
-0.390118
0.993469
-0.689871
0.519578
0.728019
0.646718
0.0973235
0.60857
0.0350658
-0.774285
-0.808588
-0.16361
-0.190771
0.565172
0.0817591
-0.244179
0.33079
0.00869775
-0.81634
0.781671
0.371807
0.190344
0.744316
0.724357
-0.154393
0.335734
-0.810663
0.999207
-0.570605
0.64507
0.224036
0.573656
0.971374
0.320658
-0.999939
0.716056
-0.504013
0.80163
0.66216
0.606677
0.619434
0.767937
-0.414777
0.875423
0.187353
0.476669
0.616138
-0.872555
-0.0521562
-0.00711083
0.631336
0.519456
0.0725425
0.87701
-0.276284
-0.550707
0.337321
-0.1077
0.330973
-0.578234
0.77575
0.294412
-0.382794
-0.847835
-0.381939
-0.735404
-0.578112
-0.0292062
-0.672597
-0.948729
-0.912961
0.590808
0.546434
0.380047
-0.52385
0.30192
0.766228
-0.304056
-0.503464
0.652333
-0.468917
0.80108
-0.561022
0.680959
0.990356
0.447737
0.445357
-0.235939
-0.389752
0.452742
0.418134
-0.863521
-0.140782
-0.107578
-0.316202
0.151769
-0.322428
-0.0570391
0.722587
0.342937
0.545091
0.92761
-0.723136
-0.653371
-0.0410474
0.132908
-0.848201
-0.246864
-0.86578
-0.042024
0.0185248
0.94409
-0.260659
0.957152
0.53502
0.981628
0.479171
-0.659474
0.0951872
0.610584
-0.661183
-0.506088
-0.480209
0.436689
0.299539
-0.919797
0.000518799
-0.657704
0.339763
-0.714103
0.61156
-0.796075
-0.465865
-0.225379
-0.301065
-0.0275582
0.0627155
0.909909
0.462325
0.178808
0.942381
0.809992
0.0398266
0.929075
0.293619
-0.202429
0.409955
0.449141
-0.0445265
-0.194006
0.421857
-0.756829
0.259865
-0.694449
-0.73278
0.928343
-0.221229
-0.688589
0.706595
0.806452
-0.142918
-0.963927
0.36082
-0.761956
0.742485
0.74926
-0.617115
-0.121372
-0.874264
0.40672
0.820246
-0.158971
-0.0961638
-0.388104
-0.019013
-0.153966
-0.022309
-0.528733
-0.88287
-0.576098
0.898373
-0.0929899
-0.263771
-0.771172
0.172582
0.989746
0.854427
-0.470138
0.0415357
-0.147801
0.503525
0.939146
-0.45555
-0.25132
0.804865
0.441755
0.680288
0.820551
-0.0788903
0.788568
0.478683
-0.868282
-0.799371
0.314676
-0.205359
-0.463851
0.824824
-0.753716
0.637806
0.939695
0.272256
-0.441267
0.8493
-0.48088
0.911985
0.446944
-0.0611896
0.460799
-0.962523
0.472335
0.894955
-0.218909
0.655629
0.44792
-0.220618
0.791376
0.340617
0.124119
-0.0797449
0.770379
-0.531663
0.737785
0.51439
0.405744
0.141209
0.486801
0.453108
-0.432539
0.116794
0.993652
-0.817499
-0.0232856
-0.946471
-0.180944
-0.587878
0.330241
-0.614978
-0.910764
-0.517014
0.445967
0.135533
-0.70098
0.208655
-0.0107731
0.989441
0.352824
0.00180054
0.34434
0.92761
0.906796
-0.90228
-0.807062
0.741997
0.0743736
0.68865
0.36198
-0.258034
0.557176
-0.219886
0.503342
-0.0352489
-0.735771
-0.416852
-0.831294
0.201758
0.482589
0.253639
-0.159093
-0.845943
-0.33964
-0.208228
0.484787
0.0297556
0.866085
-0.0851772
-0.819819
-0.105808
-0.0137028
0.714103
-0.59978
0.0877407
0.723807
0.910459
0.49498
-0.978393
-0.540941
-0.480636
-0.0537431
-0.334452
0.0379345
-0.260964
0.953612
-0.960814
0.546922
0.873409
-0.0851772
0.0200506
-0.860347
-0.897397
-0.635853
0.780023
0.97705
0.91467
0.929197
0.163976
-0.658193
0.00802636
-0.129795
0.321573
0.993469
-0.518784
-0.235756
0.905637
0.821772
0.118625
0.895749
0.149754
-0.134983
0.587268
0.91699
-0.862911
-0.246071
0.355815
-0.659536
0.573046
-0.357097
-0.850703
0.426252
0.374126
0.693228
-0.249306
0.0253608
-0.613575
0.168676
-0.0367138
0.943846
-0.455367
0.207312
0.545457
0.38786
-0.214332
-0.668264
0.930662
0.0541093
0.0280465
-0.240333
-0.455
0.426984
0.530992
0.577868
0.535264
-0.155187
0.944151
-0.15775
-0.281228
-0.100986
0.361614
-0.333964
-0.430341
-0.272988
0.692312
-0.64153
0.0517899
0.762627
0.659413
0.677175
-0.887997
0.505722
0.740593
0.255959
-0.353374
0.874142
0.36314
-0.728751
0.752312
-0.300089
-0.335429
-0.590808
0.0749229
0.932859
-0.867306
-0.804315
-0.931089
0.113132
-0.563219
-0.247353
-0.0212104
0.676504
0.762871
0.0425733
0.355693
-0.346477
-0.0347606
0.663381
-0.0775476
0.326396
0.847346
0.256996
-0.402264
0.404462
-0.116916
-0.406293
-0.506211
-0.717277
0.693228
-0.605518
-0.301431
0.944456
-0.412763
0.954466
0.656117
0.0701621
-0.515305
-0.37083
0.956542
-0.0822474
0.527635
0.247352
-0.650807
-0.467208
0.697195
0.511277
0.79107
0.854793
0.746208
-0.551927
-0.658376
-0.72045
0.761406
0.974975
-0.280251
0.242042
0.666067
-0.361003
0.331523
-0.620228
-0.0224922
0.596484
-0.41551
0.842708
-0.869625
0.891964
0.298746
-0.691824
-0.320841
0.101474
0.0284127
0.266945
-0.308206
-0.598987
0.106052
0.140294
-0.352519
-0.876705
-0.77813
0.792108
-0.849178
-0.134434
0.350932
-0.00222784
-0.224952
-0.789544
0.839839
0.433027
0.345805
-0.877194
0.466964
0.74395
-0.0198065
0.0846279
-0.712516
-0.737541
-0.808893
-0.969298
0.0755943
-0.0714439
0.371014
-0.851802
-0.822321
0.981506
-0.0331736
0.60094
0.587573
-0.0162053
-0.3408
0.242592
-0.943052
-0.260598
0.85754
-0.618885
-0.945799
0.668935
-0.175634
-0.344523
-0.617786
0.204443
-0.258766
0.0886563
0.269753
0.766167
-0.972106
-0.62096
0.74749
0.883969
0.228858
0.492538
-0.877987
-0.974425
0.777459
-0.382427
0.360027
0.694754
-0.0470901
0.546678
-0.805414
0.360698
-0.65978
0.545335
0.767449
0.783196
-0.893246
0.772637
-0.381878
-0.706473
-0.592212
-0.685659
0.833979
-0.404096
-0.766411
-0.107578
0.171972
0.650258
0.00991857
0.312296
0.966857
-0.800226
0.265542
-0.288736
0.63567
-0.494003
0.678274
0.670217
0.593371
0.852473
-0.187414
-0.749504
0.390667
0.380902
-0.139012
-0.979736
-0.11301
-0.177648
0.701956
0.130345
0.271645
-0.315409
-0.413495
-0.496078
-0.255898
-0.540574
0.766839
-0.797479
0.668325
-0.587878
0.377728
-0.970702
0.010651
0.515183
0.885617
0.433637
-0.123142
0.0890836
0.415754
-0.220862
-0.0415967
-0.287088
-0.729057
0.0372021
0.701529
0.966735
0.954405
0.96881
-0.988159
-0.431684
0.00869775
0.857112
-0.693838
-0.532456
-0.0159612
-0.146275
-0.275307
-0.540452
-0.152806
9.15527e-05
0.315836
-0.119419
0.145543
-0.01236
-0.993835
-0.0522782
-0.763909
-0.28135
0.16831
-0.693594
0.894711
0.730155
-0.401959
0.346965
-0.384381
-0.456099
0.715629
0.853023
0.915891
0.0044862
-0.199316
-0.455
0.955382
-0.331706
-0.924253
0.0804163
0.786309
0.305521
-0.550096
0.073397
-0.456343
-0.421613
-0.265786
0.696646
-0.109897
-0.0426344
0.14359
-0.572314
0.0265206
-0.0620441
0.89526
-0.497543
-0.417646
-0.378643
-0.282022
0.637928
-0.303384
-0.279641
-0.916196
0.587207
0.603259
0.0538042
0.97467
0.0889004
-0.967528
0.591723
-0.00296032
0.773736
0.741874
-0.886288
0.656606
0.590442
0.487472
0.543504
-0.394452
0.313883
0.750481
0.0209051
0.675161
-0.302347
-0.471236
0.775567
-0.494552
0.833796
0.508591
0.863338
-0.413739
-0.718497
-0.073336
-0.1713
0.519517
0.529099
-0.562975
-0.644642
0.317545
0.348857
-0.706534
0.967711
0.548875
0.610401
-0.838252
0.845332
0.144078
-0.887326
0.872555
0.813837
0.674551
0.998535
0.428388
-0.426679
0.91583
0.312967
-0.422651
-0.771905
-0.490768
-0.730338
0.265664
-0.820734
-0.466536
-0.213843
0.280862
0.443709
-0.201453
0.85107
-0.599963
0.460555
0.675405
0.286294
0.353923
-0.551012
-0.727287
0.465987
-0.0804163
0.379559
-0.225806
0.554857
0.455123
-0.379681
-0.251747
0.829096
-0.812128
0.322184
0.24308
-0.358928
-0.430769
-0.395367
0.479293
0.591907
0.0082705
-0.395123
0.952574
0.472579
0.29667
-0.547472
-0.240699
-0.46202
-0.962218
0.233009
-0.0429395
0.675222
0.392132
0.00112915
0.772759
-0.971679
-0.548631
0.908506
0.471236
0.643849
0.554127
-0.493547
-0.303602
-0.303365
-0.144328
0.287403
-0.903172
0.86238
0.464046
-0.47323
0.0508261
0.394663
-0.546163
-0.511866
0.299107
0.474054
-0.925817
0.0549761
-0.697245
0.38727
-0.542033
-0.150788
-0.866276
-0.89815
-0.851508
-0.0981975
-0.284835
0.798184
0.755753
-0.0636068
0.221923
-0.0807177
0.0511859
0.328082
-0.549435
-0.694978
-0.179004
-0.198376
0.97982
-0.0306466
0.783321
-0.0714726
-0.0781869
0.0846438
0.88189
0.489924
-0.908605
-0.263632
-0.723735
0.763207
-0.607959
-0.991394
0.331462
0.797662
0.238807
-0.0345165
-0.0729087
-0.258705
0.829524
0.0882901
-0.606677
-0.71984
0.0758384
-0.266884
-0.610584
-0.746025
0.00656152
-0.82989
-0.964354
-0.49028
0.456282
-0.232765
0.611988
-0.94348
-0.147862
0.881283
-0.864925
0.583178
-0.0901212
-0.982116
-0.872369
-0.598229
-0.946627
0.824601
-0.109422
0.879822
0.368748
0.477296
-0.407197
-0.57741
0.906742
-0.975773
-0.511773
-0.930805
0.144295
0.250068
0.575718
0.764797
0.420602
0.620696
0.0134711
0.369394
-0.845611
-0.126236
-0.403307
0.469904
-0.335253
-0.183924
-0.381927
0.0536332
0.397446
-0.110536
0.416329
-0.891943
-0.625297
-0.930048
0.931295
0.209399
-0.317655
0.661154
0.574084
0.160924
0.801263
-0.456038
-0.274087
-0.254372
-0.397565
0.447005
-0.821039
0.654042
-0.187719
0.797662
-0.168676
-0.349528
-0.236366
0.719169
0.947325
-0.959899
-0.754936
-0.266579
0.297952
-0.500595
-0.740165
0.734245
0.491928
0.331828
-0.492538
0.792108
0.811152
-0.787347
-0.599536
-0.646413
0.861751
0.484176
-0.570727
-0.601917
-0.644704
0.063509
0.686392
0.113559
0.330363
0.0277413
-0.635914
0.654836
0.128269
0.935667
0.0366527
-0.454085
-0.564623
0.951415
0.540696
-0.710013
-0.295389
-0.168859
0.265175
0.748161
0.267434
0.835139
0.664663
0.850826
-0.549486
0.628468
-0.192908
0.203528
0.00894189
0.232582
-0.230079
0.149449
0.187414
-0.910092
0.695669
-0.148167
0.723807
-0.69573
0.320536
0.958251
-0.89404
0.119785
0.788385
0.409406
-0.604358
-0.299783
-0.438215
0.955077
0.930479
0.272012
0.243812
-0.0605792
0.21775
-0.307291
0.122166
-0.0814539
-0.66747
-0.492111
0.248268
-0.327616
-0.868587
0.559069
0.864742
-0.826411
0.595691
0.204199
-0.00796533
-0.923704
0.615528
0.214698
-0.0112613
0.286538
-0.471358
-0.589465
-0.103854
0.17716
0.725028
0.0957366
0.381207
-0.989685
-0.369854
0.357646
-0.911008
-0.871151
0.380596
-0.708243
-0.781549
0.480148
-0.497421
-0.78515
-0.867306
-0.965941
0.907529
-0.0710776
-0.182409
-0.341472
-0.483871
-0.901791
-9.15527e-05
0.0141301
-0.175573
-0.197607
-0.261635
-0.969237
0.722953
-0.67217
0.300089
0.529405
0.88287
0.259438
-0.86578
-0.449995
0.0210272
-0.0638142
-0.243751
-0.0501419
0.355998
-0.667898
-0.645619
0.833003
-0.431562
-0.574328
-0.0683309
0.375042
-0.422285
0.120029
-0.204871
0.604785
0.447371
-0.223609
-0.794
-0.295328
-0.268105
0.423383
-0.998535
-0.605396
0.57799
0.704276
0.00241101
-0.0411695
0.891293
-0.374493
0.0185248
0.481002
0.88287
-0.831721
0.263588
0.84814
-0.693472
0.825861
-0.00662249
-0.913144
-0.299417
0.128941
-0.821345
0.594226
0.945433
0.222694
0.0263375
0.825251
-0.549669
0.555712
-0.840266
0.000213623
-0.718253
-0.253945
-0.727287
-0.605884
-0.454573
0.684744
0.0682088
-0.229408
-0.665334
0.940489
-0.705557
-0.477706
-0.442122
0.527085
-0.30839
-0.918088
-0.0426954
0.0976897
0.661245
-0.83581
0.631947
-0.373943
0.470138
-0.597034
0.376263
0.639699
-0.197363
0.945433
-0.851375
0.0654012
0.472884
-0.434919
0.980468
0.751396
0.109348
0.858028
0.639576
0.72692
0.624928
0.0823694
0.360088
0.263344
-0.715323
0.205847
-0.0490432
0.798212
0.183447
0.72216
0.595996
0.784906
0.946409
0.79986
-0.342082
0.530808
0.464583
-0.674673
0.798578
-0.913633
0.478133
-0.596728
0.728324
-0.752495
0.819758
-0.123508
0.896664
-0.26719
-0.869259
-0.572741
-0.563158
0.600696
0.862423
-0.175695
-0.323099
0.96588
0.374493
-0.124241
0.529344
-0.920164
0.944578
0.652089
-0.927427
-0.162938
0.499741
-0.458846
0.636402
-0.230689
0.883297
-0.302408
0.702933
0.590747
-0.530808
0.449446
-0.0621662
-0.643666
0.937193
-0.776116
0.661855
0.296365
0.0193182
0.555589
0.076571
0.388714
-0.966857
0.739189
0.557176
-0.267983
-0.988403
-0.311136
0.322794
0.782586
0.24308
0.567492
0.799799
-0.483444
-0.965453
0.748039
-0.0122379
0.580493
0.509873
0.668813
0.142674
-0.507187
0.254982
0.146764
-0.91174
-0.0412305
0.624439
0.709403
-0.530259
-0.639576
0.519517
-0.490951
-0.739616
0.485885
0.452193
-0.617969
-0.164708
0.558397
-0.293619
0.614307
0.923643
-0.370403
-0.590503
0.976745
0.752617
-0.602039
0.326884
-0.40727
0.695059
0.515549
-0.809503
-0.799677
0.733451
-0.554308
0.376873
0.37083
-0.946837
0.934324
0.743339
0.247536
0.0768762
-0.843989
0.438459
-0.633717
0.252419
-0.40025
-0.50322
-0.87933
-0.0917081
0.754082
-0.968566
-0.566149
0.486679
-0.343425
0.837031
-0.799493
-0.531358
0.368572
0.214942
-0.939756
0.303568
-0.561754
-0.165929
-0.933958
-0.346477
-0.585376
-0.561083
0.809503
-0.731376
0.474715
-0.781732
0.565294
0.801935
-0.773492
-0.354167
-0.981628
0.879391
0.750359
-0.393048
0.135228
0.735649
0.940672
-0.377911
0.741874
-0.270913
-0.788446
-0.018891
-0.627796
-0.951903
0.62804
0.599719
-0.0520951
0.921201
-0.475143
0.411603
0.852535
-0.356365
-0.322611
-0.892331
0.963378
-0.266945
-0.915525
-0.964049
-0.797662
-0.473678
0.428022
0.0738243
-0.830989
-0.469649
-0.729789
-0.714774
-0.581713
-0.160741
-0.947813
0.176183
0.944884
-0.0692465
0.955321
-0.640187
0.437605
-0.846553
-0.311441
-0.555528
0.865535
-0.78161
-0.735771
-0.0432447
-0.0414746
-0.993042
-0.175634
-0.887936
0.145421
-0.992431
-0.419538
0.245888
0.510666
-0.30607
0.928831
-0.283059
0.334269
-0.842952
0.804376
0.096408
0.77514
0.303751
0.335307
-0.54619
0.262246
0.934019
-0.139134
0.553758
0.155004
-0.990173
0.374859
0.775262
0.235511
0.428144
-0.542467
0.565844
0.59563
-0.39079
0.758415
-0.756401
-0.518967
0.215674
-0.907956
-0.040376
-0.345195
0.311075
0.209937
0.632435
0.842708
-0.726432
-0.689749
0.66802
0.82342
0.775933
-0.650929
0.27781
0.725761
-0.856502
-0.786065
0.20603
-0.904843
-0.59508
0.824152
0.680349
0.292642
0.345744
-0.781426
-0.602527
-0.212378
0.878719
0.694815
-0.643605
-0.0916471
-0.956603
-0.938902
0.351726
0.611866
-0.0534379
-0.93524
0.939818
0.835505
-0.0433058
-0.942015
0.689993
0.993286
-0.534715
-0.0349437
-0.466597
0.179479
-0.473434
0.61272
0.0220649
0.641469
0.688711
0.486129
-0.689444
-0.915586
-0.670949
-0.0263985
0.672903
-0.629017
-0.193945
-0.838679
-0.633229
0.177831
-0.260659
-0.757866
0.658864
0.171361
0.731803
-0.400555
0.821284
0.266152
-0.154515
0.630116
0.914792
-0.47264
0.143956
-0.632679
0.168371
0.280313
-0.386944
-0.0323191
0.770135
0.989685
0.773858
0.12302
0.879452
0.470626
0.298685
-0.53856
-0.32432
-0.00534075
0.944578
0.998535
-0.746086
0.852351
-0.885617
-0.298074
-0.819697
-0.0646687
0.360576
-0.767754
0.52147
0.900998
0.141636
0.921506
-0.842769
-0.519028
0.146275
0.0525223
-0.807001
0.497421
-0.504807
-0.497909
0.280557
-0.851985
-0.864681
-0.190466
-0.337321
0.123631
0.737419
-0.26664
0.752251
-0.87994
0.409894
0.358989
-0.940855
0.307474
0.542283
0.819941
-0.721915
0.318339
0.0892667
0.694266
0.347453
0.3184
0.609302
-0.860286
0.2949
0.721732
0.369182
-0.170385
-0.320048
0.112583
-0.172277
-0.24839
-0.553392
0.937437
0.810968
0.93292
-0.00119025
-0.471725
0.690664
-0.84698
-0.689016
-0.978881
-0.119663
0.708182
0.886715
0.731193
-0.0411084
-0.712027
-0.623707
0.54741
0.736747
0.0288399
0.668874
-0.0903653
-0.424909
0.804987
0.267678
-0.0702841
-0.727775
-0.179662
0.76458
0.220008
-0.171972
-0.435652
0.223792
0.99115
0.400678
0.192724
0.288614
-0.0179754
0.766411
0.396832
-0.176611
0.784356
0.596545
0.823908
0.90289
0.123997
-0.137181
0.110569
0.961974
0.66216
0.684317
0.592029
-0.0821253
0.878292
-0.071749
-0.250526
0.0780358
0.597766
0.877438
0.458663
-0.355449
-0.273598
-0.724174
0.100986
-0.369915
0.754936
0.0670491
-0.398724
0.995544
0.594592
0.134922
0.453475
-0.177038
0.308512
-0.638295
0.796503
-0.66332
0.298868
-0.684927
0.60448
0.584155
-0.485458
-0.124119
-0.947813
0.58916
0.240394
-0.879574
0.118503
-0.209143
-0.969115
0.769097
-0.508835
-0.419843
-0.648915
0.513474
0.83459
-0.253822
0.487106
-0.464705
0.483322
0.645375
0.28843
0.529221
0.624195
-0.0940886
0.305094
0.541673
0.0287179
0.479843
0.881283
-0.0607623
0.399213
-0.145115
0.769219
-0.182287
-0.609668
-0.760308
0.824702
-0.834284
0.369488
0.533677
0.346904
0.0943327
-0.0229805
-0.105808
-0.37431
0.445662
-0.449202
-0.28489
-0.741508
0.0929899
-0.524033
-0.173437
-0.201575
0.244667
0.522874
-0.269021
0.298013
0.0646077
-0.764031
0.686087
-0.690848
-0.0787072
-0.563463
-0.551622
0.903195
-0.421308
0.89996
0.489303
-0.727836
0.640858
-0.727653
0.496323
0.475875
-0.437422
0.287759
-0.0281075
0.89465
0.539781
0.347942
-0.257607
0.952391
0.590197
0.529038
-0.809992
-0.328166
0.139256
0.0756553
0.0193793
0.623768
-0.578845
0.44615
0.372051
0.833186
0.0097965
-0.0290231
-0.898556
-0.794061
-0.209754
0.186926
-0.980102
0.0365916
0.684988
-0.0902432
0.931333
0.160558
-0.554186
0.107395
-0.739067
-0.685598
0.825495
-0.363628
-0.903867
0.264626
-0.560533
0.904599
-0.550951
0.268654
-0.366741
-0.478622
0.554735
0.431196
-0.335307
0.999512
0.0167546
0.51616
-0.484237
0.569384
-0.386517
-0.220374
0.646107
-0.830256
-0.423688
-0.616138
0.999695
-0.323344
0.1536
0.956114
-0.421491
0.4326
-0.728385
0.854488
-0.104892
0.1395
0.106906
0.703421
0.616016
-0.822565
-0.620411
-0.238807
0.709769
-0.588672
0.183264
-0.318278
-0.58916
-0.451155
0.161718
-0.76635
0.312845
0.111057
0.846309
-0.461226
-0.0973235
-0.920591
0.965636
-0.607227
-0.150792
0.280618
-0.459456
-0.769829
-0.642384
-0.427595
-0.4232
-0.703604
0.9035
0.89288
0.16776
0.589648
-0.342692
-0.765252
-0.180085
0.134283
-0.0859386
0.609262
0.813528
-0.850639
0.837786
0.0596148
-0.589087
-0.326375
0.836851
-0.211919
-0.275831
0.210384
0.878716
0.459344
0.0572776
-0.0456129
0.060292
-0.258379
-0.467992
0.163003
-0.257122
-0.85164
-0.188723
0.234572
-0.43224
-0.755452
-0.265576
-0.943438
-0.336524
0.276251
-0.328811
-0.814793
0.353857
0.291432
-0.582972
0.42047
-0.313566
-0.190507
0.430708
0.336589
0.08652
-0.895383
0.233802
0.334086
0.455794
-0.834529
-0.216285
0.772332
-0.978271
0.392132
-0.369182
-0.252846
-0.744438
0.094821
-0.326212
-0.924436
0.168065
0.855281
0.324503
0.0499588
-0.702689
0.814142
-0.10361
0.524155
-0.299905
-0.0533769
0.027253
-0.105991
-0.740346
-0.611108
-0.049619
-0.464502
-0.377306
-0.122208
-0.575404
-0.738133
-0.92241
0.366334
-0.860829
-0.637322
0.685834
0.877233
0.401337
0.787917
-0.0193305
0.658104
0.923788
-0.9612
-0.453716
-0.30183
0.519055
0.328185
0.783559
0.673151
-0.478445
-0.426907
0.185352
-0.62392
-0.259679
0.781391
0.423715
0.700634
0.761037
-0.60411
-0.430837
0.236866
-0.591406
-0.8417
0.750361
0.542797
-0.818632
-0.946083
-0.434192
0.15453
-0.528283
0.902908
-0.434541
0.397219
-0.616077
-0.844172
-0.892575
0.0588702
-0.0391552
-0.53795
-0.089816
0.990417
-0.364788
-0.432905
0.604846
0.693594
0.715201
-0.893551
-0.393841
0.960143
-0.282815
-0.144261
0.611927
0.623768
-0.640309
-0.999634
-0.956847
-0.511765
-0.970763
0.987548
0.739372
-0.506149
-0.468612
0.522263
-0.781304
0.183874
0.93994
0.271096
0.818781
0.535569
-0.644459
-0.165197
0.0270699
0.215674
-0.611927
-0.446516
0.316813
0.325419
0.172765
-0.294229
0.798273
0.695059
-0.264992
0.665578
-0.000701904
-0.20719
-0.48497
0.577746
-0.912778
0.308878
-0.134617
0.116794
-0.155003
0.477828
0.332865
0.88873
-0.287149
0.202185
-0.460738
-0.958861
-0.790033
0.038789
0.471358
0.642323
0.0467849
0.111179
-0.00637835
0.392193
-0.758476
-0.989746
0.396893
0.228248
-0.447005
-0.254128
-0.206458
-0.611805
-0.457625
0.81109
-0.826167
0.492416
-0.423566
-0.577075
0.934263
-0.792108
-0.915464
-0.998535
0.691153
0.0574664
-0.617847
-0.0513016
-0.807672
-0.0646687
-0.626637
-0.208228
0.138584
-0.107212
0.444563
-0.24839
0.727653
0.755486
-0.138035
-0.200415
0.733696
-0.864803
0.986267
-0.734672
0.934385
-0.600696
-0.385174
-0.942259
0.697928
0.15891
0.767144
0.561571
-0.457015
0.839534
-0.777825
-0.727714
0.483688
0.896176
0.123753
0.232521
-0.0281075
-0.764702
0.963866
-0.669851
0.250526
0.407086
-0.742119
-0.475875
0.928587
-0.871822
-0.776543
0.0569781
-0.408124
-0.299356
-0.223975
-0.281167
0.261391
-0.113193
-0.847407
0.224891
-0.488449
-0.195654
0.478133
0.767998
-0.938719
-0.597278
-0.415448
-0.189673
0.65038
-0.915097
-0.603076
-0.824885
0.0130924
-0.964599
0.198584
0.502121
-0.237404
-0.181494
0.0868862
-0.871456
-0.00277716
-0.192236
0.93408
-0.541246
0.442671
0.0109562
0.163182
0.884213
0.941221
-0.148778
-0.345744
0.316752
0.101596
0.468246
0.0908536
0.398358
0.921262
-0.898862
0.0608234
-0.551927
-0.80633
-0.883541
0.223853
0.21073
-0.486251
-0.757622
-0.142613
-0.531785
0.692923
0.572863
0.0942106
-0.423017
-0.602954
0.904111
-0.836055
-0.00625628
-0.180273
0.965148
-0.0491043
-0.14835
0.202796
0.105502
-0.819208
-0.349651
0.017365
0.00259411
0.549059
-0.878964
0.617481
-0.0490432
-0.897397
-0.669423
-0.821467
0.29606
-0.811151
0.0858486
0.734123
-0.424665
-0.71746
0.701651
0.122043
-0.071627
0.00491345
-0.805841
0.653981
0.339457
0.646229
-0.0368358
-0.680776
0.274514
0.50499
-0.975829
-0.662404
-0.724906
0.355815
0.855037
-0.129368
-0.928037
0.359111
-0.0829798
-0.292947
-0.219398
-0.275857
0.915403
0.732475
0.741325
0.439009
0.859615
-0.00308239
-0.433882
0.378887
0.988037
0.193091
-0.0440382
0.106601
-0.382672
-0.643788
-0.15128
0.676199
-0.0192572
-0.400067
0.463057
0.753533
0.117038
-0.300272
-0.201941
0.365276
0.872738
-0.664235
-0.846492
-0.410077
-0.920225
-0.190283
0.231361
-0.497909
-0.0276192
-0.954772
-0.617725
-0.316324
-0.096469
-0.31254
0.558946
-0.386395
-0.57445
0.111545
-0.461226
0.249367
-0.203894
-0.845271
0.97937
-0.88818
0.972839
0.383038
0.867244
-0.812738
0.158055
0.705619
-0.075106
0.957762
0.957762
-0.850398
0.536729
-0.127232
0.215247
0.607532
0.756829
0.575549
0.584216
0.369488
-0.0381787
0.194922
-0.0983001
0.253456
-0.289529
0.0165715
-0.575243
0.145543
0.372845
-0.15421
-0.00717187
-0.237037
-0.908933
0.373516
0.178137
0.452132
-0.364116
-0.140416
-0.512436
-0.165746
-0.281472
0.444319
0.676992
-0.888607
0.323588
0.401593
0.241798
-0.154881
0.622974
-0.353801
-0.854183
0.0199896
-0.965026
0.807184
0.850826
0.205115
-0.00991851
-0.819941
0.708975
-0.374432
0.966246
-0.129002
-0.217933
0.956786
-0.643666
-0.555834
-0.852046
-0.346538
-0.269509
0.38609
-0.241554
0.627186
-0.945494
-0.301614
-0.0900601
0.0829798
0.428755
-0.0674154
-0.609485
-0.670339
0.908567
-0.0218207
0.364849
0.37431
-0.030427
-0.0826136
0.0597857
0.115268
0.179418
-0.741203
-0.686331
0.944823
0.639882
0.862606
0.0511185
0.57445
0.760064
-0.130833
-0.253883
0.895749
0.925047
-0.0550859
-0.0640584
0.688406
-0.379254
0.156102
0.848445
-0.0112613
-0.42082
0.784783
-0.79516
0.930784
0.504685
-0.601794
-0.738823
0.872372
0.945616
-0.514939
0.150304
0.61919
0.872799
0.970153
-0.412946
-0.441267
-0.473006
0.920652
0.999695
0.516953
0.0994598
-0.243507
0.148839
0.15012
-0.194189
-0.723075
0.298013
-0.315653
0.917844
-0.183996
-0.00308239
-0.184668
-0.685537
0.839412
0.540696
0.580493
0.114841
0.29545
-0.832636
0.0165105
0.95587
-0.967834
-0.943663
0.414533
0.476791
-0.406171
0.189795
-0.0145573
0.573473
-0.292215
0.139927
0.747673
-0.0155339
-0.223487
0.844844
0.450301
-0.228187
0.685354
0.434858
-0.655873
0.258705
-0.760979
0.172216
-0.387738
-0.0133366
-0.4597
-0.433515
0.273537
0.255287
-0.378582
-0.271523
-0.628224
-0.194494
-0.356731
0.0246894
0.261635
-0.789239
0.972167
0.0950041
-0.194556
-0.462447
0.44908
0.296548
-0.707633
0.837519
-0.837886
0.635426
-0.107517
-0.965514
0.0357982
-0.750664
-0.540757
0.768792
-0.451155
0.503769
0.491195
0.760369
-0.106174
-0.236732
0.0670491
-0.745476
0.8905
0.902036
-0.434431
0.112156
-0.0348216
-0.385785
0.983276
-0.89349
-0.490097
0.588366
-0.338054
0.990112
-0.0679037
-0.39317
0.23954
0.893368
-0.291299
0.634388
-0.364605
0.617725
0.756523
0.956908
-0.116367
-0.61388
0.431379
0.433393
0.626575
-0.387432
0.468917
-0.0755333
0.0805994
-0.746208
0.179174
0.958007
0.287881
-0.69396
0.207495
-0.303323
-0.535447
0.00814843
0.174413
-0.732047
-0.739677
0.31431
0.507065
-0.479598
-0.259987
0.199377
-0.225745
0.267983
-0.099826
0.358013
-0.161718
-0.914853
0.53386
0.861263
0.135228
-0.284402
-0.744926
-0.667226
-0.603198
0.15598
0.496384
0.206641
0.126682
0.478927
0.291055
-0.370098
0.142064
-0.543992
0.653371
-0.427534
0.495346
0.0444654
-0.631153
-0.293924
0.0863979
0.799554
0.0072329
0.615467
0.279153
-0.725028
-0.0294504
0.904172
-0.165685
0.474715
-0.611194
-0.242897
-0.528611
0.417219
0.676138
-0.476852
0.371441
-0.123691
-0.441023
-0.120884
-0.0653401
0.359844
-0.609912
0.138768
-0.896542
-0.611194
-0.440107
-0.731315
0.565111
-0.859004
-0.182104
0.173681
0.14536
-0.481185
-0.683035
-0.18601
0.70629
-0.293374
0.192663
-0.282327
0.860408
-0.721854
0.490158
0.449202
-0.186621
0.917661
0.251564
0.598193
0.649159
-0.183508
-0.424482
-0.150121
-0.63274
-0.191809
0.462508
0.70043
-0.0113834
-0.69573
-0.743034
0.378643
-0.961608
-0.906735
-0.499313
-0.462142
-0.278603
-0.934385
0.00772119
-0.720206
-0.898984
-0.073275
-0.0247505
-0.927549
0.594592
0.960997
-0.0581988
-0.874569
-0.902707
-0.0912198
0.40556
-0.215125
-0.951353
0.0198675
0.915647
-0.489914
0.751213
0.344096
-0.551927
-0.00497454
-0.742973
0.323893
0.879818
-0.00357068
-0.867428
0.749443
0.372723
0.432051
-0.585253
0.139561
0.48027
0.310343
0.0713828
0.61156
-0.210547
0.0549638
0.277688
0.300943
-0.0897549
-0.213538
-0.17832
0.395062
0.62505
-0.877132
-0.048555
-0.157628
0.0115055
0.0633259
0.975585
-0.199988
-0.650685
-0.484848
0.930723
0.881832
-0.373882
-0.971191
0.62743
-0.729972
-0.548021
0.30192
-0.612049
0.752922
-0.801996
0.0153508
0.787774
0.74987
-0.830989
0.564135
0.712943
-0.611682
0.6245
0.245155
-0.952513
-0.306742
-0.540696
-0.535813
-0.698721
-0.0473952
-0.642384
0.525742
-0.50792
0.321024
0.2313
-0.433882
0.594043
0.72454
0.756218
0.195105
-0.134861
0.128269
0.819208
-0.594226
-0.6339
0.230262
0.686941
-0.682791
0.982971
-0.357097
0.710196
-0.688711
0.266091
-0.373882
0.37608
0.126988
0.398358
-0.567064
0.520249
0.473434
0.604663
0.331401
-0.488754
-0.274148
0.31486
0.364544
-0.778802
-0.734489
-0.606067
0.911191
-0.407208
0.0270089
-0.249428
-0.890255
-0.382672
0.81457
0.63683
-0.791192
-0.464766
0.950865
0.952452
0.904477
0.0715048
-0.179479
0.865291
-0.270486
-0.481002
0.869991
0.060213
-0.444136
0.48204
0.627491
0.930235
0.272317
-0.908017
0.304849
0.0205389
0.700735
0.509262
0.543626
0.0400708
-0.186743
-0.478805
0.86877
-0.249
0.312784
0.051973
0.41142
0.0501419
-0.361553
0.393902
-0.536424
-0.445845
0.46086
-0.0257881
0.428083
0.00125122
-0.273598
0.469771
-0.275369
0.781671
0.316507
-0.918516
-0.78399
0.909421
0.381207
0.782037
0.7163
-0.251625
0.411969
-0.652333
0.142979
0.804315
-0.885006
-0.0108951
0.877133
-0.103793
0.14774
-0.608814
0.892209
0.0187079
0.781304
-0.0237129
-0.784722
0.208472
0.550768
0.202063
0.282998
0.727348
0.957152
-0.292642
-0.246071
-0.126255
0.281716
-0.881954
0.341166
0.736137
0.576586
-0.674184
-0.773675
-0.800104
0.893368
0.0514847
-0.381207
-0.478927
-0.187109
0.50676
0.0212713
0.778497
-0.662038
-0.0344554
-0.23484
0.517624
-0.78808
-0.94171
0.378338
0.898373
-0.274514
-0.398785
-0.65331
-0.340861
0.0744957
-0.226722
-0.166662
-0.790094
0.330851
0.453536
0.917295
0.166662
0.0893277
-0.469405
-0.0863979
0.639396
-0.147586
-0.00176676
-0.661285
-0.412646
0.216056
0.646924
0.0829922
-0.447298
0.919157
-0.831962
-0.648767
-0.915498
0.817703
0.478189
0.937624
0.169039
0.84883
0.080433
0.393069
0.974798
-0.95618
-0.728272
0.650847
-0.773991
-0.344066
0.0119813
0.671594
0.519967
-0.536932
0.265972
0.669205
0.893578
-0.69101
-0.372545
0.483149
-0.0372078
-0.053975
0.0450329
0.656515
-0.0641194
0.239174
-0.545518
0.783624
0.81933
0.798334
-0.86285
0.69042
-0.871273
-0.903012
0.610706
-0.991516
0.415387
-0.857051
0.86877
0.707083
0.921445
-0.238807
-0.219275
0.143468
0.677053
0.553575
0.464217
-0.8034
-0.648732
-0.404035
0.442244
-0.955565
-0.830805
-0.0630817
0.398422
-0.851471
0.208134
0.958882
0.342565
0.00810809
0.38474
-0.33413
-0.00159864
-0.753379
-0.55247
-0.0411045
-0.773927
-0.408085
-0.716494
0.9623
-0.706425
0.314882
-0.143617
0.463707
0.808591
0.685197
-0.917817
0.529365
-0.880432
-0.98785
-0.0355598
-0.641938
-0.992969
-0.171952
-0.709034
0.435314
-0.532125
0.778335
-0.788693
-0.948603
0.413183
-0.216945
0.00615322
-0.754783
0.0875576
0.0286568
-0.641346
-0.764458
-0.977844
-0.645009
0.445845
0.404523
-0.661977
-0.400372
0.154393
-0.107334
-0.792352
0.461104
-0.258583
-0.128513
-0.710257
-0.555589
-0.752739
-0.447127
0.949461
0.451399
-0.0246285
-0.999756
-0.924314
0.577685
0.350871
0.802423
-0.690664
-0.32078
-0.529405
0.673452
0.493271
0.271279
-0.342692
-0.959044
0.158177
0.32139
0.329752
0.68511
-0.1442
0.499557
0.501816
0.490158
0.152135
0.448347
0.223792
0.373333
0.0939054
-0.365642
0.276223
-0.549547
0.959349
-0.655202
0.431562
0.503403
-0.892697
-0.609241
-0.406537
0.809992
-0.263588
0.079989
0.128636
0.400311
0.366375
-0.978027
-0.298563
-0.198645
-0.144871
-0.672475
0.926206
0.331767
-0.236671
0.765007
0.14713
-0.989624
-0.121128
0.436506
-0.339457
-0.859249
0.714347
0.535752
0.690603
0.633351
0.7893
-0.249
-0.568346
-0.871273
-0.489425
-0.125645
-0.530808
-0.0152898
-0.537339
0.181005
0.892636
0.188025
0.920286
-0.859493
-0.588549
0.25547
0.396771
0.0224311
-0.211463
-0.815058
0.0398266
-0.0409864
0.901364
0.520493
-0.312784
-0.972533
0.745598
0.592456
0.395611
0.914609
0.692007
0.99646
-0.745903
-0.275002
-0.689932
0.372967
0.295633
0.497665
-0.929746
-0.450179
-0.681509
-0.00930816
0.23777
-0.88873
-0.569262
-0.700674
-0.729728
-0.545518
-0.870846
0.86755
0.0323801
0.397443
-0.273415
-0.542955
-0.862056
0.39964
-0.0610675
-0.363933
-0.264809
0.459151
0.444929
-0.650441
-0.955443
0.747429
0.2313
0.134617
-0.0361034
-0.955016
-0.464766
-0.457625
0.0514237
-0.959044
-0.80285
0.329813
0.201575
-0.442671
-0.763726
-0.0167547
0.323344
0.762383
0.461165
-0.863338
0.335978
0.434553
-0.0721763
0.447127
-0.207007
0.339824
0.0583819
0.48912
0.448286
-0.215613
0.23191
0.231727
-0.924924
0.406171
0.660817
0.660024
0.852473
-0.73339
-0.635365
-0.897153
0.630055
0.306314
0.0541093
0.831721
0.384259
-0.774224
-0.262307
-0.510361
0.178503
-0.14481
-0.136204
0.91644
0.940062
-0.925901
-0.1901
-0.0702841
0.365093
0.345378
0.532334
0.62627
0.266152
0.924192
-0.811396
-0.235206
0.672597
0.805292
0.545091
-0.206275
0.997864
0.471786
-0.0183416
-0.914243
-0.414167
-0.493576
-0.0926237
-0.0578936
-0.0516678
-0.87109
0.398419
-0.071688
-0.993774
0.721793
-0.129124
-0.894528
-0.352214
-0.593554
0.601856
0.717826
0.91522
0.733329
0.910154
-0.100497
0.132725
-0.453169
0.809809
-0.0352489
0.288736
-0.910276
0.949034
0.841121
0.984497
-0.592944
-0.353557
-0.789605
0.261147
-0.885556
-0.162389
0.91937
-0.381085
-0.408551
0.744316
-0.778314
-0.460616
-0.336528
0.0785851
-0.58446
-0.174963
-0.165502
-0.404767
-0.563158
0.066866
0.132908
-0.196448
0.973449
0.554247
0.633534
0.652455
0.660329
0.937742
0.717093
9.15527e-05
-0.0802942
0.959349
0.131626
0.681875
-0.991577
0.560717
-0.0838954
-0.0121158
-0.165746
-0.316446
0.250587
0.363689
-0.895321
-0.926633
-0.705985
-0.854488
0.370342
0.399884
0.0734581
0.143956
0.524888
-0.993896
-0.51384
0.88702
-0.674917
-0.400433
0.477523
0.336283
-0.507492
0.196265
-0.542711
0.888241
-0.0401929
0.631886
0.0169988
-0.526963
-0.175878
0.951903
-0.990478
-0.436323
-0.429914
-0.00753808
0.0560014
0.907468
-0.875423
-0.533799
0.539659
0.792962
-0.693655
-0.136937
-0.848811
-0.335429
0.232398
-0.518418
0.0473952
0.897275
-0.755974
0.900204
0.684866
-0.456648
-0.0849941
0.203406
-0.606983
-0.134129
0.704031
-0.725944
-0.252785
0.467879
0.814203
0.464339
-0.194739
0.833186
-0.177343
-0.0418409
-0.730155
0.0890836
0.641285
-0.861873
0.639149
-0.19541
0.372539
0.267922
-0.591906
-0.363872
0.622364
-0.195837
-0.616565
-0.366436
-0.167699
-0.350261
0.173986
0.0184027
-0.806085
-0.339091
0.919187
0.248024
0.707511
-0.27958
-0.681082
0.17655
0.947935
0.69042
0.0265816
-0.873226
-0.899777
0.555834
-0.533067
-0.315714
0.827082
-0.927793
-0.856258
0.0265206
0.530259
-0.769951
0.496994
-0.399884
-0.429792
0.847468
-0.626148
-0.0422071
-0.995544
0.604785
-0.824213
-0.431501
0.40788
-0.16715
0.743278
0.41203
-0.662099
0.367901
0.0412916
-0.828242
-0.993042
-0.215125
-0.290933
0.837764
0.723746
0.322916
-0.46556
-0.468368
0.66686
0.813776
-0.0826746
0.367595
-0.446577
-0.0722983
-0.616932
-0.839534
0.764092
0.0474563
0.210425
-0.205725
-0.512436
0.0840175
-0.766106
0.0632648
0.44792
0.546007
-0.114719
-0.202185
0.775567
-0.824091
0.535752
0.0889004
-0.41435
0.465133
-0.799188
-0.578478
0.82635
-0.640431
-0.327921
-0.468184
0.958068
0.470748
-0.864009
0.798883
0.0285958
-0.898373
0.344401
-0.0162663
-0.295694
-0.597217
0.397626
0.129856
0.821162
-0.0312204
-0.795892
-0.565233
0.0177313
0.189367
-0.322123
0.907956
0.0129703
-0.333415
0.736381
-0.374432
-0.909299
0.0107731
-0.837458
-0.603809
0.353923
-0.67156
-0.607959
-0.351604
0.310526
0.713553
-0.711295
0.354045
-0.645375
-0.944945
0.97113
-0.201086
-0.29606
-0.52562
0.752251
-0.986206
-0.64275
-0.296976
-0.745048
-0.322184
-0.366619
-0.285257
-0.234046
-0.69274
0.855403
0.924253
-0.110141
0.542161
-0.258644
0.26426
0.567431
0.342326
-0.935362
-0.545396
-0.480941
-0.0928679
-0.853511
0.775017
-0.82342
-0.870663
-0.257118
-0.346294
0.166112
0.397565
-0.111484
-0.614124
0.403729
-0.442122
0.260414
0.293069
0.867428
0.849361
-0.376507
0.63628
0.107089
-0.376751
-0.0795007
-0.404157
0.555223
-0.338725
-0.430708
-0.369793
0.701041
0.903073
-0.470504
0.525742
0.190283
0.396405
-0.29899
0.450667
-0.08652
0.283486
0.217383
0.325785
0.144688
-0.366436
-0.804071
0.823298
0.793939
-0.063448
-0.492233
0.307718
0.834895
-0.930906
0.129185
-0.969481
0.971313
-0.454146
0.638478
-0.108982
0.604053
-0.131687
0.418867
-0.923948
-0.838496
0.783807
-0.868282
0.891781
0.855464
-0.732902
0.0213324
0.0983611
0.925596
0.0376904
0.61449
0.0619831
0.434797
-0.576464
0.376751
0.0350047
-0.322672
-0.613514
-0.11124
-0.121677
-0.736747
0.519211
-0.895932
-0.46324
0.941099
-0.17246
-0.7481
-0.418439
-0.779595
0.110996
-0.0533158
0.131565
-0.140477
0.7528
0.0670491
0.465438
0.276772
0.732719
-0.0326243
0.638539
-0.0482498
-0.324503
-0.416852
-0.58446
-0.123386
-0.253578
-0.00607318
-0.16776
-0.879269
0.207068
-0.994507
0.698782
-0.428816
-0.555834
0.31431
-0.643422
0.911435
0.283181
0.816157
0.00210583
0.900998
-0.600513
-0.377972
0.888913
-0.981811
0.640431
-0.656178
0.721732
0.528977
-0.931089
-0.788568
-0.445967
-0.956786
-0.456771
0.584826
0.502243
0.623158
0.643788
0.422956
-0.411542
-0.496384
-0.239845
-0.72747
0.0253608
0.489486
0.15128
-0.66155
0.254189
0.089877
-0.209815
-0.801324
0.0494705
-0.545274
0.806696
0.726737
0.00296032
-0.826777
-0.660085
0.782952
0.698355
0.999207
0.614307
-0.761589
0.890378
0.563768
-0.950438
-0.106662
-0.999817
0.139561
0.21952
-0.148228
-0.760308
-0.482162
0.469954
-0.0830409
0.676992
0.0616169
-0.989929
-0.432356
0.5562
-0.00344861
0.288614
-0.920225
0.183264
0.0032655
-0.532334
0.3549
0.691031
-0.827265
0.806818
-0.982543
0.995361
0.387249
-0.230445
-0.654347
-0.744682
-0.810419
0.665761
0.595202
0.150243
-0.796319
0.640248
0.280984
-0.715567
0.167821
-0.176672
0.97821
-0.965087
-0.356426
0.452742
0.205481
-0.848262
0.463851
0.780877
-0.0478225
0.425398
0.980712
0.580371
-0.586718
0.732841
0.177404
0.0590533
-0.506577
-0.224708
0.705252
0.99823
0.643117
-0.180517
-0.0904263
-0.0746788
0.589343
0.755547
-0.0939665
0.134922
-0.476608
0.783868
0.770379
0.369671
-0.691641
-0.956847
-0.0962248
0.973815
0.268044
-0.507431
-0.363262
-0.668203
0.120945
0.360332
0.133579
-0.595141
0.621204
0.470687
-0.339763
-0.822687
0.469039
0.763298
-0.722098
0.826105
0.0530107
0.315592
0.0248725
-0.575487
0.587146
-0.818171
-0.350688
0.995056
-0.795282
-0.638661
0.955016
-0.279275
0.57213
0.207923
0.823298
-0.869503
0.584033
-0.407147
-0.0270699
-0.931028
0.703787
-0.865047
0.521042
-0.735954
0.510361
0.809381
-0.593005
-0.695303
-0.984924
-0.753044
0.742546
-0.158483
0.310343
-0.960936
-0.850642
0.822138
0.112522
-0.642689
-0.851192
-0.425398
0.76281
-0.79693
0.663503
0.550829
-0.753716
-0.401898
-0.304605
-0.457625
-0.205542
0.0291451
0.242286
0.182287
-0.369121
-0.541063
0.514634
-0.456893
-0.57506
-0.783868
-0.484115
0.646718
-0.985107
0.0764489
-0.951353
0.695425
-0.0376903
0.848018
-0.790765
0.83929
-0.498032
0.77282
0.432478
0.290139
-0.551866
-0.942564
0.150304
0.596728
0.620655
-0.155003
-0.873837
0.89172
0.353008
-0.0592974
-0.47264
-0.0758385
-0.355144
-0.395856
-0.201575
-0.31016
-0.478195
-0.279153
0.397382
0.471419
-0.835749
-0.335734
-0.541307
0.10123
-0.631092
-0.837458
0.443342
-0.74041
-0.0956145
0.481368
0.840571
-0.379376
0.323771
0.235572
-0.0176702
0.657826
0.797174
-0.857479
-0.965941
-0.0770592
0.525803
-0.970946
-0.776788
0.609546
0.301065
-0.594958
-0.631031
-0.785516
0.770074
0.91583
0.774773
-0.890683
0.971496
-0.0144352
0.547227
0.834712
0.702567
-0.0341502
-0.597156
0.929383
-0.718838
-0.901093
-0.97416
0.107442
0.265125
0.610912
-0.961101
0.596008
0.690329
-0.753102
0.650039
-0.556661
0.391359
-0.441578
-0.962641
-0.384204
-0.0330393
0.258778
-0.464563
-0.310333
0.951655
-0.0441539
-0.316469
-0.0466278
0.757398
0.577793
0.201477
-0.265515
-0.0520709
-0.196931
0.951684
-0.242624
0.406252
0.803274
0.95386
0.354954
-0.0397534
0.619751
0.512101
-0.664724
0.027192
-0.522752
0.517502
0.322367
-0.159093
0.355693
0.989868
-0.616871
-0.17716
-0.875607
-0.0806604
0.75103
-0.339579
0.557787
0.472091
-0.540147
-0.344829
0.54149
-0.378887
-0.299051
0.902524
-0.217566
0.265847
0.71453
0.866146
-0.664235
-0.0978118
-0.970641
-0.0904263
-0.739918
-0.0939342
0.862938
-0.652617
0.714588
0.492426
-0.507714
0.578069
0.80982
-0.586931
-0.586407
-0.138581
0.524452
-0.545295
0.0955883
0.303537
-0.998182
0.80087
-0.853854
-0.389163
0.538685
-0.681544
-0.302015
-0.823948
-0.426074
0.83441
-0.165383
-0.94041
-0.00068303
0.46143
0.85974
0.426158
0.0936934
-0.962258
0.227632
0.00298093
-0.597011
-0.256735
-0.0521381
0.118819
0.872311
0.952208
0.272622
0.887692
0.542711
0.388348
-0.515366
0.0999482
0.130467
0.642995
-0.407331
-0.617603
0.794855
-0.881954
0.751152
0.191198
-0.588977
0.458418
0.214087
0.198218
-0.340556
0.534166
0.637684
-0.364605
-0.756645
0.0367748
-0.458052
0.158422
-0.451216
0.75103
0.745903
-0.208167
-0.942564
0.564623
-0.412824
0.519517
0.826777
0.279153
0.740104
0.081515
-0.651906
0.284219
0.443037
0.540941
-0.902585
0.157323
-0.0510575
-0.817499
0.0887173
-0.748283
0.0113834
0.305765
0.744682
-0.664235
-0.783013
-0.524644
-0.604358
-0.655202
-0.0202948
0.790826
0.720756
-0.690909
-0.993835
0.738334
0.442061
-0.479598
0.0474563
-0.813044
0.585803
-0.00131232
-0.252541
-0.907529
0.622181
0.322672
0.402448
-0.530381
0.796564
0.8858
0.442366
-0.802545
0.965026
-0.359355
0.447737
0.218848
-0.754448
-0.605762
-0.485641
-0.303507
-0.201147
-0.283731
-0.222144
-0.310282
0.050203
0.523545
-0.0890836
-0.08829
0.665151
-0.597949
-0.594226
0.132786
0.591907
-0.268899
0.454573
-0.210486
0.482345
-0.331095
-0.760857
-0.635792
0.804865
-0.934324
-0.555467
-0.90405
-0.0397046
0.363872
-0.193213
-0.4138
0.715445
0.549791
0.508713
-0.138157
0.264138
0.218177
0.235755
-0.542833
0.231056
0.812677
0.704703
0.078341
-0.071627
0.104709
0.477218
-0.587878
-0.820612
0.973022
0.871578
0.642018
0.0210272
-0.453841
-0.216407
0.233131
-0.402692
-0.228248
0.231544
-0.449751
-0.442488
0.472762
-0.565111
0.869442
0.269936
-0.0447707
-0.758476
-0.653188
-0.835078
0.229774
-0.28489
-0.492294
-0.480392
-0.0925016
0.694571
-0.183386
0.995972
-0.164281
-0.860897
-0.107334
0.24546
0.533372
-0.928831
-0.068514
0.893002
-0.509934
-0.0710166
0.897153
-0.788324
-0.608753
0.141697
-0.95465
0.802118
-0.669057
-0.259377
-0.657704
0.587329
0.0760216
0.81695
-0.660573
-0.56267
-0.556993
-0.359661
0.068392
-0.265175
0.851558
-0.74987
-0.482223
-0.805536
-0.884823
0.331462
-0.745476
-0.750603
0.533921
-0.811151
-0.247658
-0.684561
-0.651235
0.630787
0.989441
-0.752007
-0.376202
0.575915
-0.121494
-0.698111
0.614856
0.195166
-0.908689
-0.0917081
0.68981
0.401288
0.840266
0.579882
-0.13773
0.498215
0.178808
0.257912
0.000701904
-0.196326
-0.614612
0.413251
0.775689
0.0566729
-0.00949126
-0.786798
0.408612
-0.577868
0.0112613
0.0682698
-0.717093
-0.0929899
0.955931
0.868831
-0.518296
0.997436
0.159642
-0.772637
0.31315
-0.667776
-0.984558
0.0361034
0.887082
-0.776421
0.662099
0.653554
-0.195471
-0.161962
-0.309061
0.0327463
-0.976623
-0.150243
-0.56444
-0.896298
-0.0378734
-0.62035
-0.594348
0.721488
0.904111
0.0314646
0.427534
0.493698
-0.234413
0.838374
0.0548418
0.79931
-0.71044
0.93231
-0.18894
-0.688528
0.727165
0.748039
0.826105
0.336528
-0.929502
0.575487
-0.569384
0.281899
-0.100925
0.271645
-0.730644
-0.434309
0.900754
0.945494
-0.503037
0.28019
0.132115
0.4279
-0.382305
-0.0789514
0.0794396
-0.660573
0.532823
0.496506
-0.417524
-0.432173
0.357097
-0.673025
0.684622
-0.0312204
0.567675
0.849544
0.470565
-0.898801
-0.952879
-0.262368
0.955687
-0.189123
-0.416303
0.65099
-0.912107
-0.526658
0.391217
0.925718
-0.0740074
0.710501
-0.789361
-0.480758
-0.944456
0.3914
-0.44322
0.52147
-0.693838
-0.268654
-0.328654
0.543992
-0.168187
-0.699026
0.745903
0.302042
0.616627
-0.242164
-0.0231636
-0.300577
0.46971
0.113071
-0.985046
0.730338
-0.429853
0.346294
-0.628101
-0.490707
0.625355
0.180029
-0.654103
-0.256081
-0.294778
0.826899
0.0303049
0.960204
0.815119
-0.477523
0.965697
-0.205359
-0.731498
-0.345012
0.999939
-0.334086
-0.0759606
0.305948
0.917051
-0.863033
-0.652333
0.0127872
-0.601611
0.281716
-0.0366527
0.567186
0.878658
-0.632374
-0.745598
-0.339274
0.858211
-0.832087
0.0782189
0.190893
-0.764458
-0.785638
-0.843135
-0.960692
-0.77813
-0.695547
-0.194311
-0.863887
0.399457
0.575121
-0.03708
-0.379376
-0.512253
-0.545396
-0.417524
-0.0868251
-0.621204
0.807001
0.452681
0.509506
0.00473034
-0.420881
0.502792
0.309793
-0.400494
-0.73455
-0.338786
-0.704337
-0.0820032
0.500412
-0.67394
0.367779
-0.0252388
0.0933561
0.511948
-0.845027
-0.135838
-0.183569
0.734916
-0.390179
-0.774163
-0.740226
0.698538
0.200964
-0.0834071
0.0649129
0.842769
0.515854
-0.547899
-0.150426
0.818659
-0.913572
0.780755
-0.862789
-0.0482498
0.24955
0.951476
-0.398114
-0.243995
0.85522
0.239418
0.942808
0.560717
0.63506
0.290506
0.699637
-0.68627
-0.956603
0.848201
0.322672
0.62273
0.383526
-0.374981
-0.191809
0.0968963
0.0312815
0.880673
0.213965
0.0528886
-0.430525
-0.72985
0.36491
0.645375
-0.355571
0.523728
-0.936155
0.486557
0.357708
-0.479049
-0.88226
-0.183508
0.00576794
-0.677175
0.493515
0.286599
-0.0204779
-0.277688
0.91467
0.418378
0.63683
0.877621
-0.787832
0.801655
-0.0403415
0.589608
-0.257795
0.0921542
-0.190774
0.786755
-0.818342
-0.126357
-0.40788
-0.221168
0.015595
-0.55504
0.146825
-0.156468
0.0293894
0.595874
-0.332133
0.706961
0.116245
-0.566942
0.476363
0.481307
-0.286294
-0.679495
0.450484
0.622364
0.182226
-0.005768
-0.0702841
0.46849
-0.563036
0.916685
-0.0970184
-0.0751671
0.14658
-0.0691854
0.295328
-0.146031
0.810236
-0.721915
0.164342
0.73632
0.0266427
0.0423292
0.619556
-0.837397
-0.733207
-0.919004
0.276345
0.720878
0.463057
-0.49144
0.058443
0.840327
-0.273171
0.791986
-0.840266
0.155065
-0.491318
-0.477706
0.97937
-0.0505692
0.510971
0.925413
0.841182
0.24839
-0.332072
0.171972
0.312052
0.11417
-0.495529
-0.448042
-0.0707724
0.713492
-0.814325
0.574511
-0.849055
0.715812
0.57152
-0.944212
-0.658254
0.586596
-0.413617
0.258339
0.606189
-0.662221
0.219031
0.142735
0.281716
0.297525
-0.537095
-0.203955
-0.09476
-0.538377
0.510849
-0.902219
0.464095
0.990417
0.515976
0.687246
0.744804
-0.588427
0.231666
0.293374
0.592395
-0.906369
-0.157079
0.491256
-0.108066
0.550401
0.30137
-0.0534989
-0.914731
0.140538
0.477035
-0.78985
0.0358592
0.724296
-0.561266
-0.872677
-0.946959
-0.160741
0.176244
0.921445
0.889645
0.958678
0.0757774
0.0164495
-0.475875
0.393536
0.462508
0.660695
0.541307
-0.597095
0.521653
-0.587146
0.921812
0.0725425
-0.0892056
0.554796
-0.944212
0.526292
-0.623218
-0.508164
0.790704
0.0316477
-0.311869
-0.795648
0.326701
-0.437239
0.196997
-0.187414
-0.226844
0.382427
-0.657521
0.316813
0.177038
0.20658
0.407453
0.576342
-0.163671
-0.486984
0.842158
0.588916
0.711783
-0.44261
0.466658
-0.866329
0.7481
0.658559
0.864559
0.839839
0.918638
0.315897
-0.719291
-0.256935
0.804071
-0.278603
-0.664541
0.393841
-0.479965
0.228736
-0.132603
0.577929
-0.196142
0.341472
0.218055
0.713248
0.0746788
0.784051
-0.730033
-0.0151067
0.278115
0.216529
0.551744
0.280984
0.328959
-0.843196
0.721427
-0.00851464
0.964354
0.672475
-0.258339
0.733573
-0.181494
-0.595996
0.058565
-0.936033
0.534166
-0.516343
-0.902768
0.243873
-0.280068
0.910154
0.385968
0.115207
-0.430525
0.943541
-0.378277
0.154149
0.952208
0.0821863
0.990112
-0.23777
0.789361
-0.815851
0.0508744
0.858455
0.528245
-0.704642
0.503342
0.834407
-0.473983
0.74749
-0.857784
0.935667
0.15659
-0.911924
0.318216
0.130894
0.452132
0.40495
0.214209
-0.467696
-0.907102
-0.392499
0.251198
-0.571154
0.55681
0.228004
-0.065096
-0.0044862
-0.758415
-0.695425
0.456893
-0.259133
0.372478
-0.0912809
-0.638539
0.755425
0.507187
0.879818
-0.40788
0.823054
-0.548753
0.329508
-0.77105
-0.541673
0.3961
0.477889
-0.769951
-0.0674765
0.0917081
0.384014
-0.510483
0.349528
-0.132054
0.133763
0.524155
-0.16422
-0.684866
-0.95294
-0.898618
0.90582
-0.562365
-0.532578
-0.877987
0.0658284
-0.907529
0.695242
0.0680257
-0.281533
-0.4738
0.629322
0.330119
-0.569506
0.820673
-0.323222
-0.27311
-0.373638
-0.937132
0.495895
0.527146
-0.229835
0.0491043
0.132481
-0.71099
0.0982391
0.33665
0.114475
0.828364
0.965331
-0.543626
-0.93469
0.627674
0.865902
0.0973846
-0.600818
0.999817
-0.805475
0.0768762
0.66155
-0.682546
0.806757
0.908017
-0.924314
-0.377972
0.442549
0.777276
-0.139805
-0.0763878
0.0769372
0.745476
-0.123203
0.504685
-0.742485
-0.0170599
-0.825922
-0.459212
-0.506088
0.85284
0.987671
-0.650197
0.759392
-0.345256
0.759758
-0.417646
-0.830744
-0.15952
-0.258889
0.666677
-0.102817
-0.484481
-0.262368
-0.180761
0.391766
0.0377514
0.563219
0.935301
-0.0426954
-0.473434
0.762993
0.66924
0.759758
0.0946379
-0.831904
0.020661
0.321024
0.614429
-0.154576
-0.264321
0.564318
-0.166845
0.00369275
0.837153
-0.527635
-0.352947
-0.580187
0.597034
0.421979
-0.65099
0.946837
-0.738151
-0.743889
0.660817
0.666372
-0.154576
0.157567
0.363323
-0.751457
0.299478
0.385296
0.336772
-0.919126
0.376324
0.936949
-0.176244
0.729667
0.49559
-0.800775
-0.272744
-0.704703
0.926817
0.64977
-0.243507
0.225623
0.601306
-0.328776
0.232704
-0.852351
-0.134678
0.542405
-0.632313
-0.717765
0.487167
0.666494
-0.172216
-0.997253
-0.769582
-0.899141
-0.605003
-0.899146
0.306858
0.449823
-0.461782
0.322323
-0.979968
-0.816736
0.708734
0.733782
-0.0877087
0.443545
0.167571
-0.514813
-0.270126
0.403075
-0.835432
0.528947
0.5158
0.235393
-0.72638
0.857824
-0.856513
0.761549
0.70353
0.826262
0.606701
-0.164261
0.393784
-0.885347
-0.628624
-0.469446
0.705188
-0.097854
0.112515
-0.813575
0.524411
0.80807
0.137852
-0.614063
-0.41203
-0.834712
0.816095
0.917722
-0.155675
-0.811029
0.323283
-0.210364
0.661122
-0.398419
-0.983154
0.356487
-0.306375
0.277383
-0.248939
-0.3773
0.226417
-0.530259
0.446821
0.783868
0.798883
0.182043
-0.772637
-0.931578
-0.0703452
-0.753594
-0.566393
-0.0567339
-0.249667
-0.328686
0.8301
0.744703
-0.63781
-0.178305
0.314975
-0.201991
-0.271511
-0.00679343
0.447557
0.0872846
0.912866
-0.0559242
-0.897339
-0.46085
-0.519982
-0.0540971
0.568785
0.982147
0.868102
0.916466
-0.602866
-0.156571
0.545332
0.197745
-0.67935
0.648445
0.765996
0.540483
0.549791
0.381024
0.73455
0.858028
-0.241005
-0.228248
0.995178
0.312723
0.0794396
0.573168
-0.146336
0.296731
-0.593921
-0.113742
0.648549
-0.130528
0.334819
-0.399762
-0.317972
-0.784722
0.040437
0.00796533
-0.376507
0.682424
-0.591113
-0.340495
0.19834
-0.0331126
-0.26426
0.517197
0.974181
-0.996521
0.303446
0.472823
0.0572833
-0.873714
-0.849971
0.291726
-0.487655
0.0607624
0.342326
-0.955565
-0.683828
-0.689138
0.0644857
-0.91052
0.659963
-0.496811
0.836299
0.669179
0.41142
0.250282
0.172643
-0.818659
-0.450362
0.0962859
0.996643
-0.81048
-0.614856
-0.89288
0.119541
0.233741
0.377178
-0.332621
0.0992767
0.504318
-0.638234
0.0471511
0.790643
-0.558092
0.00234997
0.30076
-0.100986
-0.674306
0.274697
-0.940306
0.851009
0.912351
-0.199072
0.783258
-0.706656
-0.81225
0.842463
0.0278023
0.534166
0.295694
-0.233802
0.299234
-0.763237
-0.296426
0.795709
0.048677
-0.318583
0.66979
0.860286
-0.623829
-0.0953093
-0.926389
-0.646413
0.00381482
0.0309153
-0.328043
-0.384075
0.079989
0.107456
-0.156835
-0.0495926
0.37962
-0.24369
-0.117466
0.988098
-0.539964
0.954588
-0.0895718
-0.788018
0.337504
0.256325
0.457015
-0.544847
0.244789
-0.231422
0.784173
0.182531
0.0341502
-0.806513
0.00918603
0.371136
0.786798
0.249428
-0.908628
-0.199255
0.191992
-0.21659
0.744133
-0.433515
0.2584
0.888058
-0.664418
0.627064
0.919553
0.33372
-0.159581
-0.799738
-0.903317
-0.369182
-0.0958586
0.819453
-0.218665
0.0329905
0.0836512
-0.138646
0.699088
0.793695
0.326212
0.360515
-0.881222
0.990173
-0.251259
0.920103
0.368389
0.225684
-0.219214
-0.46617
0.620106
0.523362
-0.266945
-0.869991
-0.491745
0.723685
0.854244
-0.349284
-0.859249
-0.301126
-0.0611286
-0.520859
-0.931394
-0.304178
0.548204
0.0264596
-0.226112
0.120518
0.906674
0.291788
0.2407
-0.923826
0.5374
-0.792962
0.170263
0.968444
0.697501
0.579882
0.402631
-0.511643
0.67748
0.445967
0.108921
0.288186
-0.974059
-0.355266
0.314493
0.65978
-0.237098
-0.569811
0.317484
0.530076
0.643239
0.928648
0.563829
0.0855434
-0.465499
0.257485
0.542222
0.337748
-0.030549
0.116062
-0.739189
-0.0571612
-0.0624104
-0.337809
0.868709
0.587756
0.976928
-0.514328
0.983886
0.254738
-0.370464
-0.507431
0.291665
0.678152
0.322672
0.511704
0.974425
0.304239
-0.262185
-0.563402
0.535874
-0.932066
-0.268716
0.715262
0.582751
0.298501
0.867489
-0.000762939
-0.874142
0.0660115
-0.37199
0.766472
-0.0369579
-0.717277
-0.640614
-0.271645
-0.293252
0.870052
0.0212103
-0.164647
0.0187689
-0.695486
0.797723
0.691824
-0.385785
0.85577
0.635243
-0.805902
-0.402081
-0.172521
0.767754
0.203711
0.694998
-0.884213
0.293435
0.0680257
-0.0615559
0.395733
0.864071
0.801141
-0.623096
0.249245
-0.449202
-0.262612
0.363506
-0.452376
-0.0521562
0.470443
-0.0102847
0.399884
0.576891
-0.110935
-0.77337
-0.0199286
0.655019
-0.87579
-0.665151
-0.453902
0.28843
-0.782098
0.107395
-0.0375072
-0.846004
-0.672353
0.506211
0.0393994
0.732414
0.27842
-0.743644
-0.999268
0.153539
-0.72515
-0.0401319
-0.606372
0.718741
0.586169
0.290689
-0.248451
-0.839656
0.0159001
-0.16483
-0.675832
0.703055
-0.0303659
0.139195
0.186132
-0.0127873
0.932981
-0.47557
-0.963195
0.919492
0.171545
0.237709
0.00454724
-0.489608
-0.532884
0.493454
0.766839
0.763665
0.700491
0.974609
-0.700369
-0.322062
-0.905148
0.351848
-0.431867
-0.574755
0.932371
-0.614124
-0.528794
0.767144
-0.445357
0.173376
-0.647572
-0.228797
0.462325
0.10062
0.389996
-0.107639
-0.676565
-0.933836
-0.822016
-0.522019
-0.294168
-0.463912
-0.188391
0.763115
0.343303
-0.0068056
-0.211097
-0.585131
0.750664
-0.656545
-0.959105
0.69158
0.997925
0.842341
0.404157
-0.723624
0.458113
-0.897458
0.845882
0.85052
-0.660817
0.74694
-0.243385
0.465621
-0.185217
0.267678
-0.378582
-0.218848
0.56389
-0.344096
-0.617786
0.226356
-0.465865
-0.63744
-0.195837
0.150914
0.739982
-0.845698
-0.841243
-0.973571
-0.0920133
0.426069
0.53563
0.761284
0.78338
0.533372
-0.90466
-0.809442
0.908017
0.706961
0.577013
-0.194433
0.6845
0.110996
-0.628834
0.782708
0.537339
-0.390362
-0.527207
-0.623341
-0.0152898
-0.198096
0.624622
0.739128
-0.567614
0.889523
0.965026
-0.774895
0.503159
0.938292
0.492294
-0.748711
-0.28605
0.0978118
0.657338
-0.233436
-0.687124
-0.660451
0.398297
-0.601245
0.0891446
-0.722465
-0.0710776
0.339885
-0.032136
-0.366741
0.593127
0.0315866
-0.797235
0.908261
0.0987884
0.714713
-0.0209052
0.825068
-0.557299
-0.096469
-0.761101
-0.898434
0.839656
-0.150487
0.541734
-0.881039
0.967528
-0.945311
-0.227393
0.0467849
0.841975
-0.100742
0.510971
-0.0120548
0.631703
-0.55565
-0.128758
-0.294473
0.728202
-0.526658
0.629322
-0.506027
-0.618152
0.833918
0.446272
0.757683
0.216656
0.143256
0.00268898
0.858537
-0.0634614
-0.0806416
0.854633
0.796399
-0.464022
0.200313
0.826658
0.282904
-0.674646
0.714429
-0.249739
-0.226585
-0.911901
-0.336144
-0.635597
0.0180486
-0.323099
0.183447
0.186438
0.69451
-0.635975
0.538682
-0.82873
0.685781
-0.740532
-0.876339
0.965697
-0.435286
-0.893613
0.322977
0.573229
0.848323
-0.230934
0.298746
0.242897
0.583605
-0.275796
0.76635
0.391949
-0.171178
-0.131199
-0.179113
-0.623585
0.590686
-0.0431226
-0.122898
-0.0776696
-0.218055
0.977782
-0.215674
-0.970763
0.760613
0.788141
-0.81933
-0.841243
-0.986206
-0.689688
0.147496
-0.478927
-0.451399
0.610096
0.227088
-0.728507
0.552538
0.165075
-0.133641
-0.570421
0.885739
0.637562
0.348796
-0.666494
-0.0317087
0.46379
-0.723136
0.442061
-0.375896
0.571764
-0.331523
-0.703238
0.444197
-0.459334
-0.27195
0.456954
0.23246
0.514573
-0.642994
-0.780877
-0.904294
0.181432
0.464522
0.935484
0.741081
-0.867428
-0.858821
0.740654
0.542039
-0.0878628
0.759514
0.503159
-0.0624714
0.0712607
0.0614948
0.810175
-0.274758
0.538438
-0.702261
0.801386
-0.18833
0.618702
0.479843
-0.337992
-0.0182195
-0.0655233
0.808039
0.589038
-0.748955
0.620045
-0.662343
-0.95764
0.361797
0.0823084
-0.0538042
0.0939054
0.986389
-0.358806
0.663503
0.686148
0.20011
-0.639576
0.4279
-0.385662
-0.213599
0.383282
-0.669301
-0.956969
0.936155
-0.916562
-0.588672
0.370891
-0.0961638
0.346355
0.0656453
0.254799
-0.815729
0.290506
-0.869747
-0.392315
-0.229835
-0.256386
-0.294839
-0.619068
-0.945372
0.784845
-0.223304
-0.0558184
-0.0588092
-0.334391
0.70452
-0.123997
-0.277383
0.422651
-0.366375
0.976684
0.292276
0.494003
-0.104831
-0.684072
0.249733
0.65215
0.45793
-0.870479
0.463668
0.565722
0.492721
-0.625599
-0.346171
0.302591
0.113193
-0.24247
-0.444197
-0.9129
-0.645558
0.0496536
0.229408
-0.376446
0.45262
-0.503403
-0.92523
-0.701773
-0.512558
0.140904
0.117832
0.573779
0.45146
0.865902
-0.872677
-0.113681
-0.193762
-0.0250557
-0.872433
-0.639882
0.590381
-0.8811
-0.133457
0.650258
0.140477
0.382794
-0.195105
-0.772942
0.487777
-0.654286
0.186682
0.414716
-0.506882
-0.0738853
-0.246193
-0.504624
-0.217078
-0.176061
-0.331034
-0.806207
-0.45201
0.373882
-0.793512
0.851375
0.268654
-0.379559
-0.223304
0.605701
-0.572436
0.428816
-0.156407
0.885739
-0.726005
0.443037
0.300516
0.536119
-0.299173
-0.295816
0.86462
-0.117161
0.297464
0.741935
-0.946287
0.0528886
-0.358745
0.950194
0.308084
0.85992
0.889401
0.0613728
0.817865
0.569628
-0.265725
0.530442
-0.378033
-0.144383
-0.215186
-0.358806
-0.462508
-0.740043
-0.564501
-0.851314
-0.515854
0.469588
-0.713309
-0.731742
-0.233985
0.721793
0.178198
0.825434
0.872433
0.651296
0.898251
0.378155
-0.63921
0.890927
-0.368755
0.124302
-0.615284
-0.261025
0.205908
-0.59331
-0.571703
-0.79461
-0.793085
-0.37138
0.810114
-0.250893
-0.987793
-0.608448
-0.48027
-0.980407
0.818842
-0.331767
-0.0517288
0.914975
0.718802
-0.176305
0.0761436
0.268288
0.889462
0.295816
0.68041
-0.523911
0.958556
0.749138
0.123814
0.380413
-0.391888
-0.486618
-0.710929
-0.282876
-0.520859
-0.879879
0.219459
-0.556505
-0.560961
-0.250893
-0.970885
0.256874
-0.724418
-0.602649
0.645741
-0.382488
0.878719
0.583789
-0.0527055
0.587634
0.973022
0.400861
0.856319
0.799188
-0.536119
-0.272805
-0.0469069
-0.136265
0.459273
0.411908
0.171484
0.535569
0.0295115
0.244972
-0.861263
-0.0586871
-0.231788
0.524522
-0.276894
0.188696
0.216407
0.0349437
-0.650197
0.666616
-0.787896
0.247047
-0.349712
-0.650868
-0.770989
-0.44615
-0.994812
-0.584338
0.764763
-0.64629
-0.455489
0.500473
-0.156468
-0.206214
-0.832392
0.883114
0.69396
-0.0138249
0.144871
-0.0669271
-0.334696
0.508896
0.864009
-0.879025
-0.555345
-0.994995
0.283486
0.908261
-0.363018
0.691641
-0.344462
-0.171667
0.771538
0.591479
-0.919126
-0.927732
-0.204016
-0.700247
-0.541673
0.890011
0.12186
-0.901242
-0.608753
0.120701
0.282754
0.232582
-0.386517
-0.834651
0.268532
0.154027
0.497604
-0.288003
-0.401898
-0.442366
-0.792657
-0.471847
0.192541
0.00943017
0.0573443
-0.368084
0.111545
0.987304
0.642079
0.154698
-0.784112
-0.856075
-0.702689
0.207495
0.818415
-0.394879
0.455733
0.0636311
0.384686
0.115036
-0.540488
0.971095
-0.651641
-0.15739
-0.607284
0.904561
-0.898538
-0.339812
-0.504165
-0.425944
-0.777006
-0.293775
-0.275959
0.997189
-0.991573
-0.952124
-0.986187
0.952159
0.36316
-0.74767
-0.182255
-0.379166
-0.879919
0.680346
0.471979
0.737503
0.847548
-0.683755
-0.0412794
-0.447554
0.20603
0.94409
0.624744
0.924741
-0.0800501
0.48619
-0.580065
-0.143101
0.423749
-0.688406
-0.781915
-0.216529
0.247291
0.331889
0.781854
0.925352
0.201514
-0.306619
0.934812
0.0234687
-0.572497
0.880184
-0.496811
-0.235817
0.371319
0.0392773
0.589709
-0.792108
0.747124
0.341594
0.741325
-0.465438
-0.448775
0.189795
-0.425031
0.418012
-0.810846
-0.9129
-0.577868
-0.658797
0.778798
-0.0217529
-0.444524
-0.833441
0.691234
-0.125353
-0.439169
0.271916
-0.606697
-0.419047
-0.585533
0.563429
0.65272
0.325963
0.831969
-0.31511
0.169175
0.12145
-0.55214
0.726435
-0.306591
-0.347366
0.389833
-0.249312
-0.301909
0.518746
0.810743
0.449519
0.660604
-0.367534
-0.0611286
0.239174
0.0224922
0.591601
0.21189
-0.886715
0.887143
-0.162755
0.0536821
-0.44145
-0.482162
0.408551
-0.140538
0.851497
-0.300516
-0.891842
-0.250282
0.0457473
-0.974181
-0.109958
0.656301
0.963744
-0.824763
-0.717277
-0.696707
-0.495651
-0.763054
0.659963
0.644887
0.579943
0.150975
-0.828547
0.322184
0.994263
-0.676626
0.146947
0.703116
-0.42552
-0.519822
0.784295
-0.934446
0.870296
0.821833
-0.0637532
-0.510849
-0.269753
0.540941
-0.192969
-0.985229
-0.928404
0.766228
0.371258
-0.36259
0.152501
0.993896
0.32841
0.693167
-0.339091
0.0707114
-0.595202
-0.796991
0.933164
-0.210181
-0.183996
0.736686
-0.387188
-0.837581
-0.298929
0.35783
-0.935362
-0.572192
0.343242
0.21427
-0.146275
0.864193
-0.0130925
-0.664724
0.604419
-0.537339
0.0657674
0.197974
0.550279
0.527329
0.653371
-0.373943
-0.911802
-0.736992
0.948241
0.583239
0.648732
-0.585376
-0.392499
0.423139
0.194983
0.019013
0.740349
0.159337
-0.3361
-0.666921
0.373821
0.317179
0.660451
9.15527e-05
-0.795892
-0.0701621
-0.281533
0.516587
0.445723
0.241981
-0.558885
-0.937132
0.589953
-0.317484
-0.168371
0.758965
-0.112827
-0.330424
-0.871212
0.40904
0.363323
-0.190039
0.45848
-0.203467
0.184362
0.0556352
-0.385907
-0.407147
0.18131
0.379803
0.278787
0.941282
-0.652882
-0.465194
0.000946045
0.779473
-0.880673
-0.544969
-0.763482
-0.0368969
-0.739616
0.866085
0.770379
0.252174
-0.852473
0.664357
-0.171545
-0.776727
-0.713858
0.627857
0.194678
-0.829463
0.857417
0.0223091
0.643422
-0.943175
0.114536
-0.336406
-0.998535
-0.421613
-0.561754
3.05176e-05
0.15128
0.405438
-0.134312
0.776849
-0.712149
-0.338969
0.903928
0.844966
0.742302
0.700369
0.441328
-0.323283
-0.315714
0.2537
0.569262
-0.848384
-0.984313
0.995117
0.126133
-0.826777
0.768731
0.599048
-0.223243
-0.318278
0.319254
0.348308
0.439436
0.622486
0.730705
-0.645131
0.872982
0.434614
-0.462203
-0.543382
-0.763359
0.621876
-0.714652
0.85229
0.435224
0.967345
0.132786
-0.46263
0.0611897
0.955809
-0.162328
0.603137
0.7481
-0.0347606
-0.568896
0.46147
-0.254494
-0.209387
-0.103671
0.0580767
-0.470077
0.0621052
0.16422
0.136265
0.263039
0.120212
-0.262368
0.614307
-0.0902432
-0.0894498
0.257118
-0.861812
0.829707
-0.539048
-0.679922
0.873226
0.653188
-0.497726
0.867489
0.595752
0.255226
0.797418
-0.55211
-0.851436
0.639576
0.738456
0.674734
-0.677786
-0.454878
0.777398
-0.81457
-0.775994
-0.411725
-0.750114
0.41905
0.198584
0.751945
-0.842708
-0.478988
-0.639088
-0.964599
-0.532517
-0.309427
-0.193884
0.0768151
-0.502243
-0.718802
0.556383
-0.439802
0.942625
-0.0317698
-0.690481
-0.778802
-0.89172
-0.705313
0.0507523
0.261757
-0.0829188
-0.0909757
0.589526
0.988464
0.243324
0.806513
0.0856655
0.485397
0.143956
0.88702
-0.374432
-0.864925
0.546861
0.141819
-0.088168
-0.200659
0.957457
0.782098
-0.87109
0.472701
0.748405
-0.37962
-0.953246
0.221412
0.593371
0.0196844
0.425398
-0.780633
-0.392193
0.720389
-0.217322
0.695303
0.759514
-0.140721
0.588061
-0.398785
0.110813
-0.507675
0.944273
-0.182592
0.455794
0.933714
0.820063
0.704031
0.914243
0.223548
0.896298
0.813288
-0.955077
0.0379956
0.0874965
-0.425459
-0.958556
-0.648183
-0.198035
0.764031
0.572253
-0.831294
0.00234997
0.572558
-0.17246
-0.370342
-0.869869
0.0832239
-0.663686
0.813044
0.955077
0.971984
0.114719
0.538499
0.413495
0.243141
0.709342
-0.512619
-0.50267
0.812677
0.697501
0.952269
-0.743767
-0.248451
-0.793023
-0.472945
0.975402
-0.998108
0.0180975
0.0520951
0.591907
0.378155
-0.190527
-0.875179
-0.588
-0.334086
-0.888119
0.489914
-0.808832
-0.368938
0.531053
0.62035
0.640248
0.751518
-0.197546
-0.197302
-0.580309
-0.516282
0.240944
-0.961119
0.685354
0.877682
0.147069
0.07651
0.246071
-0.649037
-0.266762
0.880795
-0.601611
0.436934
-0.86816
-0.139561
-0.5009
-0.683889
0.0476394
-0.840022
-0.661611
0.947264
0.617481
0.330912
-0.623524
-0.393048
0.0393384
0.693838
-0.0942717
0.653188
0.53386
-0.294473
-0.798273
0.322855
-0.800531
-0.358684
0.724357
0.37785
-0.674062
-0.0927457
-0.567431
-0.589038
-0.27427
-0.707205
0.275063
-0.375774
-0.351054
-0.521592
0.918699
0.892941
-0.157933
0.108676
-0.221778
0.926756
-0.686453
0.744865
-0.590869
-0.65862
0.36961
0.00857568
0.326334
0.452925
-0.518784
-0.770257
-0.689322
0.606738
0.546617
0.91052
-0.732841
0.854915
0.109653
-0.681936
0.695364
0.793207
-0.90112
-0.480331
-0.16361
0.370952
0.647938
0.170324
-0.441939
-0.514023
0.560289
0.36784
0.040437
0.177221
-0.0180975
-0.113437
-0.6751
-0.772515
0.842525
-0.897824
0.789239
-0.0109562
-0.370464
-0.0790734
-0.389508
-0.756035
0.0560014
0.0245674
-0.720878
-0.0873135
0.186193
-0.254982
0.226112
-0.578048
0.579969
-0.119814
-0.374229
0.546614
-0.980159
-0.237407
0.437378
0.535398
0.38257
-0.103111
0.746722
-0.665979
-0.783359
0.473306
-0.52818
0.72084
-0.408473
0.0749396
-0.505874
-0.837519
-0.223914
-0.113193
0.277383
0.205908
0.314249
-0.275796
-0.961852
-0.782281
-0.944029
-0.813349
0.529405
0.284341
-0.291726
0.255531
0.499252
0.0837122
-0.531541
0.644765
0.888974
0.54326
0.301492
0.218055
-0.168981
-0.905393
-0.575243
-0.214942
0.510605
0.339457
-0.437727
0.589038
-0.0467849
-0.0633869
0.530747
-0.202063
-0.199988
0.526109
0.720267
0.312784
0.134495
0.49913
0.0320749
0.203955
0.421979
-0.570666
0.836116
0.0897549
0.625172
0.976501
0.509812
-0.231849
0.55797
-0.925291
0.122288
0.415509
0.540025
0.219581
0.825312
-0.3361
-0.585681
-0.336161
0.51323
-0.130161
0.991211
0.337321
0.315836
0.887204
0.979797
0.300821
-0.514695
-0.344096
-0.529038
-0.451704
0.239967
-0.0795007
-0.966735
-0.0310373
-0.872188
0.389142
-0.515488
-0.717826
0.472457
0.647023
-0.598071
0.757378
0.462691
-0.863704
-0.567248
-0.468551
-0.550035
0.514634
-0.531297
-0.662832
-0.984985
0.705008
0.745354
0.452986
-0.633717
0.94995
0.930418
0.688772
-0.366497
-0.818171
-0.737053
0.219275
0.617603
0.0223091
-0.1948
0.0774865
0.560595
-0.277505
-0.129185
-0.879574
-0.502426
-0.641957
-0.309244
-0.719108
0.7528
0.590075
0.380963
-0.0843837
-0.856868
-0.695425
0.271889
-0.934996
0.451094
-0.555589
0.665273
0.434431
-0.270486
0.344096
-0.921873
-0.0889615
-0.99884
-0.118686
-0.961791
0.428571
-0.0845668
0.757866
0.492233
0.991699
-0.0760826
0.221229
-0.11008
0.673452
-0.461287
0.540452
0.00711083
-0.602161
-0.764763
0.54857
0.568529
0.319803
-0.43852
-0.436445
-0.265603
-0.384625
-0.982849
0.00088501
-0.486801
0.495102
-0.734794
-0.00991851
-0.838191
-0.748589
0.237342
0.307535
-0.362774
0.155126
0.696585
0.938292
-0.838923
-0.989196
0.819819
-0.420881
0.960448
0.185766
0.362163
-0.604236
-0.754082
0.923215
0.965392
0.346416
0.49205
-0.245827
0.17423
-0.61626
0.0795007
0.818903
-0.27842
-0.15067
-0.636097
0.910825
-0.354106
-0.6292
-0.767388
-0.943968
0.803278
0.57622
-0.787347
-0.559496
-0.663625
-0.0629597
0.191321
-0.503159
-0.337077
-0.947447
-0.186865
-0.035493
-0.453719
-0.311747
0.614734
0.734306
-0.189306
0.880551
-0.0392773
-0.708426
0.2631
-0.579943
-0.157201
-0.43144
0.385113
0.0274972
-0.395489
0.0199896
0.356365
0.531724
-0.345622
0.733696
0.973083
0.365581
-0.770074
0.388714
0.0229194
-0.309793
0.274758
0.874081
-0.319803
-0.539598
0.491623
0.379315
0.482406
-0.25547
-0.366497
0.771233
0.45146
0.61034
0.0960418
0.0672323
0.922422
0.889767
-0.127537
-0.180029
-0.358928
-0.864681
0.934812
0.223487
0.69396
0.0806605
-0.896664
0.755425
-0.167028
0.916379
0.466903
-0.833796
0.756645
0.69628
0.415815
0.6292
0.911313
-0.816034
0.351726
-0.137669
0.374004
0.453841
0.134861
0.0362254
0.380352
-0.442122
-0.667837
-0.721122
-0.94116
-0.427473
-0.670888
0.591174
0.93524
-0.664418
-0.633045
-0.0152898
-0.231422
-0.811945
0.568346
0.655019
-0.717948
-0.9682
-0.986267
0.00210583
-0.649464
0.0163274
-0.0686361
-0.688406
0.208167
0.167211
0.0620441
0.908261
0.23722
-0.732353
0.263772
0.594409
-0.0975066
-0.692373
-0.584399
0.186804
-0.608387
-0.189245
-0.314127
-0.0372631
0.525987
0.353313
0.225684
-0.170507
0.502609
-0.413129
-0.649464
-0.971435
0.0317087
-0.922422
0.273537
-0.81225
-0.569872
-0.726127
0.450789
0.533128
-0.764641
-0.0837123
-0.396588
0.0740684
0.900754
0.200293
0.477706
-0.426862
0.135594
-0.993469
-0.594531
0.113742
0.452559
0.509201
0.728507
-0.922239
-0.516037
-0.523972
0.148167
0.346355
-0.369121
-0.427473
-0.936277
-0.465072
-0.394208
0.981994
0.961425
-0.922727
0.433454
0.65508
-0.0840175
0.968078
0.470077
-0.499863
0.269448
-0.0204779
-0.994446
-0.171606
-0.45323
-0.837642
-0.990234
-0.635914
-0.326701
0.444929
0.585803
-0.864925
0.554979
0.141819
-0.307352
-0.446089
-0.915952
0.185949
-0.299295
0.00283825
-0.365703
0.89526
0.340861
0.235694
-0.894772
0.0871303
-0.389141
0.908261
0.581408
0.353252
-0.798334
-0.449812
0.665944
-0.69335
-0.994629
-0.708975
0.553453
0.614612
-0.73217
0.652272
-0.0967132
0.628163
-0.051912
-0.281774
-0.423965
0.423043
-0.152298
0.999447
0.295765
0.0617333
-0.927958
0.29833
-0.699117
0.893066
-0.614281
-0.108034
0.0453973
0.696215
0.0254429
-0.655545
-0.986126
-0.511997
-0.467675
0.260112
0.711443
0.800314
-0.833714
0.289829
0.892762
0.244664
0.464905
0.705569
-0.908108
0.173681
0.508774
0.851131
0.514756
0.251686
-0.542405
-0.212012
0.357769
0.749809
-0.0827357
0.441755
0.614795
0.374798
0.701834
0.566393
0.434797
-0.553697
0.552599
-0.162572
0.0928679
0.234046
0.376568
-0.613514
-0.363262
-0.73278
-0.433027
-0.910703
0.272195
-0.569872
0.968627
0.920716
-0.451737
0.654313
0.0494258
-0.311935
0.406913
-0.978919
0.84297
-0.543065
-0.842615
-0.91186
0.221139
0.978786
0.4397
-0.751216
-0.936884
0.437293
0.238575
0.941294
-0.119592
0.823057
-0.989842
-0.48415
-0.538661
0.247896
-0.0144145
-0.422719
0.0984345
0.515866
0.711814
0.610828
-0.0408643
0.257546
0.893979
-0.294961
0.164525
-0.0530717
0.600513
-0.813105
-0.86285
-0.893735
-0.105686
-0.0219428
-0.21897
-0.983154
-0.0478836
0.486801
0.0560625
-0.75457
0.734733
-0.152562
0.509323
-0.700125
-0.729789
-0.679983
-0.673635
-0.274026
-0.386334
0.662771
0.464339
-0.0415967
0.544114
-0.710746
-0.570849
-0.7622
0.0630817
-0.976135
0.260537
-0.0928679
0.756279
0.267006
0.285989
-0.601123
-0.919309
0.382672
0.206946
0.226905
0.640614
0.122043
0.0795007
0.294046
0.513474
0.89404
0.752312
0.829035
0.689993
0.696097
-0.676382
0.264382
-0.310404
-0.48204
0.180761
-0.631031
0.414106
0.0303049
0.183874
-0.0538652
-0.697867
0.371075
-0.443159
0.410993
0.847346
0.841975
-0.952269
0.559679
0.541429
-0.67217
0.921079
0.841609
0.306558
-0.749199
0.34489
0.448775
-0.522324
0.872433
0.734916
-0.46617
-0.601245
-0.24424
-0.382427
-0.130528
0.694327
-0.799799
0.576342
-0.738395
-0.720695
0.46147
-0.159032
0.0293283
0.170385
-0.430769
-0.914792
0.863399
-0.840693
0.554918
0.993286
0.376263
-0.586535
-0.0979949
-0.84167
-0.343669
-0.936399
0.0318308
0.876217
0.137852
0.842769
0.636708
0.395062
0.100559
-0.161473
-0.32664
-0.81457
0.110141
0.421247
0.829096
0.79223
0.713004
0.409833
-0.727348
0.830622
0.696951
-0.460799
0.503769
-0.310221
-0.768548
0.290445
0.111423
0.505783
0.198828
0.146703
-0.74395
-0.033845
0.0290231
-0.661916
-0.3137
0.509812
-0.648
-0.863643
-0.896664
-0.51677
-0.222449
0.763604
0.685781
-0.183386
0.11771
-0.0237129
-0.413312
-0.218055
-0.637806
-0.611927
0.216407
0.395428
0.721
-0.407208
-0.877682
0.0273751
0.045198
-0.848811
-0.720511
0.781182
0.939879
0.503281
0.603442
0.204382
-0.119846
-0.131138
0.49797
0.894711
-0.35551
0.199072
-0.74865
-0.437483
0.376019
-0.759087
0.0922575
0.113254
0.586047
-0.221961
0.717704
0.311686
-0.589038
0.109104
0.107517
0.590686
0.435835
-0.172277
-0.564806
0.567186
0.396771
0.964904
0.889828
-0.172338
-0.925474
-0.442122
-0.780145
0.545335
-0.307413
-0.292947
-0.187109
0.492233
0.131016
-0.816523
0.122288
0.0082705
0.269387
0.649892
0.254616
-0.510178
-0.228553
-0.442671
-0.470809
0.960021
-0.376568
0.780511
0.823481
0.283975
-0.261452
-0.94702
-0.484848
-0.40904
-0.0590533
-0.732963
0.835383
0.466109
0.640492
-0.302225
0.443892
-0.52617
0.511826
0.21659
0.0398877
0.576342
-0.510239
0.555101
0.820124
0.00863671
0.393719
0.682363
0.597217
0.173498
-0.507187
0.357708
-0.609119
0.118076
-0.673757
-0.0778527
-0.695791
-0.844539
0.0885953
-0.609668
-0.502609
-0.807062
0.895077
-0.0940886
0.0716879
0.329813
-0.762383
0.622608
-0.323771
-0.712699
-0.0544145
-0.92645
0.650075
-0.766594
-0.0384839
0.091647
0.511277
0.563951
0.247536
-0.657338
-0.393231
-0.796381
-0.868465
0.535081
-0.265175
-0.0105289
0.408612
0.36668
-0.447737
-0.302042
0.50792
0.273721
-0.42027
-0.720145
0.0388501
-0.957945
0.616871
-0.135472
0.0287789
-0.655446
0.380413
0.0956755
0.164403
0.266823
0.17716
-0.637501
-0.650502
0.88348
0.424787
0.487289
-0.108127
0.947935
0.832759
0.432478
-0.368633
-0.242164
0.0556962
0.590381
-0.677908
-0.740959
0.632496
-0.783502
-0.419111
0.449751
0.0223701
-0.42906
0.714652
-0.851375
-0.448531
0.328593
-0.261086
0.188452
0.0822474
-0.178808
-0.0988495
0.0976897
0.217383
0.674978
-0.980651
-0.666555
-0.147801
0.404096
-0.0497146
0.127293
0.886837
0.524522
-0.501328
-0.99292
-0.0894498
-0.250771
-0.919004
0.056795
0.672353
-0.171178
-0.545335
-0.0224922
-0.851924
-0.40202
0.827204
-0.988647
-0.981384
-0.207251
0.65569
0.791437
0.370098
0.198767
0.451338
-0.820124
-0.570666
-0.305338
-0.10062
-0.843135
0.147557
0.752434
-0.391217
-0.17716
-0.556627
0.956725
0.802423
0.57622
0.919126
-0.892697
-0.738151
0.530015
0.861751
0.465072
-0.161351
0.228614
-0.657888
0.705191
0.843806
-0.271706
0.223853
-0.859615
0.629139
0.103183
0.894833
0.775811
-0.327311
0.43968
-0.465743
-0.241859
0.480331
-0.618397
0.727287
-0.217383
0.615955
-0.711173
-0.760796
0.0187079
-0.826289
0.0711386
0.76342
0.118259
0.00387585
0.761101
-0.546861
0.867977
0.00479138
-0.112949
-0.947752
0.0492874
-0.205786
0.710135
-0.564806
0.0672933
-0.928159
0.385907
-0.630177
0.912107
-0.0142521
-0.884213
-0.684133
-0.985778
0.815302
0.348003
-0.929624
-0.442122
-0.717277
0.0921965
0.0737022
0.812616
-0.193335
0.410382
-0.811884
0.0480056
0.00875878
-0.854915
-0.238441
-0.407392
0.787591
0.949583
0.788812
0.599536
-0.72924
-0.320109
-0.0167547
-0.918271
0.959044
-0.785699
-0.428938
-0.220008
0.373455
0.759636
0.620411
0.424421
0.520127
-0.291177
0.718436
-0.0464797
0.482772
0.1124
0.808649
-0.747246
-0.542589
-0.175207
0.000457764
-0.0246895
0.540574
0.38963
0.164286
0.00683823
0.584059
0.725049
-0.875793
-0.862419
-0.571741
0.67347
0.261159
-0.495447
0.828123
-0.524252
-0.66311
0.364441
0.381018
-0.765187
0.356358
-0.237392
0.773076
0.429447
-0.72472
0.657669
-0.347854
-0.458826
-0.631889
0.0664576
0.444923
-0.141991
-0.93004
0.791346
-0.573962
-0.485458
0.101413
0.290567
-0.646535
-0.164769
0.694327
0.25779
0.984008
0.038728
-0.275735
-0.531053
0.779412
-0.63036
0.568041
-0.537217
0.116672
0.717704
0.495224
-0.384808
0.314554
0.787713
0.407758
-0.829402
0.789117
0.883236
0.739494
0.793146
0.650624
-0.634205
0.328654
-0.800592
-0.945677
-0.147435
0.0752891
-0.56328
0.61803
0.214087
0.196326
0.366863
-0.782403
0.436506
0.890866
-0.0791956
0.475326
0.40849
-0.771966
-0.315165
0.250587
-0.302957
0.0704672
-0.618885
-0.551866
0.373882
-0.155492
0.805536
0.455
0.955138
0.971557
-0.215247
-0.481918
0.51677
-0.228675
-0.284036
0.377117
-0.951476
-0.349101
-0.749687
-0.53795
-0.89172
0.390728
-0.316019
-0.0284128
0.8399
-0.658681
0.618458
-0.858943
-0.583178
-0.657277
-0.546983
0.015717
0.97412
-0.821711
-0.728141
0.0394604
0.0908536
-0.622791
0.687857
-0.226844
0.88641
-0.823725
0.20603
0.0539262
0.791803
-0.544908
0.669484
0.908445
-0.93994
-0.544359
0.349162
0.532701
-0.923154
0.100192
0.240944
-0.349406
0.534532
-0.281106
0.132603
-0.435835
0.531907
-0.999573
-0.997864
-0.792596
-0.337382
0.977477
0.311319
-0.483322
0.153905
0.859859
-0.244484
0.429792
0.11887
-0.471908
0.0339061
0.826899
0.984375
-0.500412
0.201086
0.725089
0.157201
-0.82049
0.163305
0.0392163
-0.00857568
0.210059
-0.118015
-0.77813
-0.881466
-0.270913
-0.153417
0.094821
-0.796625
0.352153
0.37962
0.183752
-0.81109
-0.310892
0.335856
0.870602
0.0909756
0.208838
0.759087
0.673269
0.407086
-0.73632
0.0580157
-0.0317087
-0.799677
0.0868251
0.264382
0.46617
0.922422
-0.425092
0.935484
-0.246315
-0.963988
-0.33195
0.263833
0.215369
0.502609
0.139927
-0.043733
0.645497
0.193579
-0.388836
-0.554796
-0.134983
-0.708304
0.597034
-0.0055849
0.654347
0.742302
-0.596667
0.261513
-0.685293
-0.182226
0.682424
-0.119663
-0.827998
0.858394
-0.538438
0.625477
-0.666677
0.250648
0.456832
-0.279153
-0.98938
0.707327
-0.51561
0.855708
0.723258
0.909848
0.782037
-0.530137
0.691397
-0.422895
-0.946654
-0.128574
-0.265847
0.0223701
0.0472732
0.748528
0.983703
0.260781
0.484787
0.638234
-0.272317
0.730461
-0.853938
-0.0845668
-0.305582
0.68926
-0.0691244
0.862972
-0.909238
-0.650502
0.702689
0.387127
0.707022
0.814325
0.731864
0.939329
-0.59978
0.875912
0.548448
0.208228
-0.730033
0.741203
-0.982849
-0.85699
-0.163427
-0.25547
-0.551378
0.872005
-0.463179
0.111667
-0.442915
0.0773644
-0.15183
-0.16306
-0.920957
-0.609668
0.354411
0.736503
-0.135655
0.368023
0.0651571
-0.260903
0.252358
-0.385601
-0.697867
0.478561
0.545763
-0.391034
-0.536241
-0.751091
-0.605335
0.804682
0.981567
0.385601
-0.0965911
0.557482
0.780267
-0.865474
-0.727775
-0.548692
-0.445479
-0.927183
0.78692
0.579272
0.174718
0.141697
-0.0318918
0.344707
-0.466842
0.356059
-0.305765
0.344218
-0.854427
-0.748222
0.108371
0.895444
0.818232
0.134251
0.123692
-0.228614
0.693594
-0.810419
0.338847
0.704947
-0.0114444
0.522446
0.175512
-0.775506
-0.264565
-0.818842
-0.94818
0.385357
-0.159948
-0.765435
0.40318
-0.0430006
-0.231666
0.961608
0.36259
-0.369549
-0.825373
0.216346
-0.0849941
-0.192297
-0.216163
0.0326242
0.335612
0.535386
0.839595
-0.472152
0.726127
0.145848
-0.568102
0.170995
-0.538499
0.167333
0.0161443
0.476485
0.359355
0.0665609
0.435163
-0.814386
-0.616382
0.385601
0.759026
-0.000152588
0.697379
-0.163976
0.252602
-0.0740684
-0.125767
0.912229
0.785211
0.29844
-0.916135
-0.413007
-0.00607318
0.539232
0.0615559
-0.348064
0.51323
-0.281533
-0.324381
-0.736015
0.583605
-0.0211493
-0.0942106
0.262673
0.351909
0.884945
-0.956786
-0.181555
-0.825251
0.761834
-0.0737633
0.976012
0.239662
0.0838343
0.0234687
-0.345622
-0.186499
0.976745
-0.822565
0.667043
-0.566332
-0.104343
-0.179479
0.323405
0.35258
-0.458541
-0.523911
0.175207
0.548631
-0.922239
0.357524
-0.529893
-0.384136
0.711234
-0.122837
0.874325
-0.154088
-0.302591
0.878109
-0.972411
0.812311
-0.164159
-0.599109
0.492843
-0.22721
-0.48558
0.798151
0.662465
-0.800409
0.368328
0.00901541
0.184456
-0.248544
-0.386009
0.806937
0.470331
-0.00107437
0.122056
-0.168174
0.847988
-0.782397
-0.710139
0.219767
0.920875
0.558387
0.778822
0.643652
0.698023
0.91097
0.176326
0.57726
0.0538976
0.768086
0.646556
-0.408862
0.085196
0.411474
-0.368006
-0.49979
-0.0766827
-0.278054
0.667653
-0.831721
-0.433576
-0.0677816
-0.627979
0.788018
0.293985
0.634754
-0.324198
-0.556627
-0.774773
0.355083
-0.648915
0.772088
-0.414289
0.00399792
0.90466
0.536119
-0.757988
-0.478378
0.896176
0.916807
-0.930479
-0.975158
-0.254738
-0.656484
-0.285562
0.771722
-0.910703
0.671196
0.312507
-0.745815
0.754042
0.51695
-0.272306
-0.267563
0.400633
0.570616
-0.127029
0.524036
-0.0896617
-0.311415
-0.325155
-0.642571
-0.429233
-0.412403
-0.753819
-0.893112
0.124556
0.947267
0.827291
-0.783902
-0.255817
0.73473
0.0596234
0.128205
-0.00429119
0.566588
0.154474
-0.968566
-0.148289
0.915281
0.517869
0.232032
-0.180578
0.979614
0.395184
0.471053
-0.75689
-0.975707
-0.901669
0.493576
0.845698
-0.992981
-0.623096
-0.815302
-0.429609
0.301736
-0.503464
-0.41551
-0.213477
0.332926
0.586901
-0.905942
-0.0797449
0.932432
0.821345
-0.813837
0.574145
0.231239
0.99176
0.931516
-0.802972
0.89874
-0.960082
-0.345744
-0.631825
0.542711
0.108432
-0.970763
-0.244362
-0.918516
-0.326212
-0.0675375
0.814325
0.901425
0.324137
0.358501
0.284097
0.611927
-0.256386
-0.283364
-0.448714
0.210974
0.466781
-0.181616
-0.0635701
0.472884
0.964599
-0.131016
0.969298
0.371441
0.625233
-0.224891
-0.28428
-0.649342
0.191748
-0.918088
-0.782769
0.255837
0.219581
-0.149022
-0.893429
-0.263344
-0.884579
0.792413
0.461348
-0.063448
-0.678335
0.963439
-0.0416577
0.278542
-0.793451
0.345683
-0.60802
-0.838008
-0.774773
-0.385907
-0.382611
0.382061
-0.088229
0.409589
0.982482
0.083346
0.266213
0.428022
-0.689566
-0.937376
0.0987884
0.638478
-0.504013
0.230689
0.893124
0.942564
-0.22306
0.046968
0.751945
-0.412519
0.744194
-0.260109
-0.0128483
0.646351
0.152379
-0.875729
0.917173
0.876278
-0.405744
0.829218
0.433088
0.268716
0.100497
-0.251686
0.897702
-0.39671
0.72747
-0.474349
-0.0612506
-0.681631
-0.803461
0.888607
0.699026
-0.990051
0.646351
-0.35844
-0.893979
-0.127232
-0.439863
-0.868038
-0.275796
-0.605579
0.93292
-0.998596
0.750847
0.61681
-0.262368
-0.965514
-0.280374
-0.724235
0.756279
-0.0819422
0.473556
-0.867672
-0.164708
-0.277383
0.969848
0.808222
0.630543
-0.0804773
0.479232
0.436995
-0.0979949
-0.254982
-0.257118
-0.55504
-0.577441
0.725394
0.648
-0.226966
-0.437849
0.173925
0.986084
-0.147618
0.609973
-0.526475
0.855403
-0.353191
0.898312
-0.0430616
0.27073
0.0740074
-0.211463
0.196631
0.542528
-0.882321
0.584094
-0.481674
0.987915
-0.0553911
-0.569628
-0.451399
-0.463424
-0.663015
-0.733024
0.61095
0.793451
-0.245582
0.891781
0.781426
0.121006
-0.662832
0.201392
0.417341
-0.696524
-0.837031
-0.329508
-0.028779
0.355876
0.0708334
-0.869137
-0.0982391
-0.960387
0.36314
-0.0856655
0.495529
0.648244
0.699759
-0.578539
0.411298
-0.375652
-0.504562
0.178442
-0.240761
-0.427839
-0.865841
0.444502
0.527879
-0.773858
0.311991
0.433149
0.171422
0.939634
0.821589
-0.791192
-0.830622
-0.744804
0.0904263
0.32194
0.371929
0.12009
-0.21427
-0.755547
0.941771
0.308206
-0.201941
0.669301
0.707816
-0.388531
-0.0838344
0.734855
-0.260109
-0.635975
0.50615
0.238319
0.95996
-0.139927
0.50676
-0.100314
0.59978
0.229102
0.0536211
-0.26133
0.319742
-0.669118
0.0450149
-0.372051
-0.200232
-0.767815
-0.038667
-0.915708
-0.384503
-0.171789
0.251137
-0.639271
-0.787835
0.170568
0.596057
-0.0984832
-0.211035
-0.934385
0.367046
0.223731
0.905026
0.504379
0.584643
-0.713675
0.622059
0.486557
-0.304605
-0.589587
-0.0068056
0.802606
0.477889
0.812738
-0.286721
0.33433
0.388897
-0.185278
-0.259499
-0.561754
0.664907
0.790216
-0.295572
-0.027192
0.488937
0.913694
0.910886
0.533494
-0.463179
-0.228309
-0.242897
-0.543565
-0.785089
0.90051
-0.629994
-0.844966
-0.0987884
-0.688711
-0.720878
0.350627
0.503464
0.0671712
-0.0628376
-0.240272
-0.354228
-0.0277413
-0.0987274
-0.197974
0.797052
-0.562487
0.486312
-0.110691
0.65276
0.584582
-0.296243
-0.140843
-0.916501
0.649892
0.298013
-0.883847
-0.0372631
0.752922
-0.307169
0.0422071
-0.815119
-0.910337
0.660878
-0.761406
-0.811151
0.61449
0.527451
-0.83636
0.296487
0.272683
-0.276894
-0.274026
0.180883
-0.153417
-0.504501
0.398602
-0.224158
-0.522568
-0.405805
0.414106
0.939085
-0.075045
-0.259255
-0.395123
0.182043
0.628468
-0.303751
-0.549547
-0.221473
-0.369121
-0.260781
0.893735
0.564684
0.428571
0.365825
0.489914
-0.256996
-0.190466
-0.974364
-0.550401
0.00277722
-0.25779
0.70513
-0.860653
-0.730827
-0.622303
0.170385
-0.399029
-0.605945
0.227821
0.68395
0.653676
-0.899472
0.581347
-0.994507
0.140233
-0.506149
0.220924
-0.508957
0.880551
-0.548509
-0.496323
-0.898251
0.894345
-0.79577
-0.133091
0.135777
0.45616
-0.578417
-0.17716
0.495041
0.544969
0.113132
-0.496323
0.2996
0.250282
0.659291
-0.18009
0.662648
-0.301248
-0.716849
-0.705374
-0.562487
0.0616169
-0.723746
0.63628
-0.249611
-0.79223
0.290994
0.111484
0.130039
0.563158
0.0114444
-0.217994
0.0486159
-0.260231
0.516282
-0.333171
-0.315775
0.49736
0.644948
-0.106784
-0.280862
0.598559
0.680654
-0.102573
-0.0143742
-0.878231
0.66216
0.740104
0.771661
-0.20603
0.636891
-0.403607
-0.400311
-0.0958586
0.168004
0.484787
-0.709708
-0.637257
-0.592151
0.296609
0.123508
-0.532578
-0.949339
0.18894
-0.0898045
-0.0615235
-0.524129
-0.596891
0.786794
-0.214133
0.395971
-0.428249
0.54437
0.571856
-0.678942
0.576246
-0.695276
-0.370627
0.151274
0.0177522
-0.640835
-0.198756
0.21172
-0.635944
0.977541
-0.740201
-0.960177
0.834367
0.00264213
-0.0271711
-0.758576
0.0854337
0.0442393
0.375368
0.72393
0.760247
-0.920225
0.81109
0.620533
-0.037019
-0.717704
-0.693594
0.220191
0.722404
-0.120945
0.238746
-0.787225
0.505478
-0.139256
-0.538926
0.562975
-0.15537
0.349651
0.447493
0.326273
0.140965
-0.559313
-0.980346
-0.281655
0.70513
-0.672292
-0.781854
-0.248634
0.0995208
0.527268
-0.119114
-0.251564
-0.156102
-0.987182
0.490951
0.0503861
-0.453963
-0.928831
-0.143467
0.22544
-0.478683
-0.305277
0.185705
-0.903745
-0.03708
-0.679617
0.117283
-0.104526
0.725333
0.729789
-0.727592
0.862056
0.783196
0.921262
-0.112522
0.592883
-0.570605
-0.232459
0.0914639
0.459395
0.272988
0.270669
0.390973
-0.595874
0.100681
0.227393
-0.0761437
-0.571947
-0.33549
0.1171
0.0460525
-0.917905
0.45732
-0.975097
-0.188391
-0.725089
0.539048
-0.587451
0.911008
0.709891
-0.523484
0.548875
0.627979
-0.737114
-0.540819
-0.586108
0.379254
0.614917
0.652394
0.887204
0.397931
0.450056
-0.147618
0.0344554
0.124729
-0.466842
0.503708
0.303995
0.868221
-0.0213324
-0.856807
0.445784
0.29722
0.0231025
0.331645
-0.0340891
-0.672109
-0.385601
-0.863582
-0.0712607
0.967772
0.129795
-0.772271
0.918821
-0.321268
0.535203
-0.3502
0.975707
0.823603
-0.701285
0.331584
-0.685842
0.755119
0.370403
-0.603259
0.641591
-0.886105
0.540452
0.338603
-0.114231
-0.105319
0.489853
0.119236
0.145604
0.845027
0.843928
0.258095
-0.323649
-0.241432
-0.457076
-0.0293283
0.723014
-0.774529
-0.158849
-0.579211
0.013886
0.401776
-0.752312
0.148656
-0.273659
-0.638417
0.721
0.736869
0.738334
0.59331
0.429792
0.777764
0.977172
-0.797174
-0.606922
-0.796503
0.678335
0.386639
-0.688467
0.0423292
-0.632496
-0.263283
-0.0976287
-0.337077
0.377422
0.940001
0.0512406
0.569506
-0.288186
0.434736
0.0926237
-0.189795
-0.929136
-0.413373
-0.468184
-0.938414
-0.152074
-0.0530106
-0.479232
0.450911
-0.0878018
0.155187
0.400311
-0.820612
-0.0110782
0.0481277
-0.378948
-0.990966
-0.550401
0.539903
0.356548
-0.325297
0.324931
0.832331
0.118931
0.284951
-0.647206
-0.478927
-0.307474
-0.226844
0.874203
-0.841609
-0.304849
0.462752
0.389142
0.835383
-0.918638
-0.192908
-0.41496
0.345805
0.899838
0.368694
0.650685
0.495834
-0.383709
-0.901669
0.687246
-0.880856
-0.683462
-0.0215766
0.0303049
-0.637318
-0.900266
-0.908933
-0.706412
-0.195959
0.976501
0.175329
0.948729
0.963317
0.582568
-0.265419
0.251625
-0.227882
0.022248
-0.242164
-0.669546
0.562487
-0.847285
-0.883908
-0.755119
0.136692
0.622242
-0.302347
-0.168859
-0.517014
0.974914
0.343669
0.14481
-0.302469
-0.865658
0.647267
-0.686575
0.675893
0.578967
-0.321329
0.612049
0.136814
0.520432
-0.302103
0.57384
-0.459517
0.399518
-0.0809045
-0.051851
0.463851
-0.98999
0.387432
0.319254
-0.00497454
0.564745
-0.967895
-0.802911
0.710746
-0.985351
-0.0420851
-0.606372
-0.203101
0.935423
0.0368358
-0.503159
0.877621
0.291788
-0.136326
-0.745476
-0.887265
-0.605884
0.13712
0.68102
-0.872066
-0.641346
-0.471053
0.699332
0.339152
0.384136
-0.895505
0.130222
-0.766106
-0.843013
-0.644154
0.842219
-0.827387
-0.301309
0.91113
-0.126255
-0.728507
0.966369
0.981994
0.340617
0.930113
-0.480087
0.612049
-0.0588092
-0.434004
0.56859
0.788385
0.8717
0.119114
-0.292154
0.478683
-0.0360423
-0.112583
0.661733
0.657277
0.858943
-0.741813
-0.660329
-0.618824
-0.973205
-0.104526
-0.475814
-0.0199286
-0.551317
0.947325
0.498581
-0.578539
-0.230567
0.8352
-0.0710776
0.914853
0.73693
-0.812189
0.312906
-0.184179
0.738029
0.482101
0.307047
0.894406
0.24546
-0.0467849
-0.754692
0.0280465
0.986816
-0.662526
0.162328
0.384075
-0.351238
-0.990966
-0.368206
0.151891
0.929563
0.0739464
-0.26487
-0.11063
-0.249489
0.983581
0.470565
0.544176
-0.55858
0.230384
-0.0835292
0.213965
-0.289956
-0.312235
0.461287
0.707327
-0.789911
0.157506
0.411969
-0.0325022
0.518967
-0.314127
-0.705924
-0.577563
0.337809
0.21305
0.15598
0.323099
0.727653
-0.884396
-0.811274
0.132054
0.192358
-0.792657
-0.0241401
-0.974303
0.42204
-0.241493
0.683584
-0.427351
-0.490768
0.098178
-0.494308
-0.350505
-0.550096
0.360149
0.674551
-0.34196
0.74279
0.936522
0.350627
0.105747
-0.102329
-0.799554
0.704217
0.611647
0.668046
-0.938576
-0.499502
0.400749
0.816668
-0.0855921
-0.49863
-0.650593
-0.768419
0.546186
0.995109
-0.35657
-0.800237
0.561714
-0.23113
-0.887048
0.655164
0.89225
-0.164159
0.303873
-0.791009
-0.0524613
-0.775384
0.352092
0.783685
0.975829
0.152806
-0.28019
-0.350261
-0.807245
-0.111606
0.857662
0.690542
0.242653
-0.383404
0.855647
-0.300455
0.554247
-0.377422
-0.855708
0.526719
-0.846736
0.103366
0.309671
0.883847
-0.504929
-0.0793176
-0.916562
-0.376629
0.878597
0.608448
-0.4279
-0.697745
0.00515759
-0.0539262
-0.213904
0.843074
0.244728
0.410752
-0.467179
0.105779
-0.829075
0.821524
0.735347
-0.818636
-0.0710652
0.486996
0.239132
0.222454
0.996607
0.168521
0.16955
0.618698
-0.0955957
-0.825411
-0.0964566
-0.664712
-0.526627
0.894894
0.715201
-0.778558
0.135899
0.0877407
-0.838252
-0.892941
0.900693
0.235816
0.269082
0.49382
0.524949
0.279458
0.580493
0.65862
-0.543992
-0.958495
0.131871
0.979186
0.105075
0.65685
-0.585131
0.294168
0.0153508
-0.683035
0.390667
0.111911
-0.51268
0.644887
-0.383038
-0.52147
0.223487
0.0105289
0.5515
0.318949
0.555284
-0.899716
-0.907163
-0.936644
-0.185705
-0.946715
-0.57738
-0.629017
-0.589343
-0.524094
0.210852
-0.235939
-0.818903
-0.351726
0.246986
0.984497
0.56859
-0.765618
-0.440657
0.8858
-0.803034
0.808954
-0.914792
-0.327311
0.402631
-0.487411
0.954466
-0.699454
0.285012
0.148961
0.44847
-0.152074
-0.159642
-0.964599
-0.302164
0.673696
0.738701
0.920591
0.180822
-0.827448
0.308756
0.280068
0.0846279
0.940123
0.292093
-0.695669
-0.407147
0.160741
0.929258
-0.110019
0.161168
0.0309763
0.940428
-0.0524003
0.843745
0.0300608
0.963256
-0.661245
-0.26719
-0.149266
-0.98999
-0.246071
-0.425581
0.803034
-0.492782
-0.155309
-0.378216
0.502915
0.478988
-0.0779138
0.790338
-0.341411
0.438337
-0.465804
0.174963
0.767266
-0.452742
0.234901
-0.005768
-0.466109
0.609485
0.856441
-0.978332
0.826044
0.457076
-0.401349
-0.431074
-0.0244454
-0.705313
0.247047
0.081515
-0.75927
0.563097
0.831965
0.410443
0.241371
0.884518
0.0422682
-0.17777
0.178442
0.652943
-0.295267
0.810114
0.652028
0.831172
0.643117
0.76751
0.888668
0.517441
0.227576
0.588244
0.192297
0.844111
0.929258
0.254616
-0.570421
-0.229163
0.190344
0.476241
0.36314
-0.66509
0.923337
0.442427
0.644948
-0.0788293
0.951781
0.74987
-0.71746
-0.886715
0.704764
-0.43083
0.390301
-0.309366
-0.521897
-0.88818
0.0379345
0.331523
-0.426069
0.460372
0.00985754
-0.414167
0.632374
-0.17539
-0.713126
0.680471
-0.533738
0.286172
-0.937193
-0.281838
-0.28666
0.0934172
0.109348
0.83459
0.61626
-0.430158
0.30015
0.873898
-0.755303
-0.301248
-0.891232
-0.85284
-0.528611
0.445174
0.890927
0.834834
0.0140691
-0.120457
-0.235878
-0.403912
0.856685
0.164159
-0.101108
-0.0516068
0.361919
-0.53441
0.0309153
0.978515
0.387982
-0.144749
0.00949121
-0.0520341
-0.279092
0.260781
0.193152
-0.643605
-0.863216
0.530869
-0.494308
0.0232856
0.404706
-0.324503
0.964721
-0.247597
0.54387
0.345134
0.495163
0.14066
-0.352825
0.60979
-0.159093
-0.905881
-0.416547
-0.897946
-0.613636
-0.3867
-0.108615
0.585925
-0.299661
0.410443
0.177221
0.0130314
-0.38432
0.921751
-0.671255
0.131199
-0.343913
0.276101
0.858577
0.704703
0.623402
0.783929
0.68804
0.411115
0.157323
-0.492599
0.68627
-0.523301
-0.919553
0.475814
0.274331
0.111728
0.341044
-0.892575
-0.59093
0.809809
0.365398
-0.598621
-0.741691
-0.427351
-0.366436
-0.538743
-0.120579
0.123386
0.2902
-0.0867031
-0.784906
0.170019
-0.39787
0.781549
0.71746
-0.216712
-0.922544
-0.617176
-0.0864589
0.949034
0.0563066
0.803461
-0.774712
0.359844
-0.413129
-0.479598
-0.644948
0.506882
-0.60033
-0.269814
0.550951
-0.86462
-0.208655
0.946043
0.0627766
0.125706
-0.768548
0.428388
-0.897519
-0.137547
-0.495895
-0.990844
-0.379315
0.155065
-0.802179
-0.126743
0.212134
-0.228919
-0.64507
0.859615
-0.537339
