-2.1233
-1.27309
-2.13259
-0.665126
-0.590204
-1.04514
-2.02076
-0.139918
-0.767348
-0.0650288
-1.16373
2.88068
3.50132
-0.872194
-1.36173
-1.29148
-1.68038
-1.10449
2.78539
-2.01479
-0.38874
1.65
-1.48738
-1.91546
-2.02166
-2.90752
-1.72248
2.90858
-1.199
2.44265
-2.00816
2.32313
-1.39824
2.4417
-1.63587
2.68486
2.04213
-1.2846
-0.673224
-2.11979
-1.31899
2.37564
-0.81412
2.8398
2.77301
1.58392
-0.685537
-1.15107
2.80861
2.79748
-0.193862
3.02277
-1.55339
-0.785216
-1.58657
-1.88946
-1.50535
-1.5092
1.33408
-1.72421
3.11379
-1.55004
4.34653
-2.08291
-1.73707
-1.06192
-2.81179
1.96375
2.03237
-1.17402
-1.37791
1.89253
3.19944
-1.87211
-1.30223
-1.46746
-1.44397
-1.31504
2.75116
-2.43961
-0.326014
-1.82385
-0.818557
-1.62919
-1.75508
2.05198
2.47744
-1.258
-1.83898
2.81743
-0.955895
-0.687154
-0.621189
1.81302
2.24296
2.58991
-2.04722
2.0032
1.73692
1.79823
0.806483
2.26014
1.32419
2.02021
-1.63857
-1.93973
-1.18255
2.02234
-0.588994
1.77468
-1.71685
2.42369
-0.781508
3.4792
-1.44515
-1.09779
-0.834729
2.14601
2.68959
2.34962
3.04798
2.47894
-1.2746
1.44582
-1.11424
-1.35192
1.90484
-1.53554
-1.7121
-1.51237
-1.45408
-2.06371
-1.41266
3.70691
-1.09149
-1.35824
-1.35576
-0.629214
2.402
-1.21641
-1.26
-1.11495
1.49595
-1.94445
-1.28119
-1.67576
1.88346
-0.941608
-0.941827
-1.49626
1.24784
2.19714
2.28018
-0.989506
1.18809
2.3261
-1.97928
2.87583
-1.16606
-1.57736
-0.842316
-1.38158
3.03652
-0.482301
-0.625105
-1.24307
-0.190421
-1.10531
-1.19626
2.49951
-1.40108
0.939067
-1.49852
-0.694765
-1.65082
-1.81888
2.9676
1.81078
1.91218
3.57913
2.73639
-1.87124
-2.0241
-2.22657
3.52815
-1.04389
-1.34194
-1.56149
-1.76384
-1.66505
-1.89468
3.52658
-2.06726
-0.187389
2.00676
-1.76386
-2.10626
-1.82617
-1.53537
-0.853961
2.75026
-1.24202
2.70466
1.91271
2.27583
-1.63821
1.84853
-0.539067
-1.68965
1.88777
-2.25498
1.93779
-3.0535
1.75137
-1.3699
3.16433
-1.49001
-2.58982
-1.05227
1.46809
1.97821
-2.6691
2.09009
1.40678
-2.38763
2.67557
1.61362
-0.0732405
-1.16007
0.99841
-2.14082
1.17273
1.97764
1.77833
2.462
1.21549
1.42572
0.401779
-3.59699
-4.03097
1.69053
-2.44186
0.873699
0.729712
1.13879
-2.94913
-1.9017
1.60951
2.00615
0.562984
1.53028
-1.81295
-1.62136
1.69
1.84443
-0.545722
-1.20675
-2.01398
1.20393
1.46002
-0.730742
-2.20869
-1.63416
-2.44469
-1.13208
3.28516
-1.48501
-2.37475
-1.01992
-1.59982
-1.00394
2.34327
-2.2341
-1.44376
-2.00197
-2.62508
-1.35324
2.04232
-3.63003
1.7909
-1.25732
0.964261
2.14481
2.19013
-2.47313
1.65587
-2.63268
1.7363
1.94985
0.887142
3.18908
2.77803
2.86843
-1.9006
1.90912
1.3824
1.16503
-1.86282
1.84345
2.43469
2.37042
1.66817
-2.12317
2.75078
-1.59215
1.45228
-2.70235
1.5532
-1.53116
-1.80411
2.92918
-1.69995
2.45815
-2.54337
2.22703
1.15391
-3.03244
1.02297
1.49116
1.30028
3.48658
2.42049
-2.2483
-2.79229
-3.14486
1.24611
-2.52465
1.549
-1.71394
-2.74848
1.82241
0.772797
-1.94156
0.693023
0.52772
-2.62773
1.90799
2.02705
0.905834
0.898497
1.07652
0.784858
2.48057
0.624633
2.14903
0.482562
1.15008
0.428782
0.736442
1.8589
1.24613
-2.67895
-3.36964
0.957998
-2.58203
-2.44016
1.10184
0.753797
-1.6277
-2.42535
-2.37112
1.48654
-2.38247
-2.01094
2.34206
0.599492
0.995286
2.17513
1.79069
-3.243
0.740874
-3.22896
-3.45709
-2.17839
-1.91458
0.621376
0.00492057
0.752494
0.298308
0.646642
1.81079
1.60929
0.690843
-0.782495
2.19479
-1.71708
0.990028
-0.0207298
0.020612
-0.0829989
0.747793
0.181748
0.465415
-0.425749
0.998942
-0.0248075
1.33304
-0.0286307
-0.0252991
-1.13283
-1.09261
1.32423
-3.32373
-0.270112
1.24185
-0.776621
0.408932
0.702456
0.621997
-0.695264
-3.05367
0.1271
0.656076
0.733837
-3.46982
-1.3005
-2.67404
1.48922
2.68376
-2.39994
3.24489
-1.56322
-1.66703
-1.19829
-0.812221
-1.13183
-1.04039
-2.94406
1.65324
1.95528
1.68055
-2.11894
-1.65758
-2.46432
1.5775
1.40622
-1.43929
0.956441
-2.35183
1.79601
1.64306
2.12294
1.5427
0.673104
-3.14637
0.662918
1.73129
1.13835
-3.33087
2.57396
-2.14717
0.47118
1.15887
2.28468
1.94011
1.69204
2.42966
1.05304
1.21628
-1.02508
-1.78719
-2.72549
0.925929
1.40848
-1.28385
-2.53534
0.442166
1.22374
2.8082
1.73552
1.79709
0.889094
2.91853
1.35396
1.57255
1.81204
1.79772
2.55916
3.41944
1.77043
1.64273
-1.99733
1.7292
-2.45244
1.74215
-1.50583
-2.41812
0.900955
-2.2051
2.05974
1.1085
-1.753
-1.89593
-2.09983
-2.38559
-2.86063
-1.92565
-2.34749
-2.07707
1.80086
-2.03591
0.742981
-2.70631
-2.84494
2.10942
-2.59608
1.05713
2.70638
-2.70712
-2.65324
0.950734
-1.43856
1.34283
1.17035
1.4456
-2.43291
0.616616
0.917435
1.09814
-2.18421
