0.836527 0.948191 -0.451192 0.0295725 -0.423286 -0.178184 0.940374 0.62554 0.439332 -0.243084 1.33519 -1.51758 -0.410295 0.627575 -0.0995244 -0.998194 0.898614 -0.685149 0.573389 0.668773 -0.357233 1.04669 -0.287265 -0.0887689 -0.514894 0.110034 0.492207 0.763701 -0.470844 -0.453964 0.0286718 -0.0256161 -0.538473 0.568273 1.02181 0.303655 -0.0974442 0.20737 -1.40482 0.162286 0.139097 -0.249008 0.0937495 -0.0252515 0.633894 0.225342 0.527386 0.256323 -0.446945 0.463749 -0.365459 -0.164158 
1.06083 -1.38584 1.22175 -0.513499 -0.702989 0.568214 0.958442 -0.356871 -0.427763 0.56248 -2.51003 1.02398 0.330067 0.734972 -0.51177 1.03059 0.519287 1.20081 -0.462836 -0.781245 -1.46941 -0.888484 -0.383989 -0.356771 1.15883 0.291752 -0.802786 0.358096 -3.55193 -0.92809 0.733548 -0.314008 3.57571 0.742669 -0.53867 0.157635 0.348442 -0.855913 -0.367901 0.166441 0.284615 0.393876 0.576199 -0.180327 1.42093 1.2017 -0.620902 -0.291099 0.871635 0.60935 -0.50788 -0.179035 
-0.380153 0.772225 -0.2342 0.946209 -0.930588 0.768144 0.00348597 -0.710363 -0.89648 0.40812 -0.654392 -0.543468 -0.878486 0.387808 -0.20233 -0.2345 0.389817 0.390517 1.04532 0.914523 -0.380981 1.88145 0.0551289 -0.305403 0.246792 1.16163 -0.434591 0.884516 -1.61771 -0.542318 -0.432309 1.60185 -0.110855 -0.342015 -0.117634 -0.421965 -1.21405 0.187395 -0.127847 -1.66494 -0.638013 -0.0837219 0.207958 -0.230011 1.10487 -0.771724 -0.891847 -0.480834 1.07019 -0.261624 0.205539 0.217756 
0.198106 -0.996224 0.130534 -0.475489 -0.219438 0.0188855 -0.823482 0.0226745 -0.748226 0.589027 0.880012 0.930185 0.302085 -0.184703 -0.676029 0.929321 0.258077 -0.867817 -0.433815 0.32582 0.451342 -0.456367 -0.431613 0.367069 0.278332 0.485584 -0.747237 0.747754 0.676021 0.613797 -0.635045 -0.403307 -0.536813 0.493143 -0.50705 0.79455 0.853921 -0.902784 0.266354 -0.316723 -0.695114 -0.953859 -0.947087 0.335151 -0.650572 -0.160668 -0.681203 -0.982645 0.114943 0.0655226 -0.407344 0.369377 
-0.670654 -1.00359 -3.41509 -0.662766 0.304241 0.965075 5.25763 -1.10986 0.0692278 0.728711 1.45189 -0.442059 0.414543 -0.494361 -0.0370596 0.844489 -0.410458 0.0552435 0.680154 1.54104 0.0206834 0.0109003 -0.195587 -0.750853 -0.309808 0.23658 -1.77416 -1.02846 1.16281 -0.294315 0.518855 -1.97492 0.290523 0.24129 -0.321917 0.390764 -0.165155 0.0270784 0.896426 -0.707715 0.609129 -0.215611 0.0633817 0.901758 0.688495 -1.33564 0.0889395 -0.370923 -1.26767 1.41844 -0.966679 -0.312597 
-0.447414 0.161474 0.103051 0.787896 -0.326277 -0.185491 -0.269922 -0.0702349 0.93666 -0.792889 -0.287492 0.334265 0.734669 0.033609 -0.858272 0.78229 -0.404942 -0.48227 -0.221685 -0.940552 0.350608 -0.769997 0.467437 -0.320339 0.899345 -0.522091 0.779434 -0.183184 0.426746 -0.0541636 -0.479582 0.301058 -0.214111 0.654996 0.0201938 0.888772 0.727761 0.685751 0.319761 0.72919 0.183385 -0.00512796 0.720554 -0.916407 0.385916 0.841706 0.534887 -0.889715 0.272047 0.629732 0.171963 -0.616463 
-0.266051 0.946553 0.655904 -0.452975 -0.81702 -0.692018 -0.782836 1.15947 -0.358881 -0.617496 0.646774 -0.399455 0.358771 0.512875 0.37874 0.170933 0.601329 0.188942 0.588073 -0.48907 0.040651 0.585158 0.443229 0.266068 0.649988 -0.591496 0.408339 -0.151505 0.207849 -0.274608 0.736691 -0.489616 0.875746 -0.0984407 0.0520505 -0.474563 0.0995618 -0.751288 1.64551 -0.171729 0.813116 -0.502775 -0.686926 0.251354 -0.898424 0.631891 -0.801311 -0.110376 -0.918315 0.615061 -0.647564 0.809016 
-0.229057 0.834015 0.719621 -0.106739 0.0853021 0.335316 -0.662661 -0.554537 -0.374614 0.253596 0.816529 -0.558892 -0.228323 0.494148 -0.645455 0.204156 -0.321617 0.667064 0.688293 -0.522639 0.525606 -0.487796 -0.56934 -0.503004 -0.0468323 -0.510645 -0.350118 -0.72096 -0.55437 -0.840872 -0.905846 0.448363 0.208466 0.0256106 -0.755255 0.94624 -1.15816 -0.89021 0.427636 0.801776 -0.491936 0.581971 -0.487009 0.342746 0.924065 0.0416755 -0.201804 -0.992384 -0.238176 0.57892 -0.566325 0.200007 
1.47397 -0.175576 0.0241743 -0.301397 0.95968 0.266304 -0.0712758 -0.158417 -0.690283 -0.097586 1.02845 -1.13677 0.732527 -1.24989 -0.80579 2.34569 -1.1239 0.562677 0.134862 -0.538365 -0.843399 -0.488741 -0.418033 1.50691 -0.203612 0.797871 0.857494 -0.902315 0.147746 -0.730513 0.296912 -0.125965 -0.966083 1.15389 0.992365 0.341777 0.644529 0.441264 -0.686335 -1.44288 -0.120862 0.936791 0.120042 -1.08103 0.95256 -1.43698 0.486343 0.596212 0.0126918 -0.374025 -0.0539363 -0.648941 
-1.26244 1.15556 -2.40388 -0.57271 2.23125 0.41144 -1.10059 -0.943618 1.79452 0.207538 -0.709881 -0.468947 1.60747 -0.196897 0.183837 0.912243 0.70846 -0.511876 0.345137 0.497609 -0.170751 -0.901547 -0.423713 -0.771295 -0.606699 -0.464437 0.586435 0.204093 -0.638347 -0.286541 -0.80059 0.94191 -0.833205 0.0202733 -0.220837 -0.565428 -0.886258 -0.923216 0.162812 0.0355803 0.842515 0.926315 -0.181827 -0.781613 0.712756 -0.496672 0.105647 0.68559 0.99131 -0.286458 0.424941 -0.733228 
0.664754 -0.396115 -0.0186931 -0.151426 -0.162882 -0.783281 0.466059 0.967708 0.462606 -0.768563 -0.992185 0.119092 0.898508 0.508191 0.425615 -0.16656 0.416962 0.178336 -0.126829 -0.604043 -0.445367 0.727171 -0.192649 0.857861 0.193845 -1.30789 -0.424927 -0.105929 -0.391347 1.321 0.960634 0.304824 -0.11209 -0.115595 0.478388 0.93474 -0.903256 -0.169405 -0.887394 0.400539 -0.953271 -1.01583 0.448922 -0.31048 -0.56043 0.432052 0.390129 -0.0420055 -0.894498 0.559734 -0.924726 0.929841 
-0.232633 0.805962 -0.872473 0.00805419 -1.32475 -0.172277 0.293773 0.132186 -0.0460161 -0.115963 -0.372703 -0.822765 0.558794 1.02226 -0.105637 0.408654 0.754551 -0.245223 0.991431 0.815115 0.664919 0.137677 0.628736 -0.605395 -0.640686 -0.591982 -0.971663 -0.437564 0.734331 -0.31235 0.330095 1.21217 -0.0198878 0.577706 -0.983477 -0.299269 -0.309271 -0.0820081 0.69763 0.381777 0.853579 0.992003 -0.142931 -0.209233 -0.114307 0.339416 0.479783 -0.00486616 -0.185861 -0.831345 -0.347888 -0.303057 
-0.0848637 -1.12333 1.12707 0.696169 0.913556 -0.536875 1.28097 0.257264 0.529982 -0.240538 -1.11058 0.31623 -0.88767 0.662763 -0.444051 -0.616977 -0.606585 0.174317 0.282106 -0.560542 -0.993551 -0.82207 -0.332339 -0.666444 1.23884 -0.427657 2.70592 0.874349 0.398071 0.139573 -1.02549 0.495795 -0.197921 0.0897547 -0.888312 0.898382 -0.659012 1.96561 0.0207139 -0.811103 0.151879 -0.733737 0.475931 0.952506 -0.260144 -0.300476 0.181077 0.948674 1.32454 0.628694 0.878837 -0.943113 
0.67762 0.268376 -1.2005 -0.308563 0.280743 -1.34623 0.0377463 1.10246 -0.511063 -0.286915 -1.7575 -1.48136 -0.18293 -0.865982 0.840273 -0.98671 0.161298 1.21512 0.0957299 -0.742357 1.34686 0.757525 -0.210933 0.26973 -0.789859 0.4226 0.026026 0.626181 0.0548564 -0.881752 1.15688 -0.292385 0.78766 -0.382973 1.10167 -0.877138 0.475322 0.0399365 1.07273 -0.875468 0.510979 -0.116523 -0.478676 -0.528778 0.435221 -0.481413 0.972179 -0.142309 0.579201 -0.113602 0.503854 -0.249 
0.181175 -0.0865571 -0.673946 -0.614871 -0.527114 -0.933852 0.91185 0.914561 0.80251 -0.709784 -0.109243 0.190343 -0.94642 -1.90456 -1.89033 1.36031 1.68258 2.0582 -0.928368 -1.95154 -0.634997 -1.38881 -0.399366 1.5081 -1.14877 -0.253944 0.150071 -0.236337 0.422842 0.535236 -0.496237 0.755658 0.452055 0.834262 0.303292 0.0467151 0.3894 0.108724 0.344763 -0.763067 0.0315311 -0.230582 -0.0517522 0.75984 -0.735313 0.837261 -0.0328943 0.0634936 -0.57321 0.443599 -0.0763637 -0.609046 
0.18318 -0.973092 0.0966078 0.758726 -1.51439 1.45333 -0.581047 0.844399 0.598233 0.627487 0.467251 1.00306 -2.08561 -1.69864 -0.431234 0.36943 0.123099 -0.365892 -0.164436 0.648806 -0.192821 1.07624 -0.135887 0.491057 0.249356 0.476868 -0.398349 0.921639 -0.0237161 1.05434 -1.4029 1.05804 -0.801684 1.14982 0.762248 -0.739218 -1.37052 -0.753778 -0.554348 0.859928 -0.396965 0.749492 0.0237612 1.12668 -0.299746 0.148582 -0.925039 -0.351731 0.959024 0.129908 0.08244 1.53734 
0.546142 0.378863 1.06829 0.138939 0.357978 1.13861 0.073122 0.566166 -0.0347665 -0.38711 -1.27132 0.553065 -1.23306 0.5732 0.499592 -0.950176 0.509514 -0.146619 -0.131078 -0.971912 -0.155353 -0.54224 0.332384 -0.867642 0.968644 -2.25763 0.131553 -0.594757 0.370004 0.167032 1.36128 -0.522091 1.32354 -0.426256 0.779784 0.824758 1.06513 -0.273517 -0.934143 1.1469 -0.216801 -0.269218 1.48333 -1.76053 0.482072 0.105493 1.51555 0.591539 -0.944389 -2.41395 -0.384987 0.470006 
1.83759 0.0659468 1.09491 0.473382 0.198525 -1.10832 -0.49971 -0.683937 -0.130852 0.48383 0.693417 -0.569757 0.689834 -0.845971 -0.749193 -0.0469485 0.47624 -0.496467 -0.20047 -0.315603 0.130699 -0.337557 -0.885826 0.168453 -0.892216 -0.727443 -0.110892 -0.248407 0.868501 -1.12684 1.41215 -0.40424 -0.725036 0.341783 0.0838193 0.578912 -0.380284 0.313359 0.942003 0.290729 -0.960835 -0.811578 -0.446966 -0.856924 0.303903 -0.221419 -0.338 -0.539501 -0.492112 0.140021 -1.21308 -0.153892 
0.21845 -0.594543 -0.201784 0.789216 0.336511 0.0607763 -0.923103 0.780196 0.176485 -0.677415 0.758502 -0.535751 0.501913 0.693732 0.860547 0.646559 0.830721 0.465249 -0.433425 -0.825887 0.686792 0.697177 -0.574653 -0.797331 0.706704 0.303825 -0.995191 -0.28158 0.125924 -0.174989 -0.842355 2.6154 0.649482 -0.222286 -1.54856 0.140148 0.322238 -0.497777 -0.399603 -0.253681 -0.27813 -0.502215 -0.244839 -1.07766 1.3509 -1.26864 -0.613091 -0.601067 -0.604337 -1.29463 -0.319756 -0.000286873 
0.047713 -0.685413 0.318383 1.08166 -0.145226 -0.906985 0.0463947 0.423247 -0.314891 -0.939434 -0.890434 0.641074 0.0659959 -0.0152341 -0.603414 -0.827733 -0.578535 1.98219 0.349483 -0.926171 -1.8682 -0.240693 0.798483 0.321124 0.954176 -1.0816 0.46405 -0.817781 0.242226 0.104352 -0.481903 -0.42685 1.21949 0.8198 0.220857 -0.526241 -0.82865 -0.364526 0.291711 0.658552 -0.244853 0.547709 -1.02242 0.8042 0.55547 0.82851 -0.526454 0.54736 -0.194101 -0.679248 0.394655 -0.96055 
0.237141 0.822829 -0.959745 0.807524 0.328287 -0.270758 0.24073 -0.0243933 -0.963627 0.0454015 0.237982 -0.0808462 -0.896028 -0.728188 -0.413434 0.81528 0.573222 0.220811 -0.340647 0.645802 -0.390419 -0.126527 -0.547074 -0.916788 0.995042 -0.296876 0.520433 -0.930637 -0.911407 -0.251904 -0.430442 -0.738313 0.943071 -0.170555 -1.07564 0.845937 -1.05029 0.347096 -0.335616 0.44877 0.672108 0.86783 -0.910105 0.534392 -0.0233283 -0.926048 -0.873403 0.747473 -0.364123 -0.847499 -0.245901 -0.646874 
1.3166 -0.409811 -0.325748 -0.445027 0.0734481 -1.01912 -0.333879 -0.729256 1.18308 -0.38047 0.82678 0.843036 0.825703 0.308075 0.795347 -0.856414 0.134617 0.812921 -0.741168 -0.551243 -0.408356 0.721849 0.591763 0.21439 -0.818882 0.601906 -0.886958 -0.173761 0.9546 0.700849 0.81035 -0.617962 0.371818 0.57558 0.26241 -0.0724199 -0.474438 0.0429481 0.587964 0.0646466 0.899216 0.620429 0.416899 0.662353 -0.444133 0.0868357 -0.778741 0.813933 -0.917979 0.973822 0.130396 -0.310719 
0.547666 0.414494 0.320932 0.629709 -0.665255 0.033907 -0.827679 0.337567 -0.572778 0.450012 0.616844 0.797259 0.301633 0.5015 0.480271 0.595537 -1.06088 0.190236 0.161684 1.43695 0.790727 0.3657 0.258314 0.259224 -0.55623 -0.714131 -0.0832455 -2.04852 -0.0350781 1.5073 1.0527 0.457457 0.26889 -0.155462 0.634631 -0.415196 0.0257104 -0.564584 -1.06891 -0.643219 -0.0762552 -0.277869 -0.103971 0.779277 -0.516172 -0.366024 -0.0714231 -0.399877 0.684967 0.0433967 -0.031713 0.394862 
0.524313 -0.883952 -0.62308 0.557605 0.568786 -0.480329 -0.0522408 0.89133 0.302078 -0.379595 -0.262098 -0.812039 -0.00891668 -1.00329 -0.33284 0.2912 -0.831583 -1.18094 0.974282 0.0486741 0.395541 -0.318939 -0.570581 0.814283 -0.891301 -0.254447 -0.330735 -0.201941 -0.77711 1.39654 1.8397 -1.0245 -1.03992 -0.781989 1.00356 -0.519726 1.0991 1.49211 -0.725813 0.840841 -0.996783 1.05681 -0.300061 0.278815 0.0894712 -0.368144 0.512575 -0.411922 0.111017 -0.299921 -0.816609 0.039186 
0.451213 1.0395 1.25937 -1.27697 1.57131 0.207878 -1.27689 -0.916136 0.154534 -0.972074 1.6475 -1.62678 -0.574406 -0.916651 0.515628 0.450379 -0.275753 -0.177331 0.568525 -0.55091 -0.335574 1.32642 1.13893 0.354213 -1.14181 0.912799 -1.27522 -0.726031 3.45813 0.466276 0.458026 -0.137756 -3.09591 0.409632 0.748377 0.550372 0.6673 -0.196178 -0.518906 0.427464 0.275692 -0.0953314 -0.0232074 -1.07712 -0.193255 -1.6099 0.245088 0.108805 0.0790326 0.930405 0.114831 -1.299 
-0.237546 -0.0531056 -1.2723 0.914715 -0.318134 0.0901409 -0.745498 0.825055 -0.993817 0.0467952 -0.0518416 -0.777761 0.512747 -0.982773 -1.09171 0.719276 0.989064 0.570293 0.459378 -0.392763 -0.697715 -0.21142 -1.19797 -0.780936 0.895775 -0.377098 0.400813 -0.568002 0.374259 -0.287357 -0.834779 0.391625 0.206242 -0.311896 -0.956421 -0.970857 0.413654 -0.297018 0.55494 0.706861 0.612898 -0.612565 0.956776 -0.17633 -0.274203 0.386016 0.123394 0.720875 -0.464591 0.445751 0.638924 0.759012 
0.909973 0.291876 -1.6221 -1.38244 0.133174 -0.626529 -1.94179 0.705245 1.9431 0.20978 2.34113 0.0776711 -0.0224081 0.520723 -0.945902 1.11723 0.812524 -0.366221 0.948331 -1.05543 0.360793 -0.677863 -0.0409147 0.614854 -0.525049 -1.15473 0.406769 0.0668298 0.324335 -0.935038 -0.693861 0.975858 -0.469952 -0.264343 0.502517 0.43188 -0.461356 -0.387481 0.496117 -0.151035 -0.404609 0.703825 -0.960828 0.0106066 0.74398 0.148068 0.494153 0.528587 0.161234 0.439969 -0.585309 -0.719009 
-0.45465 -1.55875 -1.49305 0.122959 -0.916098 0.230854 -0.630949 0.498085 -1.16549 0.564165 -0.710577 -1.01093 -1.55968 0.571 -0.466733 1.88242 -1.91503 1.2955 -1.13872 -1.32476 0.171562 -0.33754 -1.19708 -0.394775 -0.291047 0.97721 0.833323 -0.465406 -0.417596 -0.843309 0.846481 -0.029596 1.34681 0.918045 -0.662452 1.05167 0.463759 0.402752 -0.396062 -1.65917 0.587896 0.771024 -0.611589 0.29305 0.458684 0.378884 -0.202599 1.44864 -0.921788 0.493447 -0.173049 -1.09175 
-0.622634 -0.132407 -1.39707 -0.751758 -1.0262 2.11548 -0.355881 -1.10886 -0.674316 1.52846 0.0119937 0.991579 -0.145793 -0.119653 -0.19462 -1.05991 0.304028 -0.113 1.1678 0.369539 -0.122434 0.0845514 -0.177764 0.245371 0.501687 0.7756 -0.420451 0.43318 -0.667183 0.398235 -0.893152 -0.259177 -0.244438 0.0416967 -0.845541 -0.159761 0.868115 -0.293916 0.443931 -1.01653 -0.949921 -0.436922 0.315904 -0.569659 -0.818148 -0.678107 -0.580371 -0.798129 0.461391 -0.447719 0.134154 -0.40815 
0.187329 0.033177 0.985878 0.361003 -0.36915 -0.728999 -0.470695 0.561112 -0.763833 0.992449 -0.890333 -0.344371 0.268169 -0.73958 0.618178 0.436215 0.881513 -0.578361 0.432935 0.687121 -1.35747 -0.511993 0.148272 0.3896 0.529408 0.216844 -0.883503 0.717741 0.168831 0.878509 -0.0821511 0.601144 0.13858 -0.229798 -0.935569 0.955636 0.710991 0.777328 0.68597 -0.0164068 0.592022 -0.530004 0.36335 -0.11269 -0.445527 0.507899 0.574649 0.23266 0.916212 0.0884206 0.28481 -0.851229 
-0.591551 0.675084 0.118751 -0.776299 0.87135 -0.377739 -0.269425 0.517894 0.21545 -0.0220607 -0.505167 0.0715435 -0.256363 -0.879272 0.070377 0.631943 -0.862249 -0.488268 0.806892 -0.84818 0.620716 -0.136638 0.511285 0.380729 0.152184 -0.981323 0.625732 -0.366217 -0.34172 -0.216822 -0.298831 -0.310582 -0.553565 -0.704672 0.587305 1.07375 -0.992335 -0.441887 1.543 -0.114104 -0.610834 0.579335 0.4733 0.0167731 -0.292939 -0.32841 0.264572 -0.038971 0.403285 0.155114 0.174993 -0.499818 
-0.474721 1.01957 -1.98682 -0.152053 -0.258634 1.09424 0.226263 1.19583 -1.53479 1.11122 -0.346359 0.462433 -0.576509 0.8369 -1.68505 0.29208 -1.71657 0.125888 -1.07612 2.70707 0.089524 -0.23529 0.202469 0.763739 1.64267 -1.68527 -0.438305 1.22187 -0.558197 0.79255 -0.319692 0.830856 0.160759 -0.239482 -0.689891 0.627575 -0.646999 0.0145106 -0.699781 0.313112 0.706858 0.215068 -0.612377 -0.271257 -0.761978 0.300701 0.0697788 0.852711 0.869691 0.558793 0.483204 -0.35425 
0.0971287 -0.135393 -0.0139877 -0.793102 0.0296294 0.0663628 0.520368 -0.443831 -0.331036 -0.12072 -0.345133 0.624327 -0.952543 0.26293 1.55971 -1.44675 1.49468 1.13511 -0.793309 0.296145 0.650966 -1.09473 -0.335582 0.830294 -0.380005 0.603287 -0.736319 1.53395 -0.894092 -0.198654 0.184911 0.771075 -0.346165 -0.187644 0.31942 0.336391 0.219352 -0.547704 -0.378786 0.613575 -0.198501 -1.16104 -1.08181 1.88764 0.600694 -0.231325 0.255075 0.845834 0.501367 -0.183629 -0.314987 0.438133 
0.963146 -0.608797 -0.751822 -0.834001 0.282679 0.381756 0.181461 -0.303951 0.680468 0.919825 -0.758958 0.379695 -0.246704 0.109476 -0.168101 -0.61151 -0.342798 0.0860681 -0.0953655 -0.628171 -0.871051 0.723417 -0.540522 0.411184 -0.25362 -0.0261008 -0.0501548 0.21324 0.115109 -0.637582 0.296695 -0.680918 -0.383065 0.0414752 0.251487 0.813508 -0.0606586 0.907588 -0.650707 -0.747483 -0.587488 -0.454952 -0.117319 0.357233 0.160777 1.18659 0.0727553 -0.329766 -0.361772 -0.351187 -0.390664 -0.0484005 
-0.848769 -0.576966 0.0780811 -0.83019 -1.00117 -0.479175 -0.646803 -0.0944284 -0.701734 -1.19752 0.341232 -0.359431 -0.887874 -0.00684323 -1.38448 0.699959 -2.23407 1.02278 -0.0633147 0.179722 -0.40536 -0.446795 -1.52929 1.77585 -0.28153 1.11294 0.816979 0.971743 0.6782 0.900995 1.20709 -1.20363 -0.14398 0.188157 -0.700462 -0.809281 0.933527 -1.65828 -1.02612 -0.040188 2.67939 -0.270285 -0.489429 -0.256811 -0.3956 -0.810762 -0.76735 -1.41541 1.13642 0.146743 1.11836 0.428229 
-1.46951 0.617386 -0.177118 2.39074 0.267021 0.750732 0.719611 -1.66227 0.0426387 -2.93391 -0.235762 -0.488545 0.520951 -0.264334 0.858195 0.926082 0.827554 0.519088 -0.456549 -0.455108 1.12946 0.603653 -0.275865 -0.0759773 0.55904 0.757488 1.12851 -0.607906 1.61077 -0.469612 1.5023 -0.773767 -0.462913 -0.0520451 -0.991742 -0.250883 -1.28117 -0.169915 -1.35703 0.651356 -0.439534 -0.987558 -0.339749 0.439833 0.927918 0.328463 0.706283 -0.211367 0.071492 1.00677 -1.49621 -0.992824 
-0.0387592 -0.55925 0.377076 -0.740168 0.0179517 0.76779 -0.693783 -0.649151 -0.199955 0.0452961 -0.215853 0.910563 -0.789664 -0.0689237 0.0608716 0.298171 -0.482527 -0.44546 1.02654 0.11327 0.888719 0.192312 0.175407 -0.820938 0.723599 -0.0529322 0.106689 0.578437 0.889832 1.22631 0.23364 -0.744811 -1.31432 0.381206 0.045767 -0.563437 0.647081 0.202226 1.21941 -0.140858 -0.813506 -1.49747 -1.11193 -0.921316 0.330037 0.893038 1.40382 -0.923606 0.0763074 1.07736 1.58237 0.337087 
0.259933 1.49213 -1.78316 -0.538269 0.0885342 -3.95617 -0.186955 -0.488877 0.564797 4.35471 -0.829184 -0.4851 0.207826 1.07332 -0.754738 0.647598 -0.0630856 -1.64283 -0.089018 -0.226903 0.900378 0.880397 1.87762 -0.722635 0.282402 0.0084658 0.414603 0.0296952 -0.167136 -0.678595 0.609898 0.0170267 0.46649 -0.204188 1.24561 0.142349 0.447393 0.093676 0.494066 -1.15529 0.135349 -0.175004 0.546389 1.24407 -0.171869 0.86412 0.521523 0.494348 -0.00560147 0.362002 0.898632 -0.21448 
-1.0616 1.28511 0.136557 0.398165 0.589537 -0.222007 0.0701451 0.164038 0.728297 -0.0111855 0.699388 0.78676 -0.19215 0.0584279 0.779164 -0.803245 -1.062 -0.173471 0.0884597 -0.707057 -0.963596 0.429393 -0.0557147 1.59331 -0.0358199 -0.175918 -0.660232 -0.240635 0.38305 0.583442 -0.0579913 -0.449223 -0.977007 -0.171203 -0.381626 0.464474 0.0708806 0.42268 0.301619 0.740393 0.527579 -0.0680434 -0.0630739 0.6562 0.261329 -0.613091 -0.011989 0.756699 0.359808 -0.90303 -1.26933 -0.0357113 
-0.566676 -0.25106 -0.870453 0.801269 -1.14138 -0.997688 -0.149941 0.639421 -0.0329561 0.535926 0.744904 -1.25596 0.814689 -0.124945 0.17118 0.270333 0.282115 -0.314065 0.697601 1.06973 0.381063 -1.75893 0.328009 1.06192 0.376481 -0.366708 0.594198 -0.120011 -0.254148 0.898321 0.743685 -0.672914 -0.1482 0.36514 0.811572 -0.111385 -0.305882 0.194862 -0.779726 -0.395203 0.779821 -0.224523 -0.381074 0.069099 0.0271458 -1.60037 0.243247 -0.418613 -1.04415 0.515141 0.708192 1.2189 
-0.445007 -1.19079 -0.213977 -0.0306186 0.936859 0.00452122 0.392362 0.408254 2.52514 -0.153471 -1.75192 0.602112 -0.0133511 -0.144161 0.948375 0.406 -0.30385 -0.0650385 -1.27345 -0.489093 0.306823 -0.316956 -0.891225 -0.59832 0.311162 0.298113 -0.0101603 -0.261552 -2.08576 0.381869 -0.952956 -1.86717 2.99456 0.613955 -0.170392 -0.0223389 1.12714 -0.122311 -0.734364 -0.503137 0.39803 -1.03463 -0.0419454 -0.00935759 0.416462 0.442581 0.367112 -1.1265 -0.0691518 0.803748 0.640937 -0.308672 
0.948926 1.01426 -0.301144 0.774197 -0.834915 -1.10686 0.95727 -1.11779 -0.951456 2.13567 -1.12563 0.346478 0.212408 0.139024 -1.08467 0.405506 -0.263879 0.138013 0.159554 -1.9804 0.0409317 0.125912 1.05918 -0.438284 0.692512 -0.624257 0.194168 -1.68079 -1.23315 1.44823 -0.205493 0.126633 -0.426155 0.0750182 0.684037 -0.0186859 0.0312341 0.381886 -0.508856 0.615145 -0.576109 0.871976 0.353261 0.138008 -1.42393 0.795761 0.252543 0.301134 -1.07828 1.05057 -0.374977 0.0252889 
0.393542 0.583639 0.0854228 -0.502085 -0.466226 -0.666633 -0.183616 0.292983 0.671756 0.909967 -0.168795 -0.988739 -0.250278 -0.494573 0.0892394 -0.368869 -1.03886 0.261949 0.656279 0.0984974 0.161195 0.0332397 -0.921812 2.9904 0.0799958 0.644899 0.0602714 -0.139449 0.669661 0.5945 -0.83655 0.583218 0.290835 0.11189 -0.899222 1.36204 0.80365 -1.24975 -0.104588 0.0543672 0.781076 -0.434641 -0.974392 -0.273222 0.966862 0.511426 0.766077 0.649456 -0.943174 0.195103 0.195847 -0.587516 
-0.326533 -0.714388 0.384397 -0.160406 0.130032 0.0155974 -0.00528339 -0.471508 0.0805757 -1.02886 -0.466983 -0.596746 -0.52655 0.92559 0.700346 -0.403811 1.03706 -1.2172 -0.239947 0.589475 0.205916 -0.485455 0.829186 -0.754598 0.64059 -0.454037 0.218024 -0.680051 0.645297 -0.700817 0.194463 -0.525785 -0.595366 -0.121722 -0.223687 -0.11572 -0.259687 -0.196956 0.802233 -0.881927 0.2041 -0.743007 0.857229 0.301584 -0.0016092 0.802982 -0.594155 0.353946 0.887156 0.654264 -0.0265195 -0.215802 
1.81256 -0.0629859 -0.264179 -0.168053 0.0955267 -0.692663 -0.0514749 -0.637529 0.864816 0.732346 0.466945 -0.734187 -0.96361 0.155285 0.501197 0.637614 0.529158 0.578234 0.930994 0.372695 -0.132874 -0.0796438 0.703522 -0.964962 -0.490839 -0.574859 -0.756809 0.293769 0.206013 0.397796 -0.237899 -0.604367 -1.38303 0.378972 0.72277 0.895442 0.00144187 0.589141 0.270473 -0.783229 1.29613 0.547883 -0.944783 0.121007 0.561277 2.44055 0.506656 -0.526776 0.108517 -0.573241 -0.764957 -1.22478 
0.734576 -0.548213 -0.173243 -1.07625 -0.953578 5.60794 0.519611 2.56179 -0.432491 -4.23422 -0.263895 0.570608 0.0135881 0.816148 -0.389477 0.681892 -0.135987 -0.449346 0.15633 -0.309528 0.558739 -0.108149 0.108347 0.255613 0.381661 0.142062 -0.0177612 -0.0694428 1.30277 0.222091 -0.740879 -0.636046 3.14008 0.444387 -0.290371 -0.046344 1.07554 -0.00633887 1.41004 -0.198938 1.09663 -0.561093 -0.590985 -0.465409 -0.713093 -0.147821 -0.0560711 -0.530869 -1.00314 -0.760288 1.75115 0.454638 
0.549632 -0.0173169 -0.0910009 -0.535641 0.226807 0.563295 -0.905779 -0.147121 -0.94786 -0.257348 -0.290849 0.88818 -0.981762 -0.111084 0.973486 -0.749544 0.238099 1.07867 -0.787803 0.308385 0.21081 0.167087 0.89215 0.384342 0.911899 0.747123 0.8906 -0.389751 -0.99255 -0.458102 0.128681 0.613404 0.148241 -0.722765 -0.161686 -0.453139 0.228915 -0.565981 -0.552478 0.786145 1.20571 0.377508 -0.107339 -0.442901 -0.467829 -0.236001 0.751521 -0.812064 0.182333 -0.92855 0.335398 0.0579873 
-0.206823 0.823041 -0.52831 0.201745 0.81904 -1.00059 1.01497 0.34244 0.474279 0.666036 -0.281624 0.401612 0.323235 -0.796607 -0.608369 2.63452 -0.750478 -0.23306 -0.632901 -0.00727786 -0.897397 -0.89572 0.474004 0.0465082 0.532953 0.659303 -0.277116 -0.767631 -0.390832 -0.359605 -0.713248 -0.82336 0.350605 1.24464 1.09163 -0.602545 -0.824745 0.800164 0.310747 0.126007 1.10946 -0.136989 -0.654412 -0.442995 0.202257 -0.702162 -0.730966 1.28557 -0.926345 -1.18632 -0.130732 -0.293112 
0.403536 -0.323978 -2.24536 0.35454 -0.727719 0.284668 -2.0776 -0.163316 1.69569 1.07751 1.02187 0.91458 -0.824438 -0.638374 -0.107245 0.900304 0.24404 0.478086 0.856021 -0.424781 0.126046 0.421437 0.0633641 0.506621 0.136003 -0.179047 -0.671481 0.189318 0.810823 0.257513 0.485159 0.239829 0.810025 0.510854 0.234689 -0.490137 1.30779 0.573419 1.1389 -0.144418 -2.06887 -0.65977 1.02307 -0.483081 -1.76981 0.831558 -0.0463548 -0.2027 0.446292 -0.234375 -0.109566 0.513143 
0.723072 -0.166484 2.07453 -0.0265735 -0.635421 -0.550863 1.34507 0.975475 0.0554883 0.0364732 -0.465135 0.385268 -0.289522 0.228577 -0.793266 0.518117 -0.709572 0.382853 0.297772 -0.206479 0.731733 0.677319 -0.115962 -0.949796 0.364976 -0.227456 -0.0182989 -0.99626 0.392887 0.0632542 -0.915286 -1.65396 1.97815 -0.266825 0.564821 -0.00457689 -0.270923 -0.379514 0.289526 0.0823296 1.18426 0.282534 0.239283 -0.812022 0.91832 0.461906 0.536776 0.396112 -0.439629 1.20338 -0.397595 -0.418708 
0.751818 0.0792467 -0.587653 0.895867 -0.190527 0.644934 -0.319757 -0.902177 -0.473431 0.280828 0.552097 -0.449321 0.842425 -0.515016 -0.696605 -0.691852 0.77824 -0.222888 1.4794 0.216979 -0.654697 -0.703293 -0.549932 0.392379 -0.917212 0.12924 -0.792751 0.42054 0.369657 0.294695 -0.944693 -0.356137 -0.631208 -0.78955 -0.418337 -0.0613503 -0.17198 0.252756 0.9674 -0.915183 -0.175518 -0.361307 0.553508 -0.969877 0.723035 -0.205397 0.50354 0.966819 0.333181 -0.151078 0.558744 -0.353276 
0.209966 0.232335 0.38797 -0.471776 -0.326325 0.497853 -0.466317 0.488095 0.751173 0.692672 -0.146679 -0.699283 -0.682224 0.167284 0.610192 -0.703387 -0.302171 1.06187 -0.781237 -0.63932 0.532669 0.735923 -0.699364 0.33917 -0.146858 -1.07329 -0.432062 0.310998 -0.545023 0.310533 0.244799 -0.165414 -0.17798 0.393892 0.307663 -0.66146 0.0618728 0.105247 0.446937 -0.0668444 0.951829 -0.629679 0.0570617 -0.293117 1.02723 -0.0645562 -0.533962 -0.888081 0.635686 -0.105325 -0.759668 -0.0307708 
0.398094 -1.41647 0.201731 -0.485153 -1.01699 0.206323 0.550428 0.578074 0.917264 -0.107595 -0.662318 0.653644 0.365401 0.5205 0.901684 0.772367 -0.25591 0.417196 1.29645 -1.27467 0.0428145 -0.455225 0.812107 -0.00216214 -0.945849 0.820918 0.542053 -1.15586 1.29011 -0.633149 -0.332309 -0.105097 -1.3757 -0.588314 0.279409 -0.0228624 0.68408 0.394313 -0.414386 -0.815289 0.609863 -0.548068 0.298445 0.271302 -0.455564 -0.193228 -0.447164 0.114989 0.146397 -0.332962 0.0792918 0.382826 
1.31502 1.13056 -0.370424 -0.0419629 -1.22018 0.722066 0.218265 0.890572 -2.12625 1.01275 -0.800267 -0.143475 -0.600785 1.74876 -0.400703 -0.00423147 0.253772 -0.994344 1.0778 0.939679 -1.26208 0.417214 -0.819708 -0.485319 1.04142 1.55919 -0.473096 1.55445 0.125837 -1.16142 -1.75958 0.726419 -0.0208098 0.84476 -0.977555 -1.07643 0.888254 -0.756253 0.867623 -0.00997736 0.514485 0.171906 0.801247 0.0405421 0.31547 1.34239 -1.91231 -0.357935 -0.452295 0.0565043 0.438857 -0.968501 
0.907803 -1.07193 1.28581 -0.931931 0.429472 0.0835486 -0.34259 0.843236 0.373504 0.638453 -0.523375 0.554181 0.862478 -0.352721 0.960012 0.190664 0.54788 -0.7232 -0.0765527 -0.252785 0.962751 -0.721713 -0.97243 -0.573762 -0.0663369 0.201636 0.442914 -0.963978 0.743052 0.504763 -0.738162 -0.034394 -0.557077 -0.767989 0.115147 0.590504 0.267886 -0.121619 -0.609818 0.703983 -0.839946 -0.817995 -0.33456 -0.110001 -0.288788 -0.914284 -0.616913 -0.325521 0.778804 -0.620793 -0.367472 0.694969 
-1.44133 1.11167 0.755025 -0.844521 -0.481278 0.157302 0.534683 0.058542 0.439069 0.611848 -0.484507 0.896867 0.194035 -0.644215 1.58268 -0.00454758 0.600841 -0.714099 -0.717416 1.30776 -1.44621 0.238477 0.493949 0.274142 1.35268 -0.0547738 -1.62204 0.508574 0.914773 -0.219645 0.354056 -0.375985 0.245922 -0.391642 -0.848217 -0.802421 -0.215751 0.318442 0.255007 0.959169 1.0363 -0.716712 0.644134 0.267569 0.0713574 -0.208816 0.0912855 -0.899671 -0.544124 -1.58151 1.63826 -0.405427 
0.294827 -0.104398 -0.0945934 0.355917 0.551385 -0.842171 -0.094677 -0.0117697 -0.785113 0.591767 -0.714192 -0.32488 -0.205682 0.841518 -0.901768 -0.696534 0.176842 0.888762 -0.00494182 -0.884804 -0.179038 -0.550449 0.365018 0.728791 -0.360064 -0.677095 0.000136569 0.978258 -0.770514 0.7207 0.710059 0.916858 0.693357 0.154425 0.500107 -0.475456 -0.404523 0.830212 -0.819215 -0.624025 -0.415445 -0.823514 -0.850945 0.417269 0.310058 -0.449151 -0.0205498 -0.250131 -0.269697 -0.724878 -0.502229 -0.787433 
1.05376 0.814576 -0.43117 0.399482 0.316815 -0.106543 -0.114744 -0.241597 -1.52945 0.398304 -0.205798 0.552021 -0.67881 0.20344 -0.788798 0.579942 -0.0503379 -0.747372 -0.277431 0.452608 -0.283567 0.147096 -0.942314 0.218203 0.397773 0.131147 -0.736702 0.551481 -0.650298 1.00411 0.565796 -0.0142518 -0.366448 -0.47076 -0.405138 0.33001 -0.0207008 -0.462014 -0.0949259 0.879105 -0.868465 0.526515 1.13423 0.522598 -0.0416256 0.140966 -0.408698 -0.254454 0.207095 -0.406993 0.0784025 -1.21606 
0.234879 0.617036 0.404952 0.442856 0.553836 -0.284723 0.420659 0.947822 0.429116 -0.14091 1.97794 0.0306758 0.0203255 0.0402412 -0.714281 0.430629 0.875388 -0.855784 0.184476 -0.821965 0.21222 0.0129797 -0.12753 -0.408379 -0.588104 -0.488733 -1.23915 -0.154891 -0.10412 1.57535 -0.930353 -0.0134712 -1.33632 0.233746 -1.38592 -0.100831 1.00916 1.15339 -0.452095 -0.677092 -0.790269 -0.292289 0.273375 0.523408 -0.306945 0.46932 -0.58864 -0.0168092 -0.250958 -0.518 -0.61933 -0.798022 
-0.84798 -0.524319 -0.019093 -0.0784053 0.51934 -1.3892 -0.570775 1.66114 0.58115 0.278298 -1.08466 -0.72758 -0.33284 0.703074 0.505919 -0.72879 0.0487993 0.367634 -1.25921 -0.768484 0.56508 -0.201183 -0.867637 0.0648635 -0.826889 -0.35187 1.03654 0.228403 -0.49128 -1.07585 1.37351 1.03359 0.084724 -1.29093 1.45957 -0.0834252 -0.668357 -0.187161 1.78786 -1.47704 1.53585 -0.425007 -0.443163 -0.317422 0.64129 1.25301 1.0213 -0.375152 1.77451 -0.448879 -1.25551 -1.39434 
0.892543 -0.12506 -1.77156 0.295516 -0.248556 -0.889093 -2.5994 -0.341721 2.60408 -0.56021 2.36208 1.87508 0.76935 0.0602801 -0.607763 -0.317009 -0.966185 1.24087 -0.256797 -0.0714944 0.55266 -0.383154 0.126307 -0.758976 -0.0304533 -0.239793 0.403638 0.949547 0.241268 -0.710292 -0.412512 -0.868115 0.083962 0.637927 -0.26742 0.70912 -0.990849 -0.825623 1.43777 0.190413 -0.383421 0.563871 -0.905911 -0.416272 0.588162 -0.0306513 0.624685 0.331638 -0.433555 1.79099 -0.109517 0.144236 
0.687071 -1.67747 -0.0107035 0.385584 -0.725956 -0.115256 0.630222 0.382948 -0.140451 0.191418 1.8888 -0.156311 0.23153 0.62542 -0.931881 1.17615 0.221637 -0.575004 0.997758 -1.92283 -0.904344 0.168659 2.18138 -1.01482 0.757261 0.460814 -0.807982 -0.778832 -0.00893406 0.756962 -0.232556 0.962182 -0.189547 0.374286 -0.0639502 0.568998 -0.0161782 0.463227 -2.00644 0.0674516 0.94369 -0.283977 -0.357187 1.21466 -0.905998 -0.237572 0.716014 0.709042 -0.526654 0.196781 0.288938 0.0860924 
1.34904 0.430434 -0.483384 2.51413 -0.799522 -0.774688 0.433684 1.29008 0.152911 -2.6565 0.504318 -0.563438 0.131144 -0.845118 -0.159582 -0.741292 0.557412 -0.00821974 0.599018 -1.05247 0.721702 1.58455 -0.692249 0.307869 0.947823 -0.0826082 1.2253 -0.756635 -0.919998 -0.721093 0.908384 0.640745 -1.13457 -1.29523 1.07367 -1.09101 -0.132076 -1.05258 0.207834 -0.423681 1.24594 0.685596 0.234706 -1.29115 -0.102784 -0.823425 0.230345 0.0804493 -0.925628 -0.782425 0.0142616 -0.183401 
-0.832835 -0.123547 -0.770187 -0.37631 0.209755 -0.30868 0.194206 0.458696 -0.146311 -0.843573 0.0773275 -0.830832 -0.114035 0.611826 1.02482 -1.16858 -0.788179 0.479987 -0.397897 -0.0420494 -0.773538 0.774272 -0.652677 -1.33077 -0.768532 0.0920183 0.290798 -0.188463 -0.487253 -0.92705 -0.729106 -0.654305 0.724036 0.640509 -0.657828 -0.144747 0.761439 0.492624 0.389551 -0.539019 -0.854533 0.378971 0.248863 -0.845799 -0.301798 -0.0863367 0.57704 -0.643941 0.735353 -0.597146 -0.219908 -0.51723 
-0.0606887 1.19436 -0.884395 0.779338 -0.465194 0.977716 -0.204711 -0.00260322 0.0887798 -0.371126 0.601648 -0.647733 0.916316 -0.0207507 -0.675921 0.288031 0.402411 0.0309971 0.851 -0.302811 0.996491 0.186904 0.361622 -0.0694529 -0.166631 0.359137 0.219986 0.853869 0.274701 1.94863 0.62162 -0.809336 -0.539786 -0.698291 0.0239529 -0.245966 -0.770418 -0.968901 0.514043 -0.127198 -0.555561 -0.0103166 -0.706088 -0.718973 -0.1703 -0.256329 0.747352 0.138346 0.481634 0.431969 -0.977093 -0.475906 
-1.04863 -0.0305444 0.0846714 -0.745225 -0.145108 -0.268478 -0.457092 0.472605 0.106608 -0.419306 0.359333 -0.294433 0.433167 -0.302302 0.282969 -0.9494 0.581964 0.874842 0.25205 0.17266 1.84078 -0.62175 -0.286522 -0.43757 -0.838429 0.0264638 0.853041 0.868182 -0.453058 -0.274306 0.847494 0.553069 -0.411156 -0.362929 0.946081 0.824429 -1.02353 1.20562 0.279447 -0.879558 -0.0156823 0.92323 0.964773 -0.909675 -0.603218 0.555394 -0.985146 0.146851 2.23757 0.153021 -0.342686 -0.527955 
0.369335 0.318983 -0.92825 -0.837451 0.238809 -0.826871 0.779336 -0.24212 -0.0646967 0.980657 0.234708 -0.420876 0.0115892 -0.0554949 -0.73233 -0.722946 -1.88012 1.77091 0.101809 -0.220373 0.344733 -0.241673 -1.32911 1.28586 -0.36286 -0.529081 0.507906 2.4603 -1.64327 -0.225972 -0.651862 -0.242971 -0.187242 -1.06789 0.31209 0.449751 0.946559 0.862308 0.123993 -0.68751 -0.391012 -0.135801 -0.736022 -0.667423 0.68318 -0.802123 0.0963118 -0.6333 0.200974 -0.760676 -0.713718 0.129745 
0.407111 -1.34092 0.975599 -0.357667 -0.79103 -0.211025 0.442365 -0.47114 0.52808 0.210988 0.627824 0.816325 -0.0827337 -0.503347 0.0697706 -0.573786 1.24869 1.84494 0.649609 -1.22719 0.0269549 -1.43763 0.642045 1.78338 -0.0701417 -0.0555657 0.78568 0.35703 -0.353986 0.344197 0.319009 0.649957 0.623714 0.426795 0.479047 -0.16378 -0.659587 -0.907512 -0.391802 0.858986 -0.461423 -0.576734 -1.18848 0.465772 -0.877663 -0.857202 0.381156 -0.907753 -0.418273 0.0791023 -0.668321 -0.877922 
-0.266927 0.642901 1.13041 -0.447293 0.637998 -2.51715 -1.40745 1.60003 0.808555 1.37246 -1.15765 -1.08061 -2.36521 0.333349 1.04567 -1.37027 -0.747448 -1.24721 -0.656368 -0.460203 1.02073 0.91048 0.903885 0.39041 -0.464844 0.289029 0.327828 0.644343 -0.262196 -0.178788 0.962018 -0.28755 1.32395 -0.0719821 0.741516 0.0648911 0.00408876 0.751479 -1.09364 -0.599108 0.969698 -0.738136 -0.094746 0.401579 0.683899 -0.269059 1.04695 -0.0395635 0.625564 0.868499 0.939397 0.121069 
-0.283826 -0.830336 0.763832 0.41553 0.152318 -0.243244 -1.63865 -0.169087 -2.72808 -0.766875 3.66155 -0.412592 1.33825 -0.773689 -0.674213 0.311129 0.98071 0.741571 -1.17391 1.51244 0.312195 0.408264 -0.613671 -0.689635 0.610968 0.122225 -0.579462 0.458778 -0.185596 -1.48001 -0.165517 0.528497 -0.620568 -0.0741328 -0.740649 -0.204154 0.12565 -0.085655 -0.888047 1.19351 -0.108593 0.0474512 -0.350283 -0.856335 1.39156 -0.583475 -0.990982 -0.0183123 0.793119 -1.36674 1.41875 0.757781 
0.513187 -0.842864 -0.776155 -0.451671 0.671741 0.292944 -0.661029 0.287594 0.26164 -0.933249 -0.643334 0.602848 -0.0377614 -0.498283 0.670929 -0.879389 0.788247 -0.262085 -0.179423 -0.575056 -0.720471 -0.889311 0.708604 0.763081 0.310129 -0.611961 -0.84036 -0.277888 -0.829829 -0.197406 -0.522976 -0.611638 -0.334795 -1.24062 -0.226732 -0.390274 -0.884295 1.23889 0.69219 -0.0692918 -1.16423 1.53655 -0.413989 0.273142 0.746458 0.34588 -1.11688 1.72518 0.306787 -0.462407 -1.29744 1.8555 
-0.225493 1.4199 0.405443 -0.355818 0.544072 -0.146146 -0.364037 -0.623943 -0.923792 -0.43417 -0.269199 0.582055 -1.53692 0.495567 1.71627 0.638449 -0.590977 -0.965054 0.335681 0.61309 -1.59445 0.56088 -0.873359 -1.12095 0.689742 1.88213 0.203275 0.43091 -1.22259 0.317842 0.0937637 0.908288 -0.167464 0.0809961 -0.245354 0.223258 -0.385041 -0.185648 1.22456 -0.591162 0.72221 -0.687737 -0.281949 0.162198 -0.805538 1.85354 0.574849 -0.183295 -0.125275 -0.0493413 -0.0243873 -0.739598 
-0.518128 0.925498 -0.105347 -0.462023 0.479094 -0.217623 0.984118 -0.125376 -0.229595 -0.520142 -0.0781241 -0.307377 0.696174 0.399667 0.117803 0.37667 -0.612388 0.406701 -0.189978 -1.17602 0.725969 -0.315269 0.881528 0.669922 -0.540362 0.0897869 0.353586 0.913037 -0.780342 0.35386 -0.030862 0.0588996 1.06722 0.0465743 -0.758816 -0.370937 0.0838962 -0.970542 0.610681 0.271462 -0.179778 -0.653743 -0.480951 -0.131042 0.729158 -0.739891 -0.692517 0.999629 0.440832 0.483653 -0.8051 -0.293826 
0.121091 -0.0680839 0.981846 -0.624385 0.160099 -0.391499 0.471193 0.743236 0.852498 0.782259 -0.166496 0.562158 -0.717378 -0.476713 -0.601568 0.277066 0.226662 0.661107 0.743715 0.342604 -0.535377 0.4097 0.180159 -0.679349 0.401605 0.154757 0.321367 0.998806 0.728256 0.807049 -0.0889221 0.609752 0.0272577 -0.841229 0.309075 -0.728592 -1.02252 -1.01002 1.66327 -0.619713 0.916861 0.317528 0.12593 0.230405 0.140011 0.968014 0.878888 0.363946 -0.272811 -0.463581 -0.892641 -0.183029 
-0.405461 -0.0332798 -0.593808 -0.386407 1.19528 -0.267417 0.41891 0.306761 0.339636 -0.900991 0.324947 -0.919446 2.11517 1.4022 0.653034 -0.00708035 -0.3935 0.648549 -0.345103 -0.436106 -0.510629 0.2836 0.776856 -0.496102 -0.036178 0.402465 -0.75899 -0.499301 -0.506232 0.163359 -0.48424 0.931617 -0.402978 0.74736 -0.074027 -0.323911 -1.1768 0.136844 -1.05768 -0.242817 1.28055 -0.349193 -0.106936 -0.101839 1.15728 0.0698155 1.07503 -1.1957 0.573597 0.177741 0.29336 -0.712715 
0.160263 0.207252 0.93849 -0.930152 0.710394 0.491962 0.839959 0.27718 0.301553 -0.169139 -0.871411 1.02119 0.619531 0.176903 -0.307499 -0.0803092 -0.138609 0.566592 -0.813612 0.96357 -1.50844 -0.220693 1.17771 -0.741778 0.687218 -0.954684 -1.02194 0.459795 1.36359 -0.223635 0.350914 -0.599923 -2.50412 0.189985 0.918651 0.0849174 -1.45086 0.490353 0.703049 0.40499 -1.10193 -0.97131 -0.465371 0.978194 1.29408 0.181971 -0.511729 0.226844 -0.309327 0.437224 -0.474729 0.268736 
-0.255904 0.782719 -2.23385 0.00758981 1.40203 1.79949 -0.54958 -0.233984 1.3778 -0.298805 -0.245406 1.12775 0.737715 0.740864 0.440028 0.46716 0.847517 -0.652863 0.248219 1.36789 0.0302143 0.553197 0.8882 0.124276 -0.421928 -0.725892 -0.925513 -0.875025 0.604122 0.862575 -0.445654 0.473616 -1.52362 -0.510509 -1.14292 0.103917 -1.76173 1.38836 -0.194873 -0.122768 0.0984447 -1.13345 0.299042 1.07789 0.0032214 -0.0869465 -1.24644 -0.949926 0.331795 1.09202 -0.5257 1.30552 
-0.755743 1.40125 -0.829506 0.737534 0.532168 0.252997 0.322088 -0.0476609 0.256117 -0.854887 -0.647389 -0.304777 0.234654 -1.10083 0.348395 -0.523274 -0.422051 0.279742 0.76065 -0.630854 -0.390077 -0.0555137 -0.645233 -2.55954 1.02012 0.41418 0.102086 -0.0636296 0.983166 -0.143585 1.54711 -1.27435 0.812503 0.545677 0.222786 -0.00238 1.1932 -0.879896 -0.516998 0.380696 1.24103 1.82408 -1.33265 0.338384 -1.24487 2.18324 0.375161 -0.674933 0.66808 0.915731 -0.603259 0.0550965 
0.997178 -0.915948 -0.308706 -0.365889 6.03909 -0.217018 0.945286 -1.16532 -0.0261694 -0.255668 0.388692 0.125224 -2.61058 0.191815 -0.519903 0.737258 0.697967 -0.154192 1.31999 0.317853 0.94705 -0.790122 -0.339881 -0.0797237 -0.871456 -0.114324 -0.16123 0.745682 0.805667 -0.919089 -0.570576 0.14479 -0.701937 0.176975 0.717005 0.436812 -0.672813 -0.260568 0.220896 -0.147472 -0.237411 0.20612 1.84861 0.0854689 -0.703624 -0.105091 0.778247 -0.505331 -0.581392 -0.111941 0.0705817 -0.685984 
-0.229808 0.178176 2.28518 -0.50867 -3.92901 -1.34977 2.52311 0.347515 0.345538 -0.605949 -1.40248 -0.380241 2.69218 -0.114284 2.44972 0.763286 -0.363317 -0.495449 0.813306 0.0997618 0.491575 -0.390984 -0.229761 -0.0887757 -1.57089 0.677716 1.85509 0.359456 1.06506 0.110937 -1.2111 -1.08055 1.72297 -0.477356 0.749382 0.0259369 -0.391207 -0.627873 -0.966345 0.255009 2.46265 0.218224 -0.500958 0.856728 -0.376434 -0.0667506 -0.820025 -1.00676 0.0139491 -0.784865 -0.249037 -0.203458 
0.916978 1.22654 0.778627 0.345647 -0.622885 0.497121 0.884408 0.76271 0.520985 0.595524 0.160191 0.459948 -0.0475304 0.949592 -0.232371 -0.404405 0.160501 0.621271 -0.782592 0.23837 0.0809991 -0.343922 0.0426437 -0.704773 -1.27109 -0.215889 -0.457472 -0.684483 0.0592473 -0.500474 0.240495 0.624361 0.306298 -0.333615 -0.883446 0.898303 -0.585676 0.0559031 -0.437817 0.828728 -0.250783 -0.801768 0.376454 0.225512 0.222791 0.477781 1.37863 -0.213627 0.306802 -0.907886 0.0091614 -0.958911 
-0.827413 -0.910319 0.442794 -0.988499 0.228721 -0.466473 -0.0370351 -0.179072 0.732227 -1.3956 0.201518 -0.533866 0.857006 0.816268 0.473514 0.639952 -0.120741 0.500831 0.866054 0.248667 0.795038 0.268159 -0.53039 -0.569909 -0.858458 0.352614 0.246846 0.742634 0.108869 0.0506088 0.323745 0.759484 -0.0799332 0.150199 -0.462684 0.743212 -0.0725717 -0.849955 0.363951 0.0542791 -0.297331 0.029662 0.672385 0.652235 0.61514 -0.875079 0.138106 0.696367 -0.779325 0.100997 -0.484053 -0.976677 
-1.37706 -0.244699 -0.726548 0.25943 -0.408613 0.992554 0.603095 0.528989 0.567482 -0.507453 0.122174 -0.0716648 0.308206 0.489058 0.571521 -0.246012 -0.83425 0.798979 0.42705 1.70695 -0.40881 -0.741373 -0.610865 0.154221 -1.29637 1.04451 0.619356 -0.501638 0.838882 0.398057 -0.564694 0.284193 -0.880935 -0.903362 0.15636 0.908036 0.414148 0.26429 0.896301 -0.356256 0.783683 0.353888 0.692839 -0.919423 0.293931 -0.669181 0.859442 -0.351899 -0.542378 -0.3716 -0.297075 -0.057358 
-0.993356 -0.861708 1.28431 -0.651312 -1.56433 -0.843186 0.500576 -0.773072 1.20723 -0.333846 1.96067 0.412837 -0.523455 -0.00123223 -0.271116 0.123039 -0.765168 -0.968531 0.351395 -0.191636 1.70007 0.0724123 0.200539 -0.0793347 -2.21426 -1.5083 0.63749 -0.540188 -0.0507785 -0.985584 -0.994257 -1.0075 0.83779 0.738919 -0.209163 0.0105953 -1.56874 1.33112 0.443247 -1.8643 -1.2868 0.0236852 0.509649 -0.192172 -1.2761 1.06571 -0.40999 -1.10342 -0.177561 0.458625 -0.259152 -1.23902 
-0.255042 0.520847 0.708165 0.169911 -0.00189398 0.293997 0.395577 -0.838582 -0.35895 -0.455535 1.39039 -1.49245 -0.400767 -0.00514502 1.02089 -1.09043 0.0917639 1.93411 -0.630422 0.268091 -1.20335 0.700445 1.22642 -0.622975 -0.86982 1.08528 -0.918943 -0.776661 1.59717 0.349559 -1.95341 -0.264559 0.330216 1.56833 -0.466536 0.4427 1.20613 -0.853343 -0.179546 -0.785195 -1.22624 0.711943 0.413044 -0.949038 -0.550888 0.53945 0.161371 0.216409 -0.812064 -0.828051 0.0107307 -1.12386 
0.200009 -0.781133 0.928033 -0.291104 0.754982 0.488491 0.806539 -0.442236 0.683342 0.568942 -0.379195 -0.953931 -0.777081 -0.412901 -0.551896 0.0444066 -0.671117 -0.0520474 -0.0885066 0.608118 -0.435583 0.700391 0.943529 -0.550941 0.373282 0.50264 0.81398 -0.989358 -0.570581 0.857714 0.396493 -0.571174 -0.68893 0.852484 -0.253768 0.0329076 -0.699479 -0.26277 -0.148892 -0.881943 -0.0299969 -0.516139 0.189869 0.810794 0.689412 -0.471456 0.828107 0.84226 0.675434 0.520122 0.893411 -0.455898 
0.209524 -0.241343 0.511648 0.117167 0.749999 -0.642265 0.697928 0.351114 -0.836459 -1.47978 -0.519367 -0.868571 0.796635 -0.904405 0.865551 -0.0618562 0.281204 1.42829 -0.430987 -0.29316 0.594926 0.0733706 -0.214278 0.140477 -0.676264 1.14876 0.0342859 0.393587 0.300627 -0.589507 1.47109 -0.921303 1.1484 -2.00196 0.710656 0.680222 -0.13307 0.162376 -0.944646 1.39175 0.587312 0.710947 -0.395961 -0.577603 -0.355504 -0.684079 -0.188109 1.39335 -1.94668 -0.0751072 -0.434932 2.0344 
0.886987 -0.0568003 0.0919926 0.0254265 0.709471 -0.183018 -0.27221 -0.492208 -0.493147 0.592407 0.628563 0.253938 -0.871318 -0.0125775 0.50807 -0.0559548 0.506076 0.228274 0.594254 -0.239902 1.17245 0.740512 -0.876904 -0.042499 1.07638 -0.0462047 0.673726 -0.946741 0.932951 -0.42476 -0.776467 -0.317944 -0.140597 2.0147 -0.145918 0.431794 0.64979 -1.21348 -1.00677 0.353394 0.616993 0.0763989 0.822676 0.593171 0.0854907 0.777925 -0.952239 0.474923 0.339917 0.217205 0.836005 -0.308651 
0.579906 -0.792142 -1.18414 0.0298017 -0.682366 0.462038 -0.694259 -0.027039 0.391282 0.273523 -0.639471 -1.26643 -0.5215 0.420371 -0.0750582 0.805217 1.04671 0.708874 -0.748148 -0.0259884 0.265214 1.36298 -0.757265 0.85382 0.152006 -0.024279 1.26661 -0.52229 -0.435237 1.33035 -0.556295 -0.0656181 -1.31117 0.397903 0.149291 0.406418 0.234896 0.0332326 -0.776063 -0.0887316 1.1312 0.18993 -0.614733 0.421037 -0.798045 1.69393 0.550819 -0.210699 -0.686617 0.715677 0.564815 0.936927 
-0.360518 -1.21611 0.41224 0.660716 0.871455 -0.513471 0.0422791 -0.00988861 0.387458 -0.147713 0.339429 0.82734 -0.59004 -0.605976 0.243721 1.58059 -1.1293 2.40223 -0.562559 -0.559247 -0.815445 -1.94806 1.02763 2.54036 -0.199734 0.317959 -0.354871 0.134052 -0.735689 1.49777 -1.11983 -0.734092 -1.69849 0.132241 2.19307 0.0882217 0.0280869 -1.5017 -0.331285 -0.882699 -1.06631 1.86133 -0.0907648 -0.678154 -0.06421 -0.1613 -0.730457 -0.0870764 -0.957691 -0.41313 0.947695 -0.450031 
-0.148839 -0.238406 0.241772 -0.276475 0.384531 -0.907552 0.996692 -0.962953 0.132242 0.346085 -0.13303 -0.382904 -0.0855079 0.126966 -0.858813 -0.869982 -0.953588 0.240129 0.419381 -0.719765 -0.118731 -0.941004 -0.756313 -0.395477 -0.0105338 -0.437499 -0.941431 -0.727823 -1.28981 1.16995 0.0471084 -0.377766 0.312872 0.584763 -0.60437 -0.595521 0.183173 0.895236 0.669878 0.394466 -0.147277 -0.424341 0.806276 0.894608 -0.745588 -0.241238 -0.955641 0.46904 -0.968059 -0.131338 -0.00868338 0.607946 
-0.222642 -0.529756 0.455591 -0.657808 -0.0379212 -0.218119 0.301655 -0.638082 -0.241397 0.0865803 0.264374 -0.279333 -0.00947261 0.420967 0.322576 -0.717462 -0.261641 1.15069 -1.40204 -0.448932 0.291127 -0.265084 1.11888 0.338519 0.310447 -0.0707363 -0.701198 0.914422 0.205147 -0.590619 0.463389 -0.646475 0.14579 -0.0431235 -0.690872 -0.0247947 0.7276 0.439583 0.56867 -0.147915 -2.09812 1.17395 -0.47156 -0.197045 0.761511 -1.28924 -0.152508 0.131586 -0.299444 0.832993 -0.10029 0.700265 
0.858681 0.0892547 0.124744 0.864216 -0.427448 -0.817135 -0.850143 1.04056 0.322042 0.424632 0.690127 -0.776879 -0.986767 -0.669594 -0.206333 -0.765214 0.925829 1.32761 -0.311952 -0.178226 -0.779777 -0.731968 -0.986629 -0.535148 0.515659 0.965869 0.427854 -0.299392 0.0663936 -0.0805264 -0.440877 -0.5261 0.208736 0.431509 -0.667562 0.604716 -0.911027 -0.651157 -0.452366 -0.510179 -0.302997 0.224899 -0.0923742 0.242345 1.1249 0.789399 0.505888 0.0691209 -0.309583 0.633512 -1.09193 0.44977 
-0.160661 -0.148553 0.186617 0.235505 -1.9376 -0.0258218 -0.83121 -0.779264 0.25091 -0.0245431 0.051087 0.544703 -1.57848 0.887489 -0.620943 -0.331806 -0.179209 -0.524628 0.146896 0.291531 0.482108 -0.170888 -0.0465548 -1.02148 -0.214658 -0.643786 0.266978 0.0114093 0.0396613 0.493488 -0.286208 0.117565 -1.22905 -0.159221 0.205022 0.105508 0.0471735 0.842727 -1.46902 0.168938 -0.167387 -0.146556 -0.217479 0.611481 -0.0894378 0.246056 0.675315 0.0984283 -0.23578 -0.210012 0.142644 -0.370324 
0.536643 0.551685 0.293669 1.33721 -1.33897 -0.0476889 -0.894464 -0.356739 0.244136 0.198701 0.547886 -0.453595 -0.766194 -0.644405 -0.898122 -0.728372 -0.75902 -0.334144 0.0556216 -0.875194 0.630441 -0.369547 0.116019 0.377346 -0.65297 -0.429363 -0.747947 -0.251529 0.449549 0.952655 0.656135 -0.923279 0.121807 0.260549 -0.508484 0.19571 0.692239 -0.76012 -0.315762 -0.0732051 0.16679 -0.841164 -0.672005 0.964744 0.729973 0.5602 0.701006 0.226039 -0.525745 0.287008 -0.928165 0.217339 
-1.0469 -0.957716 0.371294 0.60937 0.185701 -0.46445 -0.700844 -0.857134 0.363272 -1.19258 -0.723954 0.934669 -0.652964 2.54022 -0.0293744 0.46837 -0.602795 0.149479 -0.00719507 -0.865614 0.0594476 -1.59005 -0.273796 -1.64151 0.471827 -0.294115 0.307801 0.290809 -0.331343 -2.00561 -1.29649 0.411848 -0.92711 1.04529 -0.00827589 1.67295 0.699453 -0.383442 -0.0874425 -0.951315 -1.54868 0.302999 -0.399975 0.593167 -0.557009 -0.1725 1.77314 -1.54579 -0.066249 -0.20958 2.06929 -1.55427 
-0.115212 -0.387988 0.345292 -1.04812 0.437462 0.704204 -0.492366 -0.651777 -1.24483 -0.343943 -0.58649 -0.73576 -0.441597 -0.144263 0.886123 -0.350108 -0.00383177 0.578813 -0.768627 -0.676973 -0.801036 -0.339158 1.01781 0.296698 -0.672463 -0.652496 0.790654 -0.171638 -0.241767 -0.15985 -0.896225 -0.645075 0.481388 0.112408 -0.261718 0.278785 -0.032932 -0.41167 -0.199555 -0.219425 0.411398 0.395197 1.04364 -0.0950967 0.617423 -0.671935 -1.34706 0.728365 0.38343 0.0975783 0.220589 -0.626538 
-0.435758 -1.19447 0.580778 -0.906901 1.03773 -0.753797 2.4876 -0.267577 0.293185 -1.13945 -1.34115 -2.09554 0.663334 0.134092 -0.0306699 -1.70887 -0.357654 0.303648 -0.472166 1.27732 -1.15818 1.82052 1.15219 0.662102 1.77266 0.0549531 -1.01976 -0.436081 -0.469157 -0.249618 0.765101 -0.516984 -1.61004 0.458859 -0.612421 0.0753828 -0.149837 0.236901 -0.0881005 -0.557495 -0.841584 -0.591012 1.14574 -0.590204 1.45074 -0.741203 -1.71486 0.747982 0.044035 -0.599236 1.53134 0.168692 
0.402298 -0.103433 -0.822043 -0.457431 -0.0755059 -0.1691 0.97854 0.788928 -0.300816 -0.666058 -0.585997 0.326636 0.845756 0.418668 -0.461304 -0.624825 0.40054 0.610886 0.284963 -0.307162 0.411212 -0.0741785 -0.39885 -0.392286 0.965909 -0.303895 -0.881702 -0.179637 -0.176606 -0.30295 -0.674568 -0.331911 -0.623892 0.766238 -0.757194 -0.0534861 -0.012621 -0.454102 0.498597 0.829071 0.716106 0.860227 -0.31392 0.883671 -0.512937 0.987716 -0.910793 0.200781 0.548096 0.771505 -0.509723 -0.324009 
0.78174 -0.490921 0.83388 -0.276877 0.853901 0.182483 -0.20217 -0.0867439 0.0785207 0.0744762 -0.308139 0.71118 -0.240322 0.60819 -0.323222 0.109017 0.352762 -0.0593106 -0.758859 0.174396 0.570922 -0.961817 -0.771328 0.653034 0.169055 0.342911 -0.0749415 0.287632 -0.41275 -0.00810305 1.27223 -0.216737 0.283083 0.456488 -0.0525313 -0.885654 -0.89959 -0.948435 -1.26572 -0.108432 1.05688 1.05859 -1.96394 0.215734 0.109301 -0.209129 -0.418819 0.997865 -0.826734 0.876477 -0.305684 -0.650891 
-0.777517 -0.855393 -0.330964 -0.169094 -0.313348 -0.883102 0.209394 -0.92119 -0.993376 0.268373 -0.278694 -0.806564 -0.783707 -0.199794 -0.366212 0.821525 0.162264 0.498954 -0.0365272 0.351029 -0.787541 -0.505976 -0.542792 -0.274986 -0.585603 1.58844 0.14433 -0.985477 0.0244668 -0.188721 -0.885828 2.69657 -0.479588 -0.346212 2.44471 1.50224 -0.0603484 -0.812263 1.07087 -0.193145 -0.215262 -1.01306 1.0338 0.170509 -0.665347 0.639291 -0.125173 1.00091 0.828118 0.62831 -0.182897 -0.562823 
-0.766392 0.386057 -0.181545 -0.505144 0.751816 -0.422055 -0.208807 0.449906 0.106593 0.58311 0.2728 -0.514527 1.20104 0.598849 0.761926 0.948321 -0.688791 0.163223 -0.637236 0.921034 -0.287293 -0.3574 -0.0624426 -0.290055 0.374504 -1.0289 0.891818 0.421369 0.611601 0.239934 -0.257865 0.070016 1.05734 -1.05666 -0.00787567 0.967571 -0.763277 -0.853306 0.739033 0.289786 -0.0966684 0.545165 0.54913 -0.748461 -0.69886 0.0943029 0.601645 -0.371194 -0.568546 0.0363737 0.643878 0.115923 
0.131575 -1.13297 -1.09 -0.717591 -2.10575 0.907582 0.773348 0.41011 -0.834486 2.42671 -0.0816725 0.771095 -0.421446 -1.01586 -0.569362 -0.0701967 -0.897349 -0.342346 -0.339278 -0.141217 -0.685178 -1.74949 1.35711 -0.27509 -0.791408 -0.106554 -0.699026 -0.5566 0.179777 -0.31779 -0.822986 1.36762 0.866226 0.613821 0.705584 0.0549462 0.354367 -0.410988 0.569294 -0.0403787 -0.0597031 1.03202 0.790985 0.985137 0.247643 0.185128 0.377009 -0.792482 0.771019 -0.0161756 0.0515316 0.644215 
0.213174 0.272715 0.439323 0.125799 -0.445392 -0.497974 0.0515636 -0.651073 0.08651 0.798954 -0.111765 0.462777 0.195785 -0.883238 0.0717682 -0.452371 -1.54727 2.31392 0.103344 0.220187 0.612719 -0.102481 -0.131826 -0.107916 0.0177635 -1.1122 -0.531264 2.17952 -0.00850101 0.0137048 0.672984 -0.264212 0.333882 0.37163 0.665886 -0.807361 -0.90362 -0.704889 0.689899 -0.709938 -0.38998 -0.256663 0.0945281 0.646466 -0.205066 -0.308797 -1.63517 2.76113 0.906642 0.863707 0.0161311 -0.807682 
-0.453325 0.475533 -0.234808 0.325526 -1.20582 0.65497 0.746539 0.532829 0.386784 1.36416 0.611162 -0.51336 -1.53748 0.655901 0.760659 0.474553 0.889904 -0.145291 0.13863 0.0717561 1.14737 0.755692 0.287817 -0.668959 0.919137 0.479331 0.457615 -0.542623 -0.547477 -0.225466 -0.395289 -0.0171028 -0.244143 -0.0115583 0.294352 0.572002 0.408769 -0.82579 -0.324209 0.940642 -0.656959 -1.28741 0.805871 0.23196 0.701379 -0.0210944 -0.528689 -0.559878 0.899158 0.958969 -0.783726 -0.85392 
0.27651 0.949332 -0.629234 -0.59883 0.157616 0.481594 -0.723784 -0.86954 0.832729 -0.684124 -0.101088 0.291404 -0.905468 -0.691215 0.949771 0.353598 -0.37199 0.90425 -0.0601491 1.7115e-05 -0.0330845 -0.202089 -0.180576 1.48028 -0.550798 -0.764736 1.07749 -0.457976 0.00103616 0.725792 0.0137272 0.274707 0.46314 -0.137499 -0.458899 0.0540872 -0.163603 0.62314 -0.439456 0.27817 -0.0167845 0.348988 0.291706 0.217657 -0.0948843 -0.968811 -0.00310761 0.0269191 -0.589077 0.738441 0.886399 0.0781688 
-0.915614 0.22643 0.330922 -0.314658 -0.63105 0.594376 -0.068922 -0.460926 0.153052 -0.814941 0.409082 0.0510559 -0.548218 0.0538501 0.317683 0.143346 0.987887 -0.0528279 0.563867 0.756887 0.488492 -0.22655 0.195674 0.772752 0.147162 -0.805204 -0.264268 0.0618682 0.0434511 -0.83163 -0.726985 -0.592215 0.555642 -0.53279 -0.983015 0.120199 -0.587367 -0.0537514 -0.672518 0.875978 0.580584 0.585118 0.575537 -0.256802 -0.335584 -0.981866 -0.502586 -0.972422 -0.823078 0.412925 -0.0749796 0.463558 
1.00703 0.145933 -0.313493 -0.0495033 0.115528 -0.331186 0.80113 0.480878 0.49841 0.36014 -1.03516 0.572915 0.0832082 -0.022309 0.169286 0.649413 -0.737662 1.32717 -0.762931 -0.989016 -0.772354 -0.911039 0.918251 0.567365 -0.450987 0.02983 -0.205814 -0.575289 0.655283 -1.09473 0.4448 0.190517 0.35615 0.184597 -0.898712 -0.325119 0.383764 -0.33413 -0.827675 0.23945 0.341961 -0.227083 0.168968 0.701817 -0.0712902 0.847168 -0.79509 0.240153 0.501156 0.865722 -0.231981 -0.0471949 
0.42943 0.748574 0.0436928 1.12276 0.223173 -0.492936 -0.611263 0.704952 0.79263 -0.558123 0.014628 -0.416957 0.613002 -0.252913 -0.44707 -0.37985 0.552616 0.352541 0.516594 -1.15326 0.195561 -0.148889 -1.21984 0.180644 0.346908 -0.721135 0.446047 0.712714 0.189104 1.08446 0.183051 0.0158185 -0.315394 -0.299703 0.0403085 -0.432083 -0.843431 1.04198 0.330117 -0.556136 0.199623 0.476091 -0.345989 -0.725191 -0.254552 -0.804671 -0.698763 0.0248668 1.77675 1.27462 -1.20228 -0.612041 
1.2831 -0.13052 -0.23016 -0.447985 -0.165704 -0.0552807 0.575315 -0.777449 -0.511256 -0.582309 -0.905132 -0.471171 0.280239 -0.858187 0.0284618 0.602942 0.223361 -0.499532 -0.498277 1.24311 -0.416425 -0.0614249 -0.339994 0.668719 0.0598246 2.1248 0.0548536 -0.652136 0.0696184 -1.02952 0.490625 0.222142 0.000523886 -0.393089 -0.223689 1.43539 -1.6111 1.86799 1.16344 -0.155297 -0.0819829 -0.412839 -0.114408 -0.634758 -0.43418 -0.464037 0.287271 0.650649 -0.99782 -0.378395 -0.717456 1.76451 
-0.375862 0.0588011 0.0279087 0.407133 -0.312092 -0.263874 -0.110547 0.170308 -1.02253 -0.219074 -0.126015 -0.759881 -0.821077 1.55956 0.35163 0.74334 -0.570001 -0.974223 0.554709 3.00337 -0.567922 0.569886 0.250628 0.505365 0.204303 0.296234 -0.0136426 -0.535513 -0.0897369 -0.392982 -0.859617 -0.691288 0.221228 -1.00009 2.0565 -1.54107 1.93182 -0.57299 0.776982 0.245049 1.69667 0.581737 0.682741 -0.315923 -0.761569 0.698758 -1.39906 -1.15823 1.31113 -0.359562 1.71704 -0.609613 
-0.687524 -1.31755 0.10048 -0.383269 0.717061 -0.667154 0.385666 -0.726939 0.119138 0.764618 0.0459085 -0.807359 0.831266 -0.705442 0.445712 -0.884712 -0.415793 0.528934 0.934616 0.880102 -0.0867813 0.496246 -0.314638 -0.764269 0.0155404 -0.489683 0.319901 0.29032 -0.531221 -0.0449779 0.0786859 0.999394 -0.739995 -0.116877 0.706279 0.72531 0.731799 0.758733 0.839778 0.0983364 0.747728 -0.61198 0.309642 -0.180513 0.903061 0.686282 -0.471346 0.0402004 0.710379 -0.0547754 -0.794426 -0.265775 
-0.756402 -0.148833 -0.988213 -0.410868 0.871705 0.89046 -0.876921 -0.70753 -0.40849 0.508489 -0.824459 0.553393 0.038811 0.224509 -0.281817 -1.12065 0.345023 -0.489393 -0.238217 0.0160463 -0.131543 -0.323607 1.38122 -0.0826512 -0.106806 -0.26831 0.00219027 -0.468854 0.582944 -0.544948 -0.650548 -0.544468 -0.578251 2.55466 -0.780762 0.586243 0.016165 -0.367414 0.228563 0.800928 0.243055 0.247841 -0.426716 0.363147 -0.486843 -0.0689692 -0.816902 0.732347 0.503317 -0.323857 -0.294583 -0.755954 
-0.244126 -0.154704 0.158064 0.882443 -1.10252 -0.0932024 0.160422 -0.776111 0.063129 0.316564 -1.86144 1.1738 2.3749 0.678089 -0.10328 -1.29544 2.40235 -0.814785 0.971656 -1.50908 -0.299787 -1.21641 0.848864 1.43548 -0.695377 -0.759018 0.696292 -0.352786 0.366302 0.54204 1.36725 1.25981 0.679642 1.03579 -2.81585 1.47717 -0.361214 -0.542181 -0.236379 1.66996 1.01836 0.322056 -0.543334 -0.473837 0.26389 -0.538392 -1.2459 0.0191489 -0.380309 -0.92675 -1.09091 1.53617 
-1.09575 0.785444 -0.608017 0.46946 0.0217605 0.516879 0.444687 0.0738193 -0.501308 -0.999135 -0.201933 -1.11762 0.0306883 0.0653647 -0.115988 -0.298304 -0.476603 -0.341139 -1.30999 -0.133567 0.723542 0.637823 -0.566843 0.564731 -0.396394 0.822739 0.000712138 -0.442248 0.570091 0.0391495 0.711185 -0.0532137 -0.534197 -0.309861 -0.749419 -0.888094 -0.266931 -0.544943 0.110124 0.751168 0.427241 0.202211 -0.0703916 0.85562 0.585157 0.956519 -0.671026 -0.388562 -0.829341 -0.421236 -0.642103 -0.541954 
-0.0946305 -0.600005 -0.905404 0.108347 0.493355 0.210177 -0.10517 0.457952 -1.12441 -0.0192323 -0.421725 -0.137396 -0.151382 -0.66791 -0.308989 -0.779117 -0.202499 0.405697 -1.30732 -0.498814 -0.118213 0.341636 0.273758 0.856699 -0.724692 -0.693387 1.09568 0.944129 0.652319 0.127391 1.28053 -0.643918 -0.406464 -0.769539 -0.85072 -0.729056 0.034381 -0.875913 0.850337 -0.502348 0.361441 0.342379 0.582438 -0.715631 -0.850473 -0.311898 0.720354 0.210165 -2.49253 0.941871 -0.346181 0.0482321 
0.108035 -0.63474 1.55211 1.35512 -1.3498 0.436314 -0.0155441 0.633888 -0.226203 0.250267 1.59874 -0.0179846 -2.11093 0.0783723 -0.324227 -0.132548 -0.811104 -0.357189 0.0543046 -1.30431 0.0837601 0.332461 -0.348337 0.14714 1.21471 -0.296834 0.795531 -0.0676975 -0.0429315 0.817389 -0.285808 -0.52539 0.869526 -0.570642 -0.910986 0.110132 0.150176 0.47969 0.282012 -0.184006 0.894236 0.796376 0.709121 -1.42102 -0.000838034 -0.435403 0.867838 -0.630157 0.0841552 0.820275 0.250786 0.0255911 
0.505222 0.0819462 1.16663 0.474667 0.913772 -0.956703 1.39517 -1.04307 0.198187 0.208898 0.728144 -1.46918 0.2635 -0.858986 1.37443 -1.83591 0.42727 0.439359 -0.0941024 0.600168 -1.45772 -1.18969 -0.0579631 -0.329622 -0.0505112 0.13332 -1.2794 -0.900582 0.105443 0.281183 -0.715829 0.173281 1.52345 0.475803 -0.300961 -0.176409 0.184653 -0.867492 -0.852603 -1.88317 -0.750044 0.308392 0.296579 -1.23164 0.922205 -0.177537 2.51694 -0.0972092 -0.993248 -0.557357 -0.792496 1.1331 
-0.13471 -0.431404 -0.491992 -0.295415 0.265283 1.03857 -1.33247 1.17494 -0.759753 1.31748 0.243192 0.779854 -0.0672317 -0.291627 -0.591933 0.0266529 0.938291 0.363172 0.75539 -0.457428 -0.631773 -0.519963 -0.0803328 0.851847 -0.688792 0.658698 -0.673449 -0.509755 0.344357 0.182443 0.655883 -0.953478 0.158972 0.435454 0.176291 0.891252 -0.171555 0.625154 -0.632608 0.0547733 0.93255 -0.478439 0.219826 0.441314 0.066987 0.688034 -0.637332 0.369351 -0.0244799 0.840907 -0.175016 -0.996943 
1.20184 0.612678 -0.00211058 -1.04898 -0.103893 2.63661 0.395619 -0.490561 -1.47319 2.15511 -0.735496 -0.965674 0.330148 0.0444576 0.372147 0.522185 0.29697 0.775178 -0.378895 -0.00870767 -0.332356 -0.3265 0.550216 -0.233814 -0.481617 0.759209 -0.367706 0.410148 0.421601 0.288245 -0.199329 -0.534371 0.116993 -0.806471 -0.50619 -0.143281 -0.929569 -1.07117 0.940871 0.27556 0.770063 0.302326 -0.125966 0.539323 0.410451 -0.625472 0.503441 0.334184 0.488412 -0.178476 0.387665 0.589378 
0.664039 -0.270793 0.206649 -0.447558 0.367757 0.283466 -0.81598 -0.660171 0.206039 0.866415 -0.017478 -1.30056 -0.255912 0.119394 -0.931234 -0.219624 0.957275 -0.675093 -0.701884 -0.295321 0.00342228 -0.862362 -0.689802 -1.00852 -0.23832 0.672098 0.0587932 0.312785 -0.671201 0.482709 -0.940103 -0.0212859 0.254948 0.055914 0.703506 0.826498 0.117914 0.577533 2.02348 -0.602701 0.82069 1.10773 -0.566825 0.555434 -0.269978 -0.323986 -0.0363582 0.26149 0.105394 0.901756 -0.805631 -0.36113 
-0.158522 1.22848 0.228913 0.641953 -0.464196 -0.470015 0.566588 -0.0763066 -0.17605 0.188905 -0.442284 0.798203 -0.259607 0.425939 -0.907021 -0.937904 -0.911973 0.471465 -0.634124 0.329009 -0.824132 -0.852831 -0.930273 -0.894805 -0.981316 -0.953503 0.409265 -0.804859 0.0764899 -0.689076 0.597531 0.0962807 -0.671814 -0.223903 0.0233689 -0.0979123 -0.651047 0.594975 0.821496 0.416055 0.382517 0.0836878 0.641818 0.59839 0.945863 0.159854 -0.427151 -0.391595 0.226295 0.591862 -0.183352 -0.353349 
0.900207 -0.0828089 0.319258 -0.0106875 -0.763583 -0.39615 0.592564 0.953111 -0.447159 0.836793 -0.91797 -0.549169 -0.593448 0.167954 0.620122 -0.986221 -0.128198 -0.000694638 0.302761 -0.702114 -0.213213 0.892258 0.37106 0.03577 0.726827 -0.418969 -0.353701 -0.492794 1.24742 0.945232 0.499391 -0.122767 -0.239369 -0.562885 -1.26955 -0.455576 -0.935777 -0.861708 0.526756 0.119132 0.950227 -0.360447 -0.932413 -0.649473 0.903568 0.0780118 -0.100015 0.260911 -0.31778 0.429568 0.728238 -0.223398 
-0.522201 0.0577366 0.21429 -0.0511876 1.386 0.0246037 0.13154 -0.640848 0.13387 0.0583995 -0.330696 -0.0535693 -0.195146 -0.113628 -0.468828 0.396664 0.823746 -1.07949 1.05949 0.387848 0.58038 0.216419 -0.793619 -0.87858 -1.03093 1.33072 -0.575038 -0.262188 -1.08619 2.05425 -0.402457 -0.341037 0.231245 0.226235 0.659187 0.028527 0.484333 0.374625 -0.955057 0.770616 -0.544427 0.0745247 -0.18912 0.833412 -0.94386 0.543143 -0.265684 -0.0907871 -0.324967 0.662037 -0.718687 0.164761 
0.470419 0.784489 -0.319419 -1.62707 0.469742 -0.129553 -0.212072 0.143461 -0.102888 -0.630044 0.248553 -1.64568 0.151096 0.921208 -0.500059 -0.625036 -0.478152 -0.908685 -0.0844954 -0.635967 1.00117 1.22378 -0.0146322 -0.467792 0.0374068 0.529339 0.221764 -0.186664 -0.687802 -0.948171 -1.22204 0.370747 -0.549091 -0.702372 0.523379 0.527353 -0.976832 -0.786866 -0.969689 0.274728 -0.14032 -0.383435 -0.240201 1.73333 0.865003 0.367187 0.164292 -0.419235 0.882949 0.172045 -0.704564 0.412628 
-0.43676 -0.00241165 -0.535594 -0.0769786 0.663039 1.16917 -0.764739 -0.830546 0.823099 0.0923957 -0.447564 -0.37752 -0.416304 -0.648548 0.704108 -0.107871 -0.602626 -0.467981 0.552224 0.770761 -0.365574 -0.22994 0.350439 0.633253 0.848706 1.47374 0.567112 0.586192 -0.585156 0.106912 0.994929 -0.1394 0.628842 0.433621 -1.08417 0.896128 -0.466232 1.18497 -0.116008 0.704035 0.312999 -1.01055 -0.979837 -0.768205 0.283588 0.470192 -1.54322 2.81104 0.799256 -1.23744 -0.225983 0.0926603 
0.22848 -0.217136 -6.23908 0.275105 0.295945 0.824155 2.68575 0.799425 2.63226 0.0299525 -0.996914 0.614592 1.75035 -0.430113 -0.652057 0.137029 0.2348 1.32164 -0.925089 0.379682 -0.0368342 -0.325351 -0.406866 1.14805 0.726381 -0.927571 0.548775 -1.35049 -0.489934 1.55925 0.555953 0.542675 -0.770978 0.259795 -0.986344 0.879577 -0.47929 0.259631 -0.360565 0.255295 0.753149 -0.0875188 -0.899837 -0.599896 -1.0428 -1.76295 1.03487 0.646486 -0.383009 -0.95898 -0.375858 1.21417 
0.0420874 -0.518295 -0.196518 0.526921 -0.330683 0.296191 0.209054 1.56868 -1.14906 0.689833 0.269919 1.96612 0.588616 -1.46965 1.31165 -0.174591 0.543501 0.248364 -0.284715 0.0416058 -0.244506 -0.413657 1.45384 0.0896183 -1.6528 -0.987429 1.9713 -0.760707 0.554692 -0.0365263 -0.554939 -0.992918 1.04212 1.90155 0.176747 0.401416 -0.433997 0.229155 -0.644042 -0.883987 -0.873457 -1.44959 -0.930278 0.56824 -0.642199 1.51148 -0.0178708 0.36201 -0.848924 0.565309 -0.473577 -0.66986 
-0.633495 -0.662671 -0.297509 0.091796 1.07297 -0.538439 0.21598 -0.662257 -0.849812 -0.269167 -0.289656 1.5399 -0.235833 -0.635695 -0.341567 0.62793 0.118167 -1.01571 0.842311 -1.07249 0.0751508 0.303419 -0.59098 0.511941 -1.70196 -0.0566361 0.21399 0.459015 -0.371004 0.627479 0.00818121 0.834259 -0.550461 0.114973 -1.27935 -0.629081 0.125271 0.507357 0.437828 0.349952 -0.348217 0.800764 -0.00317261 0.830675 -1.23613 0.980899 0.488715 -0.309629 1.22064 -1.59136 1.02093 0.879098 
-0.777103 0.227743 0.0551116 0.965859 0.306834 -0.11613 -1.18887 0.303461 -0.435473 -0.58073 -0.239262 0.00615237 -0.0267079 -0.470078 0.38498 -0.615173 0.488624 -0.194121 0.95445 0.351061 0.337653 0.0263964 0.103845 -0.325855 -0.840332 -0.10313 -0.479827 1.17617 -0.137706 1.71188 0.722014 0.245452 -0.767543 -0.945518 -0.205624 -1.4355 2.59858 -0.201943 0.790038 0.0139728 -0.679848 1.43108 0.301754 0.174832 0.391728 -0.0173121 0.36692 -0.0866938 -0.700735 -0.328667 -0.631063 0.198282 
-0.76349 0.179069 0.233724 0.231983 -1.79664 -0.493657 -0.52956 -0.802991 -1.46255 0.155403 -0.942295 -0.532702 5.13117 -0.272498 0.532053 -0.047244 -1.58642 -0.533602 -0.192955 3.12577 -1.05414 0.272902 -1.11309 -0.0554408 -0.698505 0.0509151 -1.29324 -0.847234 4.57232 0.0320238 0.82783 -0.82163 -0.797168 -1.05862 -0.0735602 0.101656 0.263162 -0.646011 -0.150534 0.346947 -1.44656 0.23392 -0.431502 -0.699854 1.63236 -0.335977 -0.905928 0.703896 -0.603274 -0.695023 0.0516598 0.85913 
0.411527 -1.2663 -0.914104 -0.641432 -1.2476 0.558219 -0.674338 1.84202 -0.108249 -0.712175 0.870516 -0.26289 0.850868 0.444625 -0.465926 0.636613 -0.308905 0.0952074 -0.850285 0.83234 0.980319 0.734773 0.643045 0.378328 0.383428 0.299904 -0.750161 0.697359 -0.836557 0.0610146 0.66214 -0.00720679 0.329908 -0.942771 1.03066 0.439978 -0.421912 -0.46186 0.183827 0.225223 -0.337745 0.441465 1.00338 0.355417 0.179397 0.453799 0.000503256 1.11541 0.629811 0.869098 -0.925071 0.727202 
0.220096 -0.114119 -0.783815 0.788048 0.37445 -0.0632648 0.344345 -0.796253 -0.493892 -0.560326 -1.04627 0.234499 -0.621204 0.578221 -0.586984 -0.866646 0.343175 -0.846994 0.444124 0.540082 -0.613115 0.00183082 -1.34594 -1.54872 1.45931 0.440656 -0.614833 0.993334 -0.277216 -1.66152 1.67564 0.862286 1.02498 0.866786 1.12753 0.975148 0.0777885 -0.74515 0.666771 -1.69384 0.71664 0.932482 -0.813481 -1.02567 1.17929 1.00902 -0.217056 -0.524403 0.680294 -1.02452 -0.138813 -0.0447345 
0.907227 -1.04927 -0.335476 -0.878573 -0.338349 0.295598 -0.416565 -0.724195 0.580826 -0.165839 -0.764491 -0.902652 0.217566 1.92572 0.319148 -1.03341 -0.345244 -0.0774806 -0.845916 0.298345 -0.126077 -0.0192888 -0.813876 0.055736 0.405921 -0.238437 0.362385 0.218806 -0.649087 0.589456 -0.675983 -1.46679 -0.798693 -0.13956 1.5356 -0.770263 1.27201 -0.48295 -0.597589 -1.26141 0.767509 -0.264914 0.625356 0.139346 0.207831 0.503513 -0.482747 -1.53106 0.196007 1.61425 0.212776 0.743986 
-0.581761 0.324513 -0.0077076 -0.0485631 -0.187043 -0.894063 0.798715 0.30667 0.636569 -0.796831 -0.0521648 0.150154 0.199406 -0.850381 1.01054 0.0301724 -0.19397 0.0126002 0.254143 0.392413 -0.868813 -0.522956 -0.761922 1.12774 0.536632 0.0937422 0.0777511 -1.56602 0.606301 1.74162 -0.613868 -0.510731 0.206251 -0.656426 0.0592618 0.162182 0.71232 -0.491027 0.0896588 0.701404 -0.519031 0.206482 -0.274722 0.700619 -0.834598 0.0397906 0.247451 -0.000515295 0.409593 1.7929 0.0375635 -0.376341 
0.0811984 0.890147 -0.161362 0.653697 0.502248 -0.930357 0.217998 0.0291878 0.865923 0.566189 0.790124 0.587174 -1.02902 0.715328 -0.839646 0.44125 0.291901 0.586893 -0.0726777 0.443538 -0.761162 0.676977 -0.249598 0.705843 0.127479 0.495937 -0.283399 -0.928855 0.00824556 -0.171175 0.804648 0.567682 -0.614738 0.68725 0.191154 -0.379907 -0.969441 -0.655565 0.92469 0.482269 0.116424 -0.102251 -0.0609621 -0.206086 -0.610255 0.984382 0.968522 -0.439504 -0.616253 -0.12625 0.824578 -0.890456 
-0.133734 -0.194176 -0.928594 0.154474 -0.881156 -0.105876 0.778026 -0.102148 -0.981176 0.779949 -0.340322 -0.611488 -0.118391 0.68324 0.703601 0.376659 -0.138628 0.306079 -0.806551 0.495068 -0.736607 0.411408 0.489276 -0.631742 0.0468967 -0.370576 -0.59497 0.418843 1.29057 -0.164281 0.283195 -0.310974 -1.14134 -0.666193 0.480942 0.498864 0.892318 -0.210928 -0.166971 -0.727124 0.262735 1.34147 0.81313 0.590462 -1.00996 -0.744824 -0.706672 1.21998 0.937955 -0.931082 0.728921 0.845599 
-0.28211 -0.810539 -0.445341 -0.560884 -0.867189 0.698171 -0.78387 -0.571014 0.378407 0.229221 0.130356 0.106474 -0.326661 0.221796 -0.597644 -0.00535416 -0.794574 -0.56499 0.701638 -0.656355 -0.727981 -0.173101 0.969607 0.759138 0.0817489 -0.947496 -0.442283 0.208087 -0.320294 -0.741847 0.521876 -0.189263 -0.3574 0.516306 -0.594698 0.747012 0.231621 0.447807 0.833891 0.514081 -0.695592 -0.77595 -0.194301 -0.303377 0.839658 0.471506 0.194304 -0.89765 0.995218 0.329162 0.331015 -0.150004 
-0.582123 -0.922437 0.702322 -1.03432 0.48128 -1.58484 -0.300088 -0.207206 0.412743 -1.89103 0.594123 -1.9194 0.695497 -2.33408 -0.685531 0.557352 -0.640195 1.00673 -1.12925 -0.409916 1.24362 0.616948 1.53605 1.16577 -0.486973 -1.38348 0.14785 -0.521689 0.537717 -1.02994 -1.91233 0.204772 0.32095 1.4585 -0.140692 -0.529551 -0.104068 -2.34339 -0.174929 0.688546 1.66628 -0.449693 0.0451716 0.792999 -1.12122 0.406053 0.422659 -1.29121 0.880421 0.365185 1.91445 -1.34035 
-0.761051 -0.626508 -0.205248 0.526614 -0.577847 0.0606942 -0.403497 -0.643582 -0.127809 0.143017 -0.584062 0.254026 -1.14347 -0.463516 -0.584303 -1.20014 0.220033 -0.563001 0.154654 0.0152981 0.640647 -0.595485 -0.610066 -0.686406 0.558612 0.32401 1.16575 -0.326463 0.400581 -0.200272 1.36043 -0.481858 -0.0453655 -0.0977311 -0.403768 -0.767078 -0.274129 -0.46937 -0.49346 -0.364049 -0.115717 -0.788518 0.962873 0.905744 -0.446059 0.278152 0.767529 0.0969625 1.01511 0.216574 0.101178 -0.371979 
-0.0290746 -0.713413 0.593663 0.35466 0.815027 -0.843998 0.0644693 -0.891199 -0.479295 0.11359 -0.712047 -0.648929 0.191085 -1.07228 -0.466068 0.960253 0.91226 -0.194358 -0.10858 -1.30975 1.37026 0.329299 0.693325 -1.0206 0.822973 0.512483 1.22889 -0.319236 1.00051 -1.21216 -1.75 -0.888335 1.09558 -1.49978 -0.933817 -1.07739 -0.118048 0.0737737 -0.161504 0.330852 0.68114 -0.73776 -0.374193 -0.176696 0.765556 -0.221387 0.109664 -0.963732 -0.930942 -0.269876 1.19241 -0.648824 
0.349298 -0.805918 0.765256 0.849713 -0.352459 -0.130413 -0.823632 0.473685 0.481991 0.762403 -0.136144 0.334462 0.785509 -0.381538 -0.675233 -0.208448 -1.77972 -1.38089 -0.0644774 1.23138 -0.483405 2.93621 -0.404455 -0.499 -0.182925 0.215002 -0.734414 -1.0251 0.734476 0.1517 0.107726 -2.12996 0.343618 1.06155 -0.150533 -0.759425 -0.867649 1.59366 -0.905376 2.27583 0.753532 -0.744356 0.717578 0.73288 -0.888676 0.104387 0.0616016 0.4783 2.41746 0.154923 0.62964 0.631199 
-1.31521 0.914665 -0.756917 0.0553008 0.527049 -0.00846858 -0.500039 0.0747504 -0.875303 0.0375051 1.27397 -1.11364 0.721569 0.892403 0.227888 0.667433 -0.343444 -0.502664 0.454352 -0.737248 0.424501 0.59039 0.335457 -0.837807 1.4969 0.0381985 -0.57081 0.0691262 -0.0967932 0.488127 1.05739 -1.4748 1.82034 0.326105 -0.742129 -0.658913 -1.23856 -0.831162 -1.06112 0.58392 0.234234 0.393975 0.835017 -0.23497 -0.535299 -0.738205 -0.869852 1.60446 -1.65992 0.2697 -0.624494 0.861997 
1.03216 0.556517 1.10531 -0.559952 -0.921453 -1.72061 -0.615256 0.632056 -0.69708 -1.27698 1.45025 -0.0890153 -2.01409 0.750123 -0.214758 -0.358964 -0.106055 -0.81356 -0.927404 -0.41544 -0.117956 -0.256399 -0.252248 -0.499799 0.235379 0.0377033 0.516354 -0.0174103 1.58158 -0.609199 0.209016 0.100717 -1.76178 0.616254 -0.0543338 -0.356642 -0.284763 1.49282 -0.186154 -1.99643 -0.774271 -0.883578 0.675297 0.942639 0.300402 0.385265 0.280345 0.573615 0.133362 -0.352307 -0.820069 0.821487 
-0.235496 -0.370231 0.572878 0.598548 0.118419 0.184403 -0.319147 -0.685667 0.304125 0.372617 0.93171 0.415661 -0.0337699 0.322603 -0.786413 0.935865 0.34374 0.845364 -0.885808 0.603612 -0.573537 0.871556 0.0771827 0.00238473 -0.888711 -0.461631 -0.706484 -0.400238 0.804541 0.62888 0.633397 0.809739 -0.996923 0.75475 -0.926695 -0.469536 -0.936551 0.79921 1.47313 -0.77568 -0.80647 0.425283 0.900524 -0.183825 -0.145158 0.661185 -0.00098305 -0.637469 -0.742046 0.69948 -0.39075 -0.0432632 
0.720117 0.425122 0.571116 0.524193 0.0472167 -0.127881 -0.668204 -0.509021 -0.0311344 -0.783936 -0.729127 -0.116684 -1.00107 0.300477 -0.461485 -0.7333 0.746657 -0.94523 -1.15441 -0.241862 0.585637 -0.611905 0.342121 0.327666 -1.23073 1.31588 1.18487 -0.0700438 0.00867011 0.314117 -0.816449 1.60023 -1.26595 -1.04189 0.352869 0.867326 -1.15019 1.00796 0.681507 0.194193 0.0515952 0.357493 1.12602 -0.592118 -0.232218 -0.422375 -0.0113132 -0.452485 0.166904 0.438035 0.515764 -0.534835 
0.548733 0.517095 -2.00763 -1.01912 0.739215 -0.412989 -1.06814 -0.134959 -1.09946 -0.265875 -0.0172315 -0.352517 2.78397 -0.0675621 -0.222641 0.169963 -0.824172 -0.717939 -0.739968 3.05578 -0.959031 -0.389224 0.729839 -1.10705 2.84775 -1.49607 -0.0499659 0.2045 -0.305933 1.71468 -0.142467 -0.969807 0.0869002 -0.308246 0.365545 0.554401 1.20142 0.904706 0.904266 -0.335975 -0.417817 0.877059 -0.310728 -0.300926 -0.924815 0.228804 0.812393 -0.894956 -0.197309 -1.62193 1.43709 1.15651 
0.596261 0.08497 -0.609097 -0.895627 0.629551 0.758511 -0.692853 -0.49685 0.75158 -0.478037 0.982826 -0.733647 -1.31036 -1.36291 -0.342136 -0.783095 -0.134107 0.865577 -0.595527 0.548381 -0.208649 -0.579311 0.522684 -0.235306 0.87875 0.511299 -0.128086 0.269863 -0.690282 -0.154428 -0.157831 -0.39144 -0.98213 0.98475 0.672999 0.124444 0.376759 -0.492931 -0.116423 -0.679473 0.879359 0.639651 0.354434 -0.489693 -0.260392 0.277344 -0.811201 -0.37426 -0.678284 -0.99259 -0.553171 -0.509943 
0.682686 -0.479484 -0.093112 0.879407 -0.935817 0.85917 -0.0874161 0.138328 0.27911 0.0430181 -0.232641 -0.435224 -0.994283 -0.651129 0.308199 0.199395 0.44085 0.557355 0.442268 -0.168401 0.210157 0.607306 0.486555 -0.107341 -0.841305 0.414452 0.548769 -0.76873 -0.294236 0.015579 0.903638 0.0739426 -0.537387 -0.72818 0.0685363 0.137464 0.609481 0.817646 -0.572621 0.209861 0.801768 -0.505083 -0.526813 -0.176289 0.024007 0.502696 0.253367 0.839012 -0.580064 0.84582 0.679091 -0.577852 
1.95799 -0.290025 0.332952 0.955808 0.838151 -0.753053 -0.0203079 0.676531 0.409862 -0.850401 -1.53574 1.33435 0.284189 -0.409554 -0.198935 -0.698579 0.0499388 -0.00480947 -0.033479 -0.710651 0.218309 0.485778 0.31732 0.190803 0.414454 -0.162096 -0.0960643 0.219208 0.541081 -0.410939 0.297533 0.694085 -0.40016 0.117652 -1.13381 0.528464 0.0979101 0.767469 1.09654 -0.785253 0.170868 0.297807 0.925803 0.277566 -0.176712 -0.825259 -1.74286 0.0135429 0.22025 -0.121765 -0.301934 0.853967 
0.0576825 0.16043 0.583471 0.130039 0.243018 0.739386 0.0721761 -0.752241 0.608793 -0.356254 1.00899 0.080454 0.552314 0.895957 1.04123 1.4135 -1.2504 -1.47176 -0.145944 -1.50311 -1.24189 0.0810307 -1.72951 0.837497 0.576505 0.187675 0.192433 0.782516 -0.868162 -0.395862 0.447065 -0.114838 0.561535 -0.266169 -0.657015 0.509269 0.0312269 0.162819 -0.453156 0.8305 -0.58759 0.576279 -0.168115 -0.606548 -0.669113 -0.724194 -0.37727 0.461859 0.81224 -0.164784 0.349174 0.181036 
0.390951 -0.159348 0.340509 0.276155 -0.720436 -0.235805 0.135905 -0.559138 -0.307509 0.0564167 -0.531328 0.222137 0.943596 -0.354608 0.229605 -0.91685 -0.63064 0.873607 -0.238904 -0.708021 0.0819126 -0.694004 -0.334224 -0.911733 -0.467089 -0.052104 0.625163 -0.901946 0.0949527 -0.306589 -0.537252 0.898912 -0.450983 -0.334851 -0.195262 0.309275 -0.318911 0.430882 0.377885 0.605053 -0.017988 -0.566414 0.803492 0.0268851 0.829622 0.84006 0.979362 0.186253 -0.247371 0.757547 -0.419415 -0.165371 
1.61718 0.0123045 0.863822 0.736946 -1.12837 -0.34953 0.559304 -0.009304 -0.445538 0.401881 -0.556867 -0.0811917 -1.12592 0.551336 -1.05388 -1.37863 -1.11422 -0.00637886 -0.318707 0.981267 -1.70895 0.270694 0.983508 1.84166 -0.869546 -0.0974288 -0.698995 -0.1005 -0.156336 -0.708545 1.03148 0.250164 -1.51022 1.95427 -0.655581 0.488663 -1.24804 1.9172 0.113421 -0.78828 -1.41962 0.373271 -0.0757095 0.300217 1.02489 0.414025 -0.632841 -0.759752 0.457393 -0.176714 -0.728174 -0.458898 
-0.93457 -0.648146 0.143159 -0.891822 -0.628707 -0.971227 0.344909 0.167435 -0.188033 0.0915322 -0.127621 -0.500144 0.56506 0.776031 0.881879 0.28922 0.924448 0.88277 0.364982 0.898088 -0.219545 0.744004 0.846966 0.38238 0.243632 -0.632135 -0.0444334 0.533129 0.420808 -0.296118 0.237833 0.243592 -0.76736 -0.0171186 0.922071 0.182133 0.551179 -0.525289 1.85733 -0.244226 -0.317155 -0.0461261 0.809986 -0.79787 0.583353 -0.611518 -0.52772 -0.451807 0.39719 0.884248 0.890414 -0.798119 
-0.886459 0.559674 -1.47388 -0.475109 -0.171003 -1.07337 0.628174 -1.28628 1.14412 -1.2237 2.28118 0.0546613 -0.320163 -0.819493 -0.379365 -0.977912 0.357928 -0.111635 -0.119293 1.60514 0.420916 0.475567 -0.697978 0.344106 0.207735 -0.50944 -0.474642 0.0804569 -0.408577 0.393284 -0.18494 -0.543307 -0.938053 -0.0467494 -0.301389 0.374964 0.887618 0.0159881 0.570642 0.236845 -0.54067 0.485878 -0.463736 0.315817 -0.391546 -0.5652 -0.571942 -0.947856 -0.325121 0.0386086 0.382358 0.685986 
0.477421 -0.525631 0.604917 0.661675 -0.829441 0.883185 -0.547092 0.777494 -0.420575 0.74848 -0.331936 -0.559104 0.566032 0.815081 -0.239503 -0.271225 0.0293094 -0.613522 -0.234015 0.850924 0.524136 0.751698 -0.484033 -0.442671 -0.651248 -1.07111 0.411355 0.540435 0.365081 0.215492 0.00662181 -0.624739 -0.591069 0.938455 0.741768 0.655275 -0.957522 -0.423341 0.482981 0.463034 -0.614191 0.639499 -0.674298 -0.504155 0.630049 0.519483 0.281981 -0.228535 -0.521294 0.444247 0.939964 -0.437851 
-0.446072 1.65667 0.749502 0.343081 0.757098 -0.603916 0.612338 0.204216 0.374365 -0.406766 1.00635 -1.79163 -0.771572 -0.533302 0.21476 -0.892934 0.693997 1.11664 0.524725 -0.94807 -0.273076 -0.799886 -0.0375716 0.59226 -0.8662 1.11209 -0.515941 0.101314 -0.646816 0.404762 0.00830068 -1.17315 1.32528 0.411526 0.382056 0.251041 -0.0653094 0.400032 0.233719 0.405572 -0.672363 -0.695727 0.550665 -0.430415 -0.249254 -0.820903 0.532449 -0.746843 0.41003 -0.919489 -0.819084 -0.00736544 
-0.948624 1.30444 -0.576154 -0.403281 0.330017 -0.279771 -0.4936 -0.182705 0.763679 0.4411 0.115589 -1.30346 -0.260347 1.45007 -0.973422 0.458372 -0.89863 -0.389533 1.04646 -0.850682 0.296384 0.0976558 0.774783 -0.749914 -0.318093 -0.143045 0.782466 -0.815608 -0.238619 0.79023 0.101103 0.967149 -1.232 0.427621 -0.855301 0.874993 0.125918 0.323527 0.308673 0.913942 0.595813 -0.61534 -0.74147 -0.757609 0.667829 -0.779273 -0.666916 -0.785049 -0.404644 -0.632494 0.0650298 -1.06968 
0.626803 0.370613 0.600224 0.26557 0.627612 0.159188 -0.0432141 -0.752302 -0.767173 0.353426 0.926575 0.586529 0.276981 0.246591 0.387856 0.153199 0.0455943 0.1158 1.11923 0.378121 0.970938 0.616103 -0.673188 0.504794 0.826002 -0.789341 -0.170593 -0.201402 0.11804 -0.633169 -0.341838 0.999262 -0.0591513 -0.850133 -0.0718445 0.824186 0.331991 -0.456255 0.350219 0.692325 -0.417359 -0.644277 0.554389 -1.13626 2.21349 0.27014 0.231334 0.0847206 0.358749 0.599384 0.336707 0.634337 
0.503631 -1.28154 -0.135726 -0.141064 0.471751 -0.86256 0.668521 0.423828 0.150623 0.305105 0.309176 0.748341 0.0572773 -0.0919376 -0.829443 0.253017 0.405894 0.683785 -0.0505248 0.787053 0.383134 -0.210321 -0.830891 0.871044 0.127396 0.633861 0.608772 -0.935756 0.750124 0.456419 -0.238657 -1.06268 0.922346 -0.196925 1.76078 0.719269 1.14334 -0.239546 0.0218666 0.00683132 0.752081 -0.229913 -0.491946 0.791211 -0.121313 -0.318445 -0.507846 0.921309 -0.557729 -0.166049 -0.169734 -0.0142383 
-0.74836 1.06487 -1.29209 -0.127232 -0.078699 1.25913 -0.458119 -0.669019 -1.49344 0.790494 -1.58228 1.4772 -0.283607 0.163939 -0.354354 1.69169 -0.554943 -1.34789 0.811796 -0.678159 1.12659 0.826237 -0.830804 0.200315 -1.08067 1.05073 0.901324 1.51318 0.279938 0.00489077 -0.208081 0.0605317 -0.935931 1.45268 -1.47601 -1.23333 0.260175 -0.205962 0.657294 -1.2262 -1.34713 0.736639 0.684217 -0.694735 0.0517355 -1.87083 0.0252562 -0.231146 -0.309484 1.23008 0.337312 -0.285439 
-0.900721 0.389763 1.09501 -0.3735 -0.908865 -0.318939 -0.408176 -0.109138 0.55527 -0.539051 0.105255 0.679718 -0.225375 -0.684588 0.26683 0.199183 0.172078 0.202503 1.0239 -0.926112 0.374886 0.915234 0.856166 -1.48507 -1.04524 0.858689 0.35505 2.34084 -0.191288 -0.453118 -0.813067 -1.5338 1.4382 -0.417369 -0.377141 0.493958 -0.0997995 -0.247397 -0.488777 0.366487 -0.901334 -0.098518 0.795121 0.0253639 -0.661368 1.39145 0.0497273 0.767392 -0.800737 -0.0533881 -0.162594 -0.875142 
-0.0118877 -0.143617 -0.216579 0.46909 -1.23137 0.130516 -0.195942 -0.543586 0.0921464 -0.0312852 -0.467293 0.158519 0.120447 -0.269657 0.720888 0.258452 -0.332174 -0.131951 0.202573 0.686527 0.261517 -1.18565 0.542619 -1.23685 1.58799 0.734376 -0.847872 -0.851317 0.269017 0.291606 -0.410611 -0.148563 -0.922866 -0.775206 -0.00839646 0.518331 0.220311 -1.00455 0.227497 -0.523264 0.21861 1.56698 0.107114 0.0812735 -0.648462 0.0882288 -0.0943391 0.330547 0.452181 -0.465428 0.522927 -0.170523 
0.105651 -0.415855 0.505658 0.549278 -1.03915 1.42224 -0.541807 0.268903 -1.5298 1.01043 -1.25015 0.225044 0.609461 -0.977621 -0.284098 -0.15396 -0.659581 0.704022 -0.853993 0.360295 -1.13025 -0.0664386 -0.335095 0.539104 0.0261675 -0.878207 -0.203138 0.370604 -0.0733592 0.863297 -0.325977 -0.488275 -0.200222 0.0970459 0.075866 0.491397 -1.23128 0.393438 -0.617893 0.523665 0.910972 0.430524 0.6222 0.623783 -0.792688 -0.449005 0.289007 -0.010226 -0.563982 -0.304808 -1.34313 0.884256 
0.842916 -0.193576 0.0652822 0.478119 -0.0549171 -0.750308 0.194139 0.536229 -0.461094 -0.97063 -0.798193 -0.263622 0.1858 0.0950803 -0.675094 -0.336872 1.27398 0.102227 -0.955126 -0.584268 -0.953024 -0.887728 -0.280802 0.464102 0.556413 -0.0516297 0.143163 0.847599 0.479324 -0.298947 0.531733 0.467172 0.221509 0.824509 -0.344484 -0.848073 -0.848879 -0.768746 -0.593648 0.14816 0.632065 0.1242 -0.706488 0.609898 -0.259187 -0.106118 0.872641 0.429357 0.200635 0.614615 0.123668 -0.154192 
0.18025 -0.546536 -0.0704363 0.266875 0.563654 -0.731786 -0.444477 0.740213 -0.152249 0.458406 -0.886246 -1.33107 0.699597 -0.057487 0.936088 -0.978793 0.832812 0.392992 0.0681344 -0.153197 -0.844408 0.965295 0.255711 0.441823 -0.655712 0.939798 0.589852 -0.744676 0.089478 -0.603466 0.10114 -0.470645 0.481518 -0.544428 -0.7494 -0.29416 -0.804048 -0.367986 0.732951 -0.522387 -0.32291 -0.750973 -0.999631 0.5639 0.1825 0.104631 -0.155348 -0.2836 -0.961205 1.28678 0.943416 0.0988119 
-0.578299 -0.590566 -0.967723 -0.171484 -0.601373 0.426771 0.122126 0.650671 0.680346 0.387067 1.04977 -0.396967 -0.37965 0.0954241 -0.0542077 0.00390379 0.845699 -0.222662 -0.568525 -0.841986 0.72763 -0.573891 0.41894 -0.54144 -0.187323 0.0343107 -1.34577 0.255205 0.809423 -0.843521 0.584738 -0.755751 -0.0224054 0.401651 0.845784 -0.809047 -0.583128 0.236179 0.138917 -0.859588 0.262927 -0.0697352 -0.961109 -0.402717 -0.102774 -0.891499 0.696637 -0.0255622 -0.0942762 0.552761 0.257524 0.352952 
0.936005 -1.36582 1.29129 0.722362 -0.792886 -0.838239 -0.449261 0.671422 0.966134 0.873699 0.960898 0.952277 0.0267915 0.663396 0.528688 0.21346 -0.143825 -0.499823 1.25954 0.775894 0.71899 0.0255679 0.463136 -0.52176 -0.55099 0.595975 0.325267 0.635922 0.805925 0.938696 0.748754 -0.732428 0.821678 0.614255 0.735079 -0.225107 -0.515108 0.62911 -0.0792614 -0.0936051 -0.720271 -0.375677 -0.216049 -0.00401258 0.799552 0.826563 0.171363 0.22334 0.438247 -0.689559 -0.685415 0.106114 
-0.930993 -0.673435 -0.429867 1.155 1.02604 1.14603 -0.620235 -0.434762 0.39892 -0.343005 -0.488687 -0.370551 -0.293499 -0.328178 1.16466 -0.911869 -1.36109 0.623874 -0.950142 -1.18029 -0.346198 -0.864564 0.465272 0.816865 -0.957588 -0.00528965 0.906687 0.636678 -0.103922 0.328011 -0.363309 0.422153 0.422152 -0.000304763 0.363298 0.404902 0.211491 0.327349 -0.0744062 -0.113747 0.445512 -0.414593 -0.0235296 0.35502 0.82619 -0.851746 -0.550839 0.0248005 0.692949 -0.0710545 0.467638 -0.44527 
0.518606 -0.992054 -0.834164 0.240573 0.744063 -0.969002 -0.0123578 -0.775145 0.103778 -0.373244 0.505791 0.453879 -0.973698 -0.407007 -0.587018 -0.404098 0.495175 0.212334 -0.311407 0.0614371 -0.27912 -0.981826 -0.37713 0.676755 0.951121 0.437519 -0.229297 0.774197 0.357807 0.394114 -0.449904 0.109093 0.979685 0.489848 -0.760672 0.5281 -0.465411 -0.091351 0.176698 -0.315798 -0.931186 -0.011509 0.226602 -0.152198 -0.0785687 -0.56743 -0.824246 0.518513 -0.234163 0.86995 0.0583279 -0.784543 
-0.994979 -0.288983 0.533571 -1.94019 -1.36232 1.19801 -0.665141 0.220676 2.50264 0.703638 -4.5353 0.488253 0.639117 -0.919709 -1.28867 0.549124 -1.55214 -0.27916 -0.109338 -0.392283 -0.802307 -0.0023889 -0.363731 -0.0444066 -1.49142 -0.434777 -0.95685 0.345223 -0.330698 -0.995852 -0.568027 0.124632 1.35516 0.176024 0.0680503 0.1597 -0.147095 1.14102 1.12979 -0.684911 0.440825 0.35569 -0.431429 0.435675 -2.09898 0.912009 0.212686 1.6675 -0.413811 -0.29168 -0.28972 0.704209 
1.20013 0.565168 -0.0857415 -0.489969 -0.660692 -4.8425 -1.16302 2.86342 -0.80127 3.62973 -1.06622 -1.02307 -0.542158 0.857688 0.45648 0.423237 -0.138757 0.158525 -1.49631 -0.737561 0.880469 0.124132 0.300656 -1.44213 0.266069 0.0947374 1.12722 -1.09185 -0.766558 -0.109303 0.78274 -0.166717 -0.879222 0.671983 1.4014 0.415168 1.09062 -0.48342 0.713134 -0.072749 0.251922 -0.925132 0.721132 -0.472653 1.114 -0.6082 -0.863648 -0.986209 1.33143 -0.742954 -0.30696 -1.70495 
0.76554 0.840797 1.52006 0.725984 0.0761444 0.80381 0.832021 0.474881 0.597524 -0.528428 0.818893 -0.567522 -0.383456 0.328796 0.54404 -0.0175053 0.622549 -0.151938 0.465813 -0.760016 1.84249 0.541925 -0.195857 -0.550452 -0.880706 0.318946 -0.407651 -0.951674 -0.365415 0.441233 0.939067 0.846898 -0.51492 -0.47443 0.358972 0.625337 1.05965 1.15442 -0.574586 -2.74463 0.226007 0.349252 -0.00322243 0.384254 0.175559 0.942848 1.44962 -0.0218143 0.273213 -0.131844 0.637156 -0.929996 
1.5407 -0.11605 -0.236874 1.4453 -0.536104 0.135083 -0.402858 1.15752 -0.96581 0.343464 -0.107398 -1.28804 -0.668977 -0.312647 0.474958 0.000814156 1.80763 1.67615 -0.215065 1.06932 1.61961 -1.64307 1.32939 -0.454574 0.124874 -0.763792 -0.217313 -0.861808 -0.842851 -0.142472 -0.322855 -0.156495 -0.442487 -1.11242 0.248948 -1.21252 1.388 -0.00280919 0.0677626 -0.512644 1.60208 -0.248228 0.10509 -1.17858 0.850837 0.211453 -0.817187 -0.922204 0.070393 -0.275805 0.58496 0.684775 
-0.112462 -0.0243078 -0.274415 -0.331878 -0.649149 0.943833 0.172823 -0.41245 -0.366291 -0.400198 0.242271 -0.0516809 -1.20174 2.15391 0.427715 -0.203567 -0.0818683 0.0415314 -0.284188 0.437823 -0.432077 0.767574 -0.65776 0.155887 0.541367 0.234073 -0.104646 0.450315 0.280425 0.170203 0.67479 0.741816 0.869174 0.981062 0.0730738 -0.0366144 -0.636401 -0.581534 0.798704 0.284595 0.246309 0.491053 0.832772 0.152197 0.929075 0.101742 0.681079 0.350709 0.273594 0.469412 -0.121369 -0.619188 
-0.906563 -0.182055 0.561765 -0.786123 -0.315796 0.370661 -0.496245 -0.13403 0.223378 0.698 0.321243 -0.774217 0.767429 -0.21165 0.760494 -0.709061 -0.798937 0.146454 -0.774889 -0.434566 0.873861 -0.82529 -0.288712 0.55236 0.0974853 -0.207158 -0.549807 0.1057 0.618085 0.102247 -0.925179 0.877403 -0.926242 0.46057 -0.0631784 -0.15748 -0.575583 0.959173 0.528665 -0.532917 -0.869522 0.603624 0.813118 -0.624035 -0.545685 -0.0572701 -0.725996 -0.267105 0.723854 0.83824 -0.738645 0.203137 
-1.24981 -0.417848 -1.6523 -0.0837286 1.35073 1.67488 -0.706418 1.33909 3.74125 0.927288 -4.93396 -0.36114 1.0498 0.474087 -0.22996 1.11936 -0.687369 0.0718317 -1.46894 0.997649 0.762978 -0.0980615 0.928266 -1.15977 -0.0579281 0.203102 0.747369 0.58189 -1.36392 -0.861743 0.693953 0.306086 -0.744849 -0.0749283 0.72268 -0.182788 -0.348827 0.258916 -0.755198 -0.184319 -0.474841 -0.0347019 0.0952298 0.433074 -0.482406 -0.21112 -0.816824 -0.181589 0.711633 -0.796302 -1.00073 -1.29964 
0.557796 0.2847 -0.400401 1.18691 0.665268 -0.747534 1.08287 -0.824439 -0.243033 -0.841307 1.11024 -0.359297 0.0180973 0.738864 0.938752 -1.10626 0.424892 0.141034 0.488037 0.910719 -0.654429 -0.400505 -0.766213 0.531011 0.845404 0.541318 -0.579088 -0.544515 0.399006 0.967904 -0.206874 -0.0933025 -0.649787 0.12837 0.753067 -0.314826 -0.157326 -0.651645 0.699672 0.390087 0.33267 -0.0168567 -0.41335 0.921548 -0.350295 0.889701 0.397007 -0.256322 0.124632 -0.837746 0.510457 0.4251 
0.0141673 -0.952774 -0.794087 -0.201745 0.626358 0.446918 -0.0855784 0.30993 0.246631 0.128213 -1.15272 -0.105966 -0.0984305 0.960455 -0.55951 0.913524 -0.0683534 0.355531 0.708945 0.199188 -0.262637 -1.12688 0.439511 -0.0875777 1.09347 0.243623 0.395325 -0.437007 -0.215637 -0.246006 0.771928 -1.04747 1.30918 0.0174241 0.0340957 0.0288373 -0.749544 1.27735 0.735374 0.0174864 0.217187 -0.7749 -0.0158796 -0.880055 -0.841081 -0.432454 -0.821559 -0.174811 0.180483 -0.364788 -0.239001 0.7801 
0.946289 0.0042622 -0.454357 -0.127212 -0.190421 0.510953 0.215447 0.0654558 -0.204336 0.165229 0.287303 0.408541 -0.180586 -1.40724 1.38044 0.763835 -0.532005 0.683308 -0.0653188 0.495382 -0.942336 -0.0890122 0.201472 -0.442157 -0.279755 -0.00737122 0.0672722 -0.769831 0.262064 -0.855456 0.161093 -0.948081 0.607047 0.931624 0.717244 -0.0132181 0.503626 0.805574 2.16828 0.331811 -0.736666 -0.909061 -0.924593 0.0543481 -0.980604 0.221762 -0.0264134 -0.99135 -0.035507 -0.2136 -0.690902 -0.333171 
-0.346319 -0.544291 0.302724 0.239228 0.107584 -1.28463 1.3114 0.873072 0.554877 0.551937 0.805106 -0.224065 0.445277 -0.804084 -0.0545042 -0.370369 -0.23372 0.0546022 0.442697 -0.375588 0.816087 -0.912472 0.853871 -0.780482 0.350572 0.202122 0.38443 0.0509074 -0.664473 -0.973944 -0.507846 0.910428 -0.788536 -0.260329 0.148261 -0.595077 -0.0380457 -0.504351 0.560929 0.0660899 -0.277054 -0.223426 -1.15348 0.403675 0.592869 -0.285066 -1.11213 0.833695 0.350253 -0.852487 0.32756 -0.238518 
-0.991992 -0.491597 0.35683 -0.535684 -0.315967 0.732589 -0.434481 -1.50794 -0.756414 -0.174598 -0.780982 -0.337286 -0.827195 0.715918 -1.79633 -0.498814 0.269819 0.145273 0.101008 -0.0170149 -0.376117 0.980816 -0.679608 0.257566 0.300587 0.752183 -0.653318 0.463527 -0.762617 -0.660995 0.851779 0.402382 0.795836 0.964139 0.590187 0.85629 -0.468192 0.38924 -0.865659 0.377588 -0.659614 0.632867 0.16572 0.595375 0.879549 0.121598 -0.832553 0.22361 0.0166524 0.616139 0.33824 0.95448 
-0.851516 0.134231 -2.03278 -0.737852 1.5005 0.101368 0.0397659 0.251943 -0.85701 -0.698856 -1.87091 -1.76744 1.19544 2.30299 0.16053 0.0797831 -0.506264 -1.47936 -0.48451 -0.672481 -1.0041 0.477219 -0.313315 0.674101 -1.04319 -0.121636 -0.402051 0.413624 0.194635 0.0781926 -1.20467 0.55332 0.553864 0.918652 1.29199 0.0175258 -1.71088 -0.611207 -0.857248 1.75424 0.577632 0.812497 0.970167 1.10833 -1.13107 0.589968 0.19855 -0.409639 -0.675677 -0.45745 -0.390525 0.84185 
0.551833 0.450897 0.725944 -0.477966 0.690364 0.184763 -0.527213 0.659363 -0.311344 -0.467571 0.433436 0.754617 -0.133259 -0.311552 0.88727 -0.421936 0.0992983 -0.893679 -0.0791649 -0.764907 0.18219 0.362159 0.755223 -0.0442052 -0.316051 0.000396699 0.559253 -0.08267 0.832698 -0.469803 0.0783426 -0.0898215 -1.19483 0.0717123 -0.751829 0.474216 -0.831363 0.135126 0.472653 -0.486515 -0.875869 2.30799 0.105175 0.590474 0.148289 0.471038 0.317995 0.651605 0.0856887 0.596381 0.125897 -0.97705 
-0.137545 -0.460911 0.874696 -0.0822365 -0.701092 0.604592 -0.980304 0.398168 0.39454 -0.143488 0.557672 1.04958 0.349602 -1.76012 0.496145 -0.703503 -0.188134 0.520922 0.0601556 0.38375 -0.790634 -0.575492 -0.182308 0.496164 -0.283394 0.636865 0.357145 0.287866 -1.30686 -0.377019 0.497411 0.363573 -0.107651 0.273238 -0.331124 -0.576401 -0.337889 0.554545 -0.0993569 0.14966 -0.175653 -0.367716 -0.652079 0.222603 1.11423 0.364375 0.751361 0.703127 -0.836569 -0.817147 -0.853561 0.485759 
0.133125 0.330998 0.193605 1.37549 0.0646327 -0.510143 -0.471452 0.539186 -0.200362 -0.378967 -0.111356 1.25189 0.458715 0.684945 -0.327481 -1.09394 1.86428 0.627156 -0.270212 1.68178 0.0493555 -0.876478 -1.25732 -0.649759 0.515399 0.494724 -0.120688 -0.870625 -0.529524 -1.17165 -0.326903 0.00753779 -1.18822 -0.615365 -0.96712 0.534234 -0.370016 -1.05903 0.487378 1.28665 -1.10975 -1.61683 0.729486 -1.54189 1.78794 2.04977 -0.546043 1.03653 0.282919 -0.384737 -2.52427 0.680259 
0.153281 -1.34986 -0.524565 -0.2312 0.559231 -0.618426 -0.397708 0.260916 -0.630888 -0.206635 -0.337075 0.532936 0.507202 0.496658 0.376873 0.816333 0.634128 -1.17607 1.08052 0.0549939 1.39111 0.889317 0.0646667 -0.213114 0.612657 -0.974684 0.29931 0.54871 -0.861111 -0.646652 -0.0977104 0.57471 -0.368524 0.21602 -0.781543 0.0259335 0.150398 -0.207657 -0.296514 0.899238 -0.826742 0.8798 -0.264254 0.00237121 -0.523562 0.661979 -0.462208 -0.707848 1.09081 -0.460424 -0.776063 0.826775 
-1.28749 0.965317 -0.0237252 -0.778334 -0.794613 -0.522322 -0.511606 0.97355 -0.558526 -0.543793 0.90753 -1.15038 0.448898 -0.37386 -1.0272 0.130708 -0.0487515 -1.42263 0.523094 0.811748 0.282745 1.15036 0.0562033 0.118258 0.33562 -0.598882 -1.01601 -0.105416 -0.644104 0.912702 -0.580696 -1.97573 1.03935 0.17022 -0.292642 0.855481 1.21201 0.56742 -0.552372 -0.283161 0.858239 1.05439 -0.655754 0.00902711 0.171825 1.19146 0.180202 -0.586502 -0.778396 0.735419 -0.530807 -0.885506 
-1.30814 1.0988 0.161366 0.666596 0.806941 -0.186648 0.0538624 -0.474707 -1.08166 -0.909522 0.204718 0.543663 -1.36079 0.0902277 0.635608 -0.562147 -0.657679 -0.131171 -1.24125 0.451903 1.15028 1.18766 0.218746 0.118404 0.17123 0.911018 -0.555413 -0.687842 -0.588273 -1.10057 0.529843 0.202091 -0.901672 0.507547 -0.167693 0.117727 -0.916472 0.432401 0.791105 0.520882 -0.96525 -0.943452 1.54323 -0.0910983 0.00732227 -0.101789 0.141797 -0.242321 -0.754172 0.992596 -0.193443 1.06004 
0.496537 -0.45576 0.50808 -0.0625284 0.187903 1.17138 -0.407276 -2.1133 -1.50527 0.657733 -0.0410748 1.24733 -0.257245 -1.31148 -0.453506 -0.027875 0.970275 0.42234 0.669301 0.586625 -1.07662 -0.601889 1.6157 -0.334997 -0.472115 0.225741 0.676251 -0.417288 -0.0266269 1.71126 0.839183 0.786136 -0.209524 0.464551 -0.793356 0.531761 0.113847 0.596828 0.22736 -0.0522601 -0.694374 -0.491195 0.597361 -0.761735 -0.464512 0.0479639 1.22897 0.324428 -0.148519 1.31254 -1.11477 -1.25201 
0.764441 1.5539 1.94647 -0.357328 0.863884 0.129407 -0.0264551 0.13985 0.127527 -1.80081 -1.34777 0.754802 0.353222 -1.76743 0.940968 -0.450903 1.12635 -0.669341 -1.20171 0.846804 0.99112 0.304708 0.0574957 -0.170573 -0.786438 -0.661722 -0.671442 -0.782614 0.766663 -0.213506 -0.654737 0.576282 -1.79516 -0.304267 -2.1662 -1.02088 0.655846 1.204 -0.220903 1.0928 -1.13875 -0.866303 1.04316 0.62649 1.4982 -1.57938 0.33495 0.0649909 1.27219 -0.272378 0.636526 0.43555 
0.222759 -0.136663 -0.941961 -1.00204 -0.48902 -0.894774 -0.600146 -0.56576 1.0095 -0.796549 0.431141 -0.641264 0.0119323 0.987047 0.357758 0.590481 0.13401 0.624516 -0.881595 0.158474 0.540868 -0.991821 -0.0487956 0.984994 0.462265 -0.957388 0.0392378 0.774798 -0.862225 0.220815 -0.658421 -0.160167 -1.37905 1.23533 -0.160493 1.2765 -0.395654 0.591897 -0.523721 -0.920771 0.678762 -0.290542 0.358044 -0.802837 0.942755 -0.837486 0.845598 -0.806824 -0.64651 -0.510548 0.215878 0.966529 
-0.404731 -0.362643 -4.97833 3.18244 -1.29696 -0.644337 3.68468 -1.03989 0.939611 -1.01337 0.827586 -0.146485 -0.4787 -0.0401589 0.377476 0.366434 0.62641 -1.17817 1.32837 0.846166 0.89118 -0.574666 0.566001 0.406652 0.274572 0.46812 -0.464855 -0.597309 -0.401563 1.82801 0.246755 0.0223421 0.438751 -0.0124314 0.94563 0.571616 -0.750677 0.30565 0.56325 -0.0190109 -0.00896925 0.361165 0.63874 0.984694 -0.355363 -0.0815158 0.501054 0.616583 -0.235668 -0.506238 -0.295683 -1.32664 
-0.609501 -0.866615 0.519624 0.277193 0.763128 -0.50935 0.820873 0.0956268 0.138437 0.401996 -1.50495 1.38082 -0.401894 0.215082 0.483626 -0.462257 0.165742 0.415749 0.0775416 -0.781385 0.978658 -0.0753327 0.829796 -0.141542 0.0415289 -0.416846 -0.0880483 0.826005 0.246736 0.15066 0.0845244 -0.802303 -0.235464 -0.948428 0.103132 0.662758 0.574997 -0.22189 0.973163 -0.158447 -0.523548 0.780052 -0.628513 -0.891211 -0.10473 -0.575517 0.619038 -1.51315 0.465386 -0.831006 -2.03266 1.18818 
1.4234 0.771362 0.619233 0.966432 -0.923925 -0.515459 0.731355 -0.0788423 -0.486716 -0.41784 0.103412 -0.869319 0.574803 0.66689 0.123867 0.922085 -0.00337508 -0.688329 -0.591161 -0.540313 -0.958272 -0.83929 -0.858957 0.485112 0.033506 -0.625185 -0.316064 0.707329 -0.353662 -0.735276 0.111421 -0.652105 0.60893 0.577449 -0.885005 0.298919 -0.820361 -0.446684 0.0271787 -0.354879 0.058493 -0.922699 1.06964 -0.920835 -0.0124326 -0.961449 0.0222752 -0.988723 0.538748 1.54678 0.156518 -0.0337578 
-0.543225 0.118099 0.878283 -0.256789 0.75878 -0.0115374 0.354237 0.582464 -0.569503 0.372055 0.210381 -0.378774 0.641436 0.0457061 -0.129613 0.558694 0.886255 -0.177971 0.348522 -0.59238 0.705561 -0.0322485 0.0792045 0.623015 0.941624 0.295936 -0.729707 -0.556328 -0.516899 0.461166 0.109096 0.0317894 -0.378575 -0.762121 -0.981417 0.768109 0.683096 -0.69686 -0.49481 0.588281 -0.522918 -0.480933 0.716646 -0.635784 0.183323 -0.931983 -0.652427 0.652458 -0.412312 -0.458058 0.559829 0.408657 
-0.803219 -0.0582639 0.381647 -0.312239 1.1398 0.132049 0.346177 0.673383 -0.344151 -0.801039 -1.26826 1.61401 -0.300529 -0.0995789 -1.45653 -1.78723 -0.288998 -0.137824 0.132494 0.288952 -0.714254 0.718419 -0.667652 0.555721 0.809391 -0.321182 -0.964839 -1.77339 3.1314 -1.65109 1.4805 1.79267 0.243642 -0.290775 -1.45702 0.904768 0.296325 -0.354378 0.11107 2.02599 -0.712403 -0.735682 -1.25625 0.800972 -0.762161 0.612079 -0.117045 0.264046 -1.05841 1.26493 -0.323309 0.178243 
0.0407679 0.61653 -0.644624 1.57501 -0.684613 0.491487 -0.865015 1.13284 -1.24243 1.9589 -0.31623 0.650811 -0.468921 -0.101216 0.666011 0.986127 -0.304775 -0.527072 0.642666 1.1106 -0.149959 -0.190707 1.12217 0.262993 1.25139 0.662516 0.344849 0.472029 0.247081 -0.633927 0.182441 0.543026 0.817644 0.246569 -0.0745141 -0.0329227 0.271133 0.142643 -0.704576 0.0620855 -0.176256 -0.629454 -0.225365 -1.20949 2.09377 0.28731 0.337803 -0.630527 -0.820587 0.247006 -0.0855754 -0.874225 
0.82289 -0.204074 -0.405963 0.681582 0.650949 -0.328626 -0.322092 0.849812 0.210732 -0.0757755 0.0881176 -0.66467 -0.715831 -0.282732 -0.235085 -0.45154 -0.600614 -0.636634 1.37148 0.0458382 0.461037 -0.752584 -0.775395 0.253887 -0.622628 -0.209254 0.740835 0.741136 -0.292834 -0.216028 0.791968 0.674365 0.809772 0.166735 0.179033 0.426623 0.438013 -0.969451 -0.860548 -0.495635 -0.78803 -0.60814 0.996025 0.639248 0.00290425 -0.858005 0.335098 -0.331227 -0.31564 -0.210601 0.0988991 -0.0501027 
1.18744 -1.53198 1.38594 -1.01071 0.232654 -1.8062 -0.474638 -1.02998 0.634533 -1.44413 1.82554 -0.546524 0.334436 -0.590565 -0.847098 -0.197494 -0.102155 -1.53188 1.1639 -0.589803 -1.64092 0.567263 -0.899617 0.94437 0.699456 -0.71892 0.502109 -0.306535 -0.432316 0.438225 -0.346055 0.348244 0.556128 -0.330075 0.568 -0.710088 0.737932 -0.505329 0.578101 0.677865 -0.277934 0.307305 0.576749 0.586164 -0.0441048 -0.623775 0.167605 -0.416788 0.285757 -0.360277 0.254025 0.680036 

